{"learner":{"attributes":{"scikit_learn":"{\"_estimator_type\": \"regressor\"}"},"feature_names":["PM2.5","temperature","humidity","wind_speed","wind_direction","temperature_t+1","humidity_t+1","wind_speed_t+1","wind_direction_t+1"],"feature_types":["float","float","int","float","int","float","int","float","int"],"gradient_booster":{"model":{"gbtree_model_param":{"num_parallel_tree":"1","num_trees":"100"},"iteration_indptr":[0,1,2,3,4,5,6,7,8,9,10,11,12,13,14,15,16,17,18,19,20,21,22,23,24,25,26,27,28,29,30,31,32,33,34,35,36,37,38,39,40,41,42,43,44,45,46,47,48,49,50,51,52,53,54,55,56,57,58,59,60,61,62,63,64,65,66,67,68,69,70,71,72,73,74,75,76,77,78,79,80,81,82,83,84,85,86,87,88,89,90,91,92,93,94,95,96,97,98,99,100],"tree_info":[0,0,0,0,0,0,0,0,0,0,0,0,0,0,0,0,0,0,0,0,0,0,0,0,0,0,0,0,0,0,0,0,0,0,0,0,0,0,0,0,0,0,0,0,0,0,0,0,0,0,0,0,0,0,0,0,0,0,0,0,0,0,0,0,0,0,0,0,0,0,0,0,0,0,0,0,0,0,0,0,0,0,0,0,0,0,0,0,0,0,0,0,0,0,0,0,0,0,0,0],"trees":[{"base_weights":[4.5420842E-7,-8.353292E0,9.8123825E1,-1.7164865E1,1.2000836E1,6.699712E1,1.2868858E2,-2.3061766E1,-9.521192E0,5.3298707E0,2.7056646E1,6.0030293E1,8.135493E1,1.0873481E2,7.8200545E0,-1.4834626E0,-1.0290931E0,-6.674876E-1,-2.9803443E-1,7.4642316E-2,4.812843E-1,1.1271402E0,2.0719984E0,2.4908814E0,3.400058E0,4.1572533E0,1.5068159E0,5.657331E0,3.7690046E0],"categories":[],"categories_nodes":[],"categories_segments":[],"categories_sizes":[],"default_left":[0,0,0,0,0,0,0,0,0,0,0,0,0,0,0,0,0,0,0,0,0,0,0,0,0,0,0,0,0],"id":0,"left_children":[1,3,5,7,9,11,13,15,17,19,21,23,25,27,-1,-1,-1,-1,-1,-1,-1,-1,-1,-1,-1,-1,-1,-1,-1],"loss_changes":[4.785158E6,9.6511925E5,4.2711E5,1.6903325E5,1.6316603E5,1.802275E4,1.101765E5,3.4111125E4,2.223536E4,1.8578623E4,3.1462938E4,9.474125E3,4.095875E3,1.1631125E4,0E0,0E0,0E0,0E0,0E0,0E0,0E0,0E0,0E0,0E0,0E0,0E0,0E0,0E0,0E0],"parents":[2147483647,0,0,1,1,2,2,3,3,4,4,5,5,6,6,7,7,8,8,9,9,10,10,11,11,12,12,13,13],"right_children":[2,4,6,8,10,12,14,16,18,20,22,24,26,28,-1,-1,-1,-1,-1,-1,-1,-1,-1,-1,-1,-1,-1,-1,-1],"split_conditions":[1.0285E2,5.28E1,1.507E2,3.74E1,7.37E1,1.353E2,1.9745E2,2.64E1,4.345E1,6.16E1,2.75E2,2.86E2,8.5E1,1.23E1,7.8200545E0,-1.4834626E0,-1.0290931E0,-6.674876E-1,-2.9803443E-1,7.4642316E-2,4.812843E-1,1.1271402E0,2.0719984E0,2.4908814E0,3.400058E0,4.1572533E0,1.5068159E0,5.657331E0,3.7690046E0],"split_indices":[0,0,0,0,0,0,0,0,0,0,8,4,6,3,0,0,0,0,0,0,0,0,0,0,0,0,0,0,0],"split_type":[0,0,0,0,0,0,0,0,0,0,0,0,0,0,0,0,0,0,0,0,0,0,0,0,0,0,0,0,0],"sum_hessian":[5.836E3,5.379E3,4.57E2,3.754E3,1.625E3,2.28E2,2.29E2,2.118E3,1.636E3,1.127E3,4.98E2,1.57E2,7.1E1,1.36E2,9.3E1,5.75E2,1.543E3,7.87E2,8.49E2,5.96E2,5.31E2,3.81E2,1.17E2,7.2E1,8.5E1,6.8E1,3E0,1.18E2,1.8E1],"tree_param":{"num_deleted":"0","num_feature":"9","num_nodes":"29","size_leaf_vector":"1"}},{"base_weights":[4.9829585E-3,-7.9355755E0,9.3280525E1,-1.6648836E1,1.0646851E1,6.3697727E1,1.2232913E2,-2.2390617E1,-9.961729E0,4.476956E0,2.5710226E1,5.7066063E1,7.736585E1,1.0336688E2,7.4332123E0,-1.4579958E0,-1.0133957E0,-6.7274374E-1,-3.1503308E-1,4.329344E-2,4.572653E-1,1.0811379E0,2.006837E0,2.3680434E0,3.2320316E0,3.9524033E0,1.4503103E0,5.20671E0,-2.4681091E-2],"categories":[],"categories_nodes":[],"categories_segments":[],"categories_sizes":[],"default_left":[0,0,0,0,0,0,0,0,0,0,0,0,0,0,0,0,0,0,0,0,0,0,0,0,0,0,0,0,0],"id":1,"left_children":[1,3,5,7,9,11,13,15,17,19,21,23,25,27,-1,-1,-1,-1,-1,-1,-1,-1,-1,-1,-1,-1,-1,-1,-1],"loss_changes":[4.323972E6,8.712719E5,3.85785E5,1.4042119E5,1.5955486E5,1.63420625E4,9.948875E4,2.7716375E4,2.1579172E4,2.0558617E4,2.8557094E4,8.553594E3,3.5644062E3,1.09695E4,0E0,0E0,0E0,0E0,0E0,0E0,0E0,0E0,0E0,0E0,0E0,0E0,0E0,0E0,0E0],"parents":[2147483647,0,0,1,1,2,2,3,3,4,4,5,5,6,6,7,7,8,8,9,9,10,10,11,11,12,12,13,13],"right_children":[2,4,6,8,10,12,14,16,18,20,22,24,26,28,-1,-1,-1,-1,-1,-1,-1,-1,-1,-1,-1,-1,-1,-1,-1],"split_conditions":[1.0285E2,5.17E1,1.507E2,3.63E1,7.37E1,1.353E2,1.9745E2,2.53E1,4.29E1,6.16E1,2.84E2,2.86E2,8.5E1,1.65E1,7.4332123E0,-1.4579958E0,-1.0133957E0,-6.7274374E-1,-3.1503308E-1,4.329344E-2,4.572653E-1,1.0811379E0,2.006837E0,2.3680434E0,3.2320316E0,3.9524033E0,1.4503103E0,5.20671E0,-2.4681091E-2],"split_indices":[0,0,0,0,0,0,0,0,0,0,8,4,6,3,0,0,0,0,0,0,0,0,0,0,0,0,0,0,0],"split_type":[0,0,0,0,0,0,0,0,0,0,0,0,0,0,0,0,0,0,0,0,0,0,0,0,0,0,0,0,0],"sum_hessian":[5.836E3,5.379E3,4.57E2,3.662E3,1.717E3,2.28E2,2.29E2,1.969E3,1.693E3,1.219E3,4.98E2,1.57E2,7.1E1,1.36E2,9.3E1,4.67E2,1.502E3,8.65E2,8.28E2,6.88E2,5.31E2,3.9E2,1.08E2,7.2E1,8.5E1,6.8E1,3E0,1.35E2,1E0],"tree_param":{"num_deleted":"0","num_feature":"9","num_nodes":"29","size_leaf_vector":"1"}},{"base_weights":[8.802917E-3,-7.5387716E0,8.866807E1,-1.5002254E1,1.2065494E1,7.0068054E1,1.3085034E2,-2.0822912E1,-8.060726E0,6.4973445E0,2.6440908E1,5.4248203E1,8.497277E1,1.06631454E2,7.0655055E0,-1.3852518E0,-9.4303256E-1,-5.937168E-1,-2.3488443E-1,1.6307095E-1,5.3377914E-1,1.0937787E0,2.0667856E0,2.2512634E0,3.0723093E0,3.67863E0,4.6485515E0,5.8247733E0,2.2607734E0],"categories":[],"categories_nodes":[],"categories_segments":[],"categories_sizes":[],"default_left":[0,0,0,0,0,0,0,0,0,0,0,0,0,0,0,0,0,0,0,0,0,0,0,0,0,0,0,0,0],"id":2,"left_children":[1,3,5,7,9,11,13,15,17,19,21,23,25,27,-1,-1,-1,-1,-1,-1,-1,-1,-1,-1,-1,-1,-1,-1,-1],"loss_changes":[3.9065695E6,7.8736156E5,3.50174E5,1.5728756E5,1.1861419E5,7.084325E4,2.014375E4,2.8093562E4,2.2760445E4,1.4445609E4,2.7247656E4,7.7224688E3,8.0225E3,2.259975E4,0E0,0E0,0E0,0E0,0E0,0E0,0E0,0E0,0E0,0E0,0E0,0E0,0E0,0E0,0E0],"parents":[2147483647,0,0,1,1,2,2,3,3,4,4,5,5,6,6,7,7,8,8,9,9,10,10,11,11,12,12,13,13],"right_children":[2,4,6,8,10,12,14,16,18,20,22,24,26,28,-1,-1,-1,-1,-1,-1,-1,-1,-1,-1,-1,-1,-1,-1,-1],"split_conditions":[1.0285E2,5.445E1,1.804E2,3.74E1,7.645E1,1.353E2,1.9745E2,2.53E1,4.4E1,6.435E1,2.84E2,2.86E2,1.507E2,1.23E1,7.0655055E0,-1.3852518E0,-9.4303256E-1,-5.937168E-1,-2.3488443E-1,1.6307095E-1,5.3377914E-1,1.0937787E0,2.0667856E0,2.2512634E0,3.0723093E0,3.67863E0,4.6485515E0,5.8247733E0,2.2607734E0],"split_indices":[0,0,0,0,0,0,0,0,0,0,8,4,0,3,0,0,0,0,0,0,0,0,0,0,0,0,0,0,0],"split_type":[0,0,0,0,0,0,0,0,0,0,0,0,0,0,0,0,0,0,0,0,0,0,0,0,0,0,0,0,0],"sum_hessian":[5.836E3,5.379E3,4.57E2,3.896E3,1.483E3,3.19E2,1.38E2,2.118E3,1.778E3,1.07E3,4.13E2,1.57E2,1.62E2,4.5E1,9.3E1,4.67E2,1.651E3,8.32E2,9.46E2,6.04E2,4.66E2,3.18E2,9.5E1,7.2E1,8.5E1,7.1E1,9.1E1,3.8E1,7E0],"tree_param":{"num_deleted":"0","num_feature":"9","num_nodes":"29","size_leaf_vector":"1"}},{"base_weights":[1.341662E-2,-7.3891587E0,8.171645E1,-1.5818386E1,7.666251E0,5.5500885E1,1.1054024E2,-2.1533363E1,-1.1033185E1,2.8650973E0,2.2409489E1,4.513267E1,6.3769314E1,9.341749E1,6.715988E0,-1.4188462E0,-9.9892205E-1,-6.7440474E-1,-3.5818428E-1,-8.8578366E-2,3.2734078E-1,9.6380454E-1,1.7402343E0,2.3556504E0,-4.3247452E-1,3.4424748E0,2.5560267E0,4.8694396E0,3.1813967E0],"categories":[],"categories_nodes":[],"categories_segments":[],"categories_sizes":[],"default_left":[0,0,0,0,0,0,0,0,0,0,0,0,0,0,0,0,0,0,0,0,0,0,0,0,0,0,0,0,0],"id":3,"left_children":[1,3,5,7,9,11,13,15,17,19,21,23,25,27,-1,-1,-1,-1,-1,-1,-1,-1,-1,-1,-1,-1,-1,-1,-1],"loss_changes":[3.5308968E6,6.7944625E5,3.6034625E5,9.3618375E4,1.359837E5,1.9068562E4,8.11015E4,1.606525E4,1.7667016E4,2.4781465E4,1.766114E4,1.2868797E4,5.4765E3,1.0010875E4,0E0,0E0,0E0,0E0,0E0,0E0,0E0,0E0,0E0,0E0,0E0,0E0,0E0,0E0,0E0],"parents":[2147483647,0,0,1,1,2,2,3,3,4,4,5,5,6,6,7,7,8,8,9,9,10,10,11,11,12,12,13,13],"right_children":[2,4,6,8,10,12,14,16,18,20,22,24,26,28,-1,-1,-1,-1,-1,-1,-1,-1,-1,-1,-1,-1,-1,-1,-1],"split_conditions":[1.0065E2,4.895E1,1.507E2,3.355E1,7.37E1,1.199E2,1.9745E2,2.31E1,4.18E1,5.72E1,2.84E2,1.7E1,6.9E1,1.23E1,6.715988E0,-1.4188462E0,-9.9892205E-1,-6.7440474E-1,-3.5818428E-1,-8.8578366E-2,3.2734078E-1,9.6380454E-1,1.7402343E0,2.3556504E0,-4.3247452E-1,3.4424748E0,2.5560267E0,4.8694396E0,3.1813967E0],"split_indices":[0,0,0,0,0,0,0,0,0,0,8,3,2,3,0,0,0,0,0,0,0,0,0,0,0,0,0,0,0],"split_type":[0,0,0,0,0,0,0,0,0,0,0,0,0,0,0,0,0,0,0,0,0,0,0,0,0,0,0,0,0],"sum_hessian":[5.836E3,5.352E3,4.84E2,3.431E3,1.921E3,2.55E2,2.29E2,1.562E3,1.869E3,1.45E3,4.71E2,1.16E2,1.39E2,1.36E2,9.3E1,2.86E2,1.276E3,1.142E3,7.27E2,6.42E2,8.08E2,3.78E2,9.3E1,1.12E2,4E0,9.6E1,4.3E1,1.18E2,1.8E1],"tree_param":{"num_deleted":"0","num_feature":"9","num_nodes":"29","size_leaf_vector":"1"}},{"base_weights":[1.6545411E-2,-6.80498E0,8.014709E1,-1.3999142E1,9.813029E0,6.326664E1,1.1843196E2,-1.9232624E1,-8.218651E0,5.921594E0,2.7350586E1,4.893094E1,7.677446E1,9.696895E1,6.3837614E0,-1.215532E0,-8.561053E-1,-5.7518095E-1,-2.560465E-1,1.4784178E-1,6.1986345E-1,1.1111219E0,2.0200129E0,2.0176451E0,2.7821667E0,3.339216E0,4.1879163E0,5.3037734E0,2.0226781E0],"categories":[],"categories_nodes":[],"categories_segments":[],"categories_sizes":[],"default_left":[0,0,0,0,0,0,0,0,0,0,0,0,0,0,0,0,0,0,0,0,0,0,0,0,0,0,0,0,0],"id":4,"left_children":[1,3,5,7,9,11,13,15,17,19,21,23,25,27,-1,-1,-1,-1,-1,-1,-1,-1,-1,-1,-1,-1,-1,-1,-1],"loss_changes":[3.1911228E6,6.433306E5,2.8849725E5,1.1343856E5,1.1080647E5,5.8209375E4,1.5195375E4,2.069675E4,1.8115266E4,2.5536164E4,1.8843797E4,6.852125E3,5.77875E3,1.9383188E4,0E0,0E0,0E0,0E0,0E0,0E0,0E0,0E0,0E0,0E0,0E0,0E0,0E0,0E0,0E0],"parents":[2147483647,0,0,1,1,2,2,3,3,4,4,5,5,6,6,7,7,8,8,9,9,10,10,11,11,12,12,13,13],"right_children":[2,4,6,8,10,12,14,16,18,20,22,24,26,28,-1,-1,-1,-1,-1,-1,-1,-1,-1,-1,-1,-1,-1,-1,-1],"split_conditions":[1.0285E2,5.28E1,1.804E2,3.63E1,8.14E1,1.353E2,1.9745E2,2.64E1,4.29E1,6.765E1,2.75E2,2.86E2,1.507E2,1.23E1,6.3837614E0,-1.215532E0,-8.561053E-1,-5.7518095E-1,-2.560465E-1,1.4784178E-1,6.1986345E-1,1.1111219E0,2.0200129E0,2.0176451E0,2.7821667E0,3.339216E0,4.1879163E0,5.3037734E0,2.0226781E0],"split_indices":[0,0,0,0,0,0,0,0,0,0,8,4,0,3,0,0,0,0,0,0,0,0,0,0,0,0,0,0,0],"split_type":[0,0,0,0,0,0,0,0,0,0,0,0,0,0,0,0,0,0,0,0,0,0,0,0,0,0,0,0,0],"sum_hessian":[5.836E3,5.379E3,4.57E2,3.754E3,1.625E3,3.19E2,1.38E2,1.969E3,1.785E3,1.331E3,2.94E2,1.57E2,1.62E2,4.5E1,9.3E1,5.75E2,1.394E3,8.65E2,9.2E2,9.14E2,4.17E2,2.13E2,8.1E1,7.2E1,8.5E1,7.1E1,9.1E1,3.8E1,7E0],"tree_param":{"num_deleted":"0","num_feature":"9","num_nodes":"29","size_leaf_vector":"1"}},{"base_weights":[2.034927E-2,-6.988977E0,7.051183E1,-1.4287584E1,6.345673E0,4.7668667E1,9.9901375E1,-1.9470459E1,-9.947947E0,1.4469924E0,1.6243092E1,3.457692E1,5.5105255E1,8.444916E1,6.067969E0,-1.2875865E0,-9.021763E-1,-5.9795326E-1,-3.0863187E-1,-8.139269E-2,2.3271318E-1,5.989047E-1,1.1857604E0,1.3132858E0,2.2875006E0,2.944684E0,2.0836773E0,4.2566037E0,-2.1068525E-1],"categories":[],"categories_nodes":[],"categories_segments":[],"categories_sizes":[],"default_left":[0,0,0,0,0,0,0,0,0,0,0,0,0,0,0,0,0,0,0,0,0,0,0,0,0,0,0,0,0],"id":5,"left_children":[1,3,5,7,9,11,13,15,17,19,21,23,25,27,-1,-1,-1,-1,-1,-1,-1,-1,-1,-1,-1,-1,-1,-1,-1],"loss_changes":[2.8845415E6,5.1688306E5,3.49711E5,7.699819E4,9.107849E4,2.7204625E4,6.601325E4,1.35444375E4,1.4124344E4,1.2413803E4,1.9538188E4,9.106016E3,7.1629375E3,8.6539375E3,0E0,0E0,0E0,0E0,0E0,0E0,0E0,0E0,0E0,0E0,0E0,0E0,0E0,0E0,0E0],"parents":[2147483647,0,0,1,1,2,2,3,3,4,4,5,5,6,6,7,7,8,8,9,9,10,10,11,11,12,12,13,13],"right_children":[2,4,6,8,10,12,14,16,18,20,22,24,26,28,-1,-1,-1,-1,-1,-1,-1,-1,-1,-1,-1,-1,-1,-1,-1],"split_conditions":[9.515E1,4.895E1,1.507E2,3.355E1,6.82E1,1.1165E2,1.9745E2,2.31E1,4.235E1,5.72E1,8.14E1,2.92E2,7.4E1,1.65E1,6.067969E0,-1.2875865E0,-9.021763E-1,-5.9795326E-1,-3.0863187E-1,-8.139269E-2,2.3271318E-1,5.989047E-1,1.1857604E0,1.3132858E0,2.2875006E0,2.944684E0,2.0836773E0,4.2566037E0,-2.1068525E-1],"split_indices":[0,0,0,0,0,0,0,0,0,0,0,4,2,3,0,0,0,0,0,0,0,0,0,0,0,0,0,0,0],"split_type":[0,0,0,0,0,0,0,0,0,0,0,0,0,0,0,0,0,0,0,0,0,0,0,0,0,0,0,0,0],"sum_hessian":[5.836E3,5.309E3,5.27E2,3.431E3,1.878E3,2.98E2,2.29E2,1.562E3,1.869E3,1.257E3,6.21E2,1.1E2,1.88E2,1.36E2,9.3E1,2.86E2,1.276E3,1.218E3,6.51E2,6.42E2,6.15E2,3.97E2,2.24E2,6.5E1,4.5E1,1.44E2,4.4E1,1.35E2,1E0],"tree_param":{"num_deleted":"0","num_feature":"9","num_nodes":"29","size_leaf_vector":"1"}},{"base_weights":[2.2344336E-2,-6.639746E0,6.7021736E1,-1.3574107E1,6.029421E0,4.531409E1,9.495028E1,-1.8498339E1,-9.451034E0,1.3747644E0,1.5433807E1,3.2880512E1,5.2376595E1,8.0256226E1,5.767798E0,-1.2462295E0,-8.61617E-1,-5.771071E-1,-3.0774492E-1,-7.732931E-2,2.2109647E-1,5.6903476E-1,1.1267359E0,1.8262676E0,5.289064E-1,2.8389707E0,2.0856555E0,4.1915193E0,2.6823373E0],"categories":[],"categories_nodes":[],"categories_segments":[],"categories_sizes":[],"default_left":[0,0,0,0,0,0,0,0,0,0,0,0,0,0,0,0,0,0,0,0,0,0,0,0,0,0,0,0,0],"id":6,"left_children":[1,3,5,7,9,11,13,15,17,19,21,23,25,27,-1,-1,-1,-1,-1,-1,-1,-1,-1,-1,-1,-1,-1,-1,-1],"loss_changes":[2.605825E6,4.66579E5,3.15804E5,6.9505E4,8.223049E4,2.4533688E4,5.9705625E4,1.22864375E4,1.28180625E4,1.120535E4,1.7645188E4,8.636664E3,6.5050312E3,8.532375E3,0E0,0E0,0E0,0E0,0E0,0E0,0E0,0E0,0E0,0E0,0E0,0E0,0E0,0E0,0E0],"parents":[2147483647,0,0,1,1,2,2,3,3,4,4,5,5,6,6,7,7,8,8,9,9,10,10,11,11,12,12,13,13],"right_children":[2,4,6,8,10,12,14,16,18,20,22,24,26,28,-1,-1,-1,-1,-1,-1,-1,-1,-1,-1,-1,-1,-1,-1,-1],"split_conditions":[9.515E1,4.895E1,1.507E2,3.355E1,6.82E1,1.1165E2,1.9745E2,2.255E1,4.18E1,5.72E1,8.14E1,1.4E1,6.9E1,1.23E1,5.767798E0,-1.2462295E0,-8.61617E-1,-5.771071E-1,-3.0774492E-1,-7.732931E-2,2.2109647E-1,5.6903476E-1,1.1267359E0,1.8262676E0,5.289064E-1,2.8389707E0,2.0856555E0,4.1915193E0,2.6823373E0],"split_indices":[0,0,0,0,0,0,0,0,0,0,0,3,2,3,0,0,0,0,0,0,0,0,0,0,0,0,0,0,0],"split_type":[0,0,0,0,0,0,0,0,0,0,0,0,0,0,0,0,0,0,0,0,0,0,0,0,0,0,0,0,0],"sum_hessian":[5.836E3,5.309E3,5.27E2,3.431E3,1.878E3,2.98E2,2.29E2,1.562E3,1.869E3,1.257E3,6.21E2,1.1E2,1.88E2,1.36E2,9.3E1,2.54E2,1.308E3,1.142E3,7.27E2,6.42E2,6.15E2,3.97E2,2.24E2,9.4E1,1.6E1,1.3E2,5.8E1,1.18E2,1.8E1],"tree_param":{"num_deleted":"0","num_feature":"9","num_nodes":"29","size_leaf_vector":"1"}},{"base_weights":[2.4442164E-2,-5.8349485E0,6.8853035E1,-1.163417E1,9.3978E0,5.4212193E1,1.0206324E2,-1.6172804E1,-6.221578E0,5.90343E0,2.346188E1,4.169811E1,6.600982E1,8.434208E1,5.482476E0,-9.494985E-1,-6.4551044E-1,-4.5680094E-1,-1.8257043E-1,1.6651057E-1,5.323958E-1,9.3498105E-1,1.7802044E0,1.697161E0,2.3897943E0,3.5649211E0,2.8241742E0,4.5960293E0,1.449373E0],"categories":[],"categories_nodes":[],"categories_segments":[],"categories_sizes":[],"default_left":[0,0,0,0,0,0,0,0,0,0,0,0,0,0,0,0,0,0,0,0,0,0,0,0,0,0,0,0,0],"id":7,"left_children":[1,3,5,7,9,11,13,15,17,19,21,23,25,27,-1,-1,-1,-1,-1,-1,-1,-1,-1,-1,-1,-1,-1,-1,-1],"loss_changes":[2.3544265E6,4.753682E5,2.1715825E5,9.563219E4,7.279282E4,4.4491188E4,9.438875E3,1.9231125E4,1.32924375E4,1.449277E4,1.639239E4,5.8490938E3,4.1849375E3,1.6632656E4,0E0,0E0,0E0,0E0,0E0,0E0,0E0,0E0,0E0,0E0,0E0,0E0,0E0,0E0,0E0],"parents":[2147483647,0,0,1,1,2,2,3,3,4,4,5,5,6,6,7,7,8,8,9,9,10,10,11,11,12,12,13,13],"right_children":[2,4,6,8,10,12,14,16,18,20,22,24,26,28,-1,-1,-1,-1,-1,-1,-1,-1,-1,-1,-1,-1,-1,-1,-1],"split_conditions":[1.0285E2,5.445E1,1.804E2,3.74E1,8.14E1,1.353E2,1.9745E2,3.08E1,4.4E1,6.765E1,2.75E2,2.86E2,9.9E0,1.31E1,5.482476E0,-9.494985E-1,-6.4551044E-1,-4.5680094E-1,-1.8257043E-1,1.6651057E-1,5.323958E-1,9.3498105E-1,1.7802044E0,1.697161E0,2.3897943E0,3.5649211E0,2.8241742E0,4.5960293E0,1.449373E0],"split_indices":[0,0,0,0,0,0,0,0,0,0,8,4,7,3,0,0,0,0,0,0,0,0,0,0,0,0,0,0,0],"split_type":[0,0,0,0,0,0,0,0,0,0,0,0,0,0,0,0,0,0,0,0,0,0,0,0,0,0,0,0,0],"sum_hessian":[5.836E3,5.379E3,4.57E2,3.896E3,1.483E3,3.19E2,1.38E2,2.118E3,1.778E3,1.189E3,2.94E2,1.57E2,1.62E2,4.5E1,9.3E1,1.134E3,9.84E2,8.32E2,9.46E2,7.72E2,4.17E2,2.13E2,8.1E1,7.2E1,8.5E1,1E2,6.2E1,3.9E1,6E0],"tree_param":{"num_deleted":"0","num_feature":"9","num_nodes":"29","size_leaf_vector":"1"}},{"base_weights":[2.719224E-2,-5.9950595E0,6.059183E1,-1.2261137E1,5.453142E0,4.0918694E1,8.590347E1,-1.670912E1,-8.536827E0,2.2091808E0,1.6412432E1,2.9690767E1,4.729637E1,7.270521E1,1.04225365E2,-1.1580398E0,-7.797789E-1,-5.2086705E-1,-2.7862957E-1,-1.5822394E-2,3.2863286E-1,6.9493383E-1,1.352034E0,1.7124118E0,6.7370576E-1,2.5706937E0,1.8676246E0,3.6665304E0,-3.0871078E-1,5.23443E0,1.5286249E0],"categories":[],"categories_nodes":[],"categories_segments":[],"categories_sizes":[],"default_left":[0,0,0,0,0,0,0,0,0,0,0,0,0,0,0,0,0,0,0,0,0,0,0,0,0,0,0,0,0,0,0],"id":8,"left_children":[1,3,5,7,9,11,13,15,17,19,21,23,25,27,29,-1,-1,-1,-1,-1,-1,-1,-1,-1,-1,-1,-1,-1,-1,-1,-1],"loss_changes":[2.1293245E6,3.8098144E5,2.594075E5,5.671072E4,6.676504E4,2.0006531E4,4.8040125E4,1.08676875E4,1.0365859E4,1.5992857E4,1.108568E4,7.7421953E3,5.8179688E3,7.211125E3,6.5625E0,0E0,0E0,0E0,0E0,0E0,0E0,0E0,0E0,0E0,0E0,0E0,0E0,0E0,0E0,0E0,0E0],"parents":[2147483647,0,0,1,1,2,2,3,3,4,4,5,5,6,6,7,7,8,8,9,9,10,10,11,11,12,12,13,13,14,14],"right_children":[2,4,6,8,10,12,14,16,18,20,22,24,26,28,30,-1,-1,-1,-1,-1,-1,-1,-1,-1,-1,-1,-1,-1,-1,-1,-1],"split_conditions":[9.515E1,4.895E1,1.507E2,3.355E1,7.37E1,1.1165E2,1.9745E2,2.2E1,4.18E1,6.16E1,2.84E2,1.24E1,6.9E1,1.65E1,3.54E2,-1.1580398E0,-7.797789E-1,-5.2086705E-1,-2.7862957E-1,-1.5822394E-2,3.2863286E-1,6.9493383E-1,1.352034E0,1.7124118E0,6.7370576E-1,2.5706937E0,1.8676246E0,3.6665304E0,-3.0871078E-1,5.23443E0,1.5286249E0],"split_indices":[0,0,0,0,0,0,0,0,0,0,8,7,2,3,8,0,0,0,0,0,0,0,0,0,0,0,0,0,0,0,0],"split_type":[0,0,0,0,0,0,0,0,0,0,0,0,0,0,0,0,0,0,0,0,0,0,0,0,0,0,0,0,0,0,0],"sum_hessian":[5.836E3,5.309E3,5.27E2,3.431E3,1.878E3,2.98E2,2.29E2,1.562E3,1.869E3,1.45E3,4.28E2,1.1E2,1.88E2,1.36E2,9.3E1,2.27E2,1.335E3,1.142E3,7.27E2,9.19E2,5.31E2,3.48E2,8E1,8.5E1,2.5E1,1.3E2,5.8E1,1.35E2,1E0,9.2E1,1E0],"tree_param":{"num_deleted":"0","num_feature":"9","num_nodes":"31","size_leaf_vector":"1"}},{"base_weights":[2.8670775E-2,-5.6953783E0,5.7594337E1,-1.1648878E1,5.1817417E0,3.8895584E1,8.1652306E1,-1.7186565E1,-8.908702E0,1.1862392E0,1.3254347E1,3.0010042E1,4.6325363E1,6.909446E1,9.9086044E1,-1.1003917E0,-7.9785055E-1,-5.418726E-1,-2.8355256E-1,-6.836926E-2,1.924933E-1,4.856821E-1,9.729276E-1,1.6810334E0,3.4228948E-1,2.5001338E0,1.6553316E0,3.6146207E0,2.2714322E0,5.3884177E0,4.3618565E0],"categories":[],"categories_nodes":[],"categories_segments":[],"categories_sizes":[],"default_left":[0,0,0,0,0,0,0,0,0,0,0,0,0,0,0,0,0,0,0,0,0,0,0,0,0,0,0,0,0,0,0],"id":9,"left_children":[1,3,5,7,9,11,13,15,17,19,21,23,25,27,29,-1,-1,-1,-1,-1,-1,-1,-1,-1,-1,-1,-1,-1,-1,-1,-1],"loss_changes":[1.9236702E6,3.4391962E5,2.34347E5,5.1924906E4,6.058975E4,1.8349062E4,4.3507625E4,6.3770938E3,1.42886875E4,8.562059E3,1.3474617E4,1.1395445E4,6.1707188E3,7.084375E3,2.689375E2,0E0,0E0,0E0,0E0,0E0,0E0,0E0,0E0,0E0,0E0,0E0,0E0,0E0,0E0,0E0,0E0],"parents":[2147483647,0,0,1,1,2,2,3,3,4,4,5,5,6,6,7,7,8,8,9,9,10,10,11,11,12,12,13,13,14,14],"right_children":[2,4,6,8,10,12,14,16,18,20,22,24,26,28,30,-1,-1,-1,-1,-1,-1,-1,-1,-1,-1,-1,-1,-1,-1,-1,-1],"split_conditions":[9.515E1,4.895E1,1.507E2,3.08E1,6.82E1,1.1715E2,1.9745E2,2.2E1,4.07E1,5.72E1,8.14E1,1.41E1,7.4E1,1.23E1,8.1E0,-1.1003917E0,-7.9785055E-1,-5.418726E-1,-2.8355256E-1,-6.836926E-2,1.924933E-1,4.856821E-1,9.729276E-1,1.6810334E0,3.4228948E-1,2.5001338E0,1.6553316E0,3.6146207E0,2.2714322E0,5.3884177E0,4.3618565E0],"split_indices":[0,0,0,0,0,0,0,0,0,0,0,3,2,3,3,0,0,0,0,0,0,0,0,0,0,0,0,0,0,0,0],"split_type":[0,0,0,0,0,0,0,0,0,0,0,0,0,0,0,0,0,0,0,0,0,0,0,0,0,0,0,0,0,0,0],"sum_hessian":[5.836E3,5.309E3,5.27E2,3.431E3,1.878E3,2.98E2,2.29E2,1.134E3,2.297E3,1.257E3,6.21E2,1.38E2,1.6E2,1.36E2,9.3E1,2.27E2,9.07E2,1.438E3,8.59E2,6.42E2,6.15E2,3.97E2,2.24E2,1.19E2,1.9E1,1.23E2,3.7E1,1.18E2,1.8E1,4.9E1,4.4E1],"tree_param":{"num_deleted":"0","num_feature":"9","num_nodes":"31","size_leaf_vector":"1"}},{"base_weights":[3.0779688E-2,-5.004866E0,5.918306E1,-9.991538E0,8.093561E0,4.6469334E1,8.802629E1,-1.3901904E1,-5.3282123E0,4.325508E0,1.78218E1,3.5600193E1,5.671998E1,9.583062E1,7.3554535E1,-8.581644E-1,-5.871145E-1,-3.903529E-1,-1.5710722E-1,1.0601752E-1,3.5865173E-1,7.0498747E-1,1.4390401E0,1.945987E0,1.1634759E0,2.2700386E0,3.0136874E0,4.8184295E0,1.2391232E0,3.8227308E0,9.4574624E-1],"categories":[],"categories_nodes":[],"categories_segments":[],"categories_sizes":[],"default_left":[0,0,0,0,0,0,0,0,0,0,0,0,0,0,0,0,0,0,0,0,0,0,0,0,0,0,0,0,0,0,0],"id":10,"left_children":[1,3,5,7,9,11,13,15,17,19,21,23,25,27,29,-1,-1,-1,-1,-1,-1,-1,-1,-1,-1,-1,-1,-1,-1,-1,-1],"loss_changes":[1.738963E6,3.5148934E5,1.638605E5,7.098891E4,5.4321188E4,3.3633812E4,8.65025E3,1.4723281E4,9.615734E3,6.7098613E3,1.648125E4,5.5616406E3,3.8203125E3,9.370625E2,6.9521875E3,0E0,0E0,0E0,0E0,0E0,0E0,0E0,0E0,0E0,0E0,0E0,0E0,0E0,0E0,0E0,0E0],"parents":[2147483647,0,0,1,1,2,2,3,3,4,4,5,5,6,6,7,7,8,8,9,9,10,10,11,11,12,12,13,13,14,14],"right_children":[2,4,6,8,10,12,14,16,18,20,22,24,26,28,30,-1,-1,-1,-1,-1,-1,-1,-1,-1,-1,-1,-1,-1,-1,-1,-1],"split_conditions":[1.0285E2,5.445E1,1.804E2,3.74E1,7.645E1,1.353E2,9.5E0,2.86E1,4.4E1,6.435E1,2.75E2,1.25E1,1.11E2,1.42E1,8.8E1,-8.581644E-1,-5.871145E-1,-3.903529E-1,-1.5710722E-1,1.0601752E-1,3.5865173E-1,7.0498747E-1,1.4390401E0,1.945987E0,1.1634759E0,2.2700386E0,3.0136874E0,4.8184295E0,1.2391232E0,3.8227308E0,9.4574624E-1],"split_indices":[0,0,0,0,0,0,7,0,0,0,8,7,4,3,6,0,0,0,0,0,0,0,0,0,0,0,0,0,0,0,0],"split_type":[0,0,0,0,0,0,0,0,0,0,0,0,0,0,0,0,0,0,0,0,0,0,0,0,0,0,0,0,0,0,0],"sum_hessian":[5.836E3,5.379E3,4.57E2,3.896E3,1.483E3,3.19E2,1.38E2,2.118E3,1.778E3,1.07E3,4.13E2,1.57E2,1.62E2,8.6E1,5.2E1,8.41E2,1.277E3,8.32E2,9.46E2,6.04E2,4.66E2,3.1E2,1.03E2,1.22E2,3.5E1,4.2E1,1.2E2,8.5E1,1E0,4.9E1,3E0],"tree_param":{"num_deleted":"0","num_feature":"9","num_nodes":"31","size_leaf_vector":"1"}},{"base_weights":[3.2639995E-2,-5.1437235E0,5.209032E1,-1.0521828E1,4.6821413E0,3.5129223E1,7.391328E1,-1.55414715E1,-8.038009E0,1.8950433E0,1.4097985E1,2.8168201E1,4.2833748E1,6.241186E1,8.988966E1,-1.0028934E0,-7.195141E-1,-4.8856622E-1,-2.5641906E-1,-1.4189881E-2,2.8297007E-1,2.3128667E0,6.6885036E-1,1.0594739E0,1.8649199E0,2.1650288E0,-5.5137604E-1,2.6234865E0,3.5204742E0,4.9011164E0,3.942791E0],"categories":[],"categories_nodes":[],"categories_segments":[],"categories_sizes":[],"default_left":[0,0,0,0,0,0,0,0,0,0,0,0,0,0,0,0,0,0,0,0,0,0,0,0,0,0,0,0,0,0,0],"id":11,"left_children":[1,3,5,7,9,11,13,15,17,19,21,23,25,27,29,-1,-1,-1,-1,-1,-1,-1,-1,-1,-1,-1,-1,-1,-1,-1,-1],"loss_changes":[1.5731612E6,2.806537E5,1.92838E5,4.2664875E4,4.9283645E4,1.4829219E4,3.6652625E4,5.6124688E3,1.1539391E4,1.1902616E4,9.328102E3,9.404406E3,3.9976562E3,7.199E3,7.054375E2,0E0,0E0,0E0,0E0,0E0,0E0,0E0,0E0,0E0,0E0,0E0,0E0,0E0,0E0,0E0,0E0],"parents":[2147483647,0,0,1,1,2,2,3,3,4,4,5,5,6,6,7,7,8,8,9,9,10,10,11,11,12,12,13,13,14,14],"right_children":[2,4,6,8,10,12,14,16,18,20,22,24,26,28,30,-1,-1,-1,-1,-1,-1,-1,-1,-1,-1,-1,-1,-1,-1,-1,-1],"split_conditions":[9.515E1,4.895E1,1.507E2,3.08E1,7.37E1,1.199E2,1.9745E2,2.2E1,4.07E1,6.16E1,1.46E1,2.86E2,3.54E2,6.9E1,8.1E0,-1.0028934E0,-7.195141E-1,-4.8856622E-1,-2.5641906E-1,-1.4189881E-2,2.8297007E-1,2.3128667E0,6.6885036E-1,1.0594739E0,1.8649199E0,2.1650288E0,-5.5137604E-1,2.6234865E0,3.5204742E0,4.9011164E0,3.942791E0],"split_indices":[0,0,0,0,0,0,0,0,0,0,1,4,4,6,3,0,0,0,0,0,0,0,0,0,0,0,0,0,0,0,0],"split_type":[0,0,0,0,0,0,0,0,0,0,0,0,0,0,0,0,0,0,0,0,0,0,0,0,0,0,0,0,0,0,0],"sum_hessian":[5.836E3,5.309E3,5.27E2,3.431E3,1.878E3,2.98E2,2.29E2,1.134E3,2.297E3,1.45E3,4.28E2,1.59E2,1.39E2,1.36E2,9.3E1,2.27E2,9.07E2,1.438E3,8.59E2,9.19E2,5.31E2,8E0,4.2E2,9.2E1,6.7E1,1.38E2,1E0,6.4E1,7.2E1,4.9E1,4.4E1],"tree_param":{"num_deleted":"0","num_feature":"9","num_nodes":"31","size_leaf_vector":"1"}},{"base_weights":[3.44875E-2,-5.1167736E0,4.7366695E1,-1.0321323E1,3.4675486E0,3.1907202E1,7.0282776E1,-1.4765916E1,-7.963612E0,-1.3595493E-1,9.2286215E0,2.3512123E1,3.8667652E1,5.9336113E1,8.548926E1,-9.940097E-1,-6.919046E-1,-4.6944687E-1,-2.706605E-1,-9.8813035E-2,1.0993793E-1,3.625792E-1,7.806855E-1,8.687987E-1,1.5917705E0,2.1192253E0,1.4879802E0,2.4943302E0,3.346862E0,4.6609616E0,3.7500322E0],"categories":[],"categories_nodes":[],"categories_segments":[],"categories_sizes":[],"default_left":[0,0,0,0,0,0,0,0,0,0,0,0,0,0,0,0,0,0,0,0,0,0,0,0,0,0,0,0,0,0,0],"id":12,"left_children":[1,3,5,7,9,11,13,15,17,19,21,23,25,27,29,-1,-1,-1,-1,-1,-1,-1,-1,-1,-1,-1,-1,-1,-1,-1,-1],"loss_changes":[1.4234228E6,2.3526303E5,2.0075462E5,3.423275E4,4.1272227E4,1.8614375E4,3.3213375E4,5.110625E3,7.742953E3,5.2633677E3,9.543805E3,7.414211E3,4.9964375E3,6.5010312E3,6.2975E2,0E0,0E0,0E0,0E0,0E0,0E0,0E0,0E0,0E0,0E0,0E0,0E0,0E0,0E0,0E0,0E0],"parents":[2147483647,0,0,1,1,2,2,3,3,4,4,5,5,6,6,7,7,8,8,9,9,10,10,11,11,12,12,13,13,14,14],"right_children":[2,4,6,8,10,12,14,16,18,20,22,24,26,28,30,-1,-1,-1,-1,-1,-1,-1,-1,-1,-1,-1,-1,-1,-1,-1,-1],"split_conditions":[9.185E1,4.73E1,1.507E2,3.08E1,6.435E1,1.1165E2,1.9745E2,2.09E1,4.015E1,5.555E1,8.14E1,2.83E2,6.9E1,6.9E1,8.1E0,-9.940097E-1,-6.919046E-1,-4.6944687E-1,-2.706605E-1,-9.8813035E-2,1.0993793E-1,3.625792E-1,7.806855E-1,8.687987E-1,1.5917705E0,2.1192253E0,1.4879802E0,2.4943302E0,3.346862E0,4.6609616E0,3.7500322E0],"split_indices":[0,0,0,0,0,0,0,0,0,0,0,8,2,6,3,0,0,0,0,0,0,0,0,0,0,0,0,0,0,0,0],"split_type":[0,0,0,0,0,0,0,0,0,0,0,0,0,0,0,0,0,0,0,0,0,0,0,0,0,0,0,0,0,0,0],"sum_hessian":[5.836E3,5.264E3,5.72E2,3.277E3,1.987E3,3.43E2,2.29E2,1.134E3,2.143E3,1.223E3,7.64E2,1.55E2,1.88E2,1.36E2,9.3E1,1.71E2,9.63E2,1.373E3,7.7E2,6.84E2,5.39E2,5.85E2,1.79E2,9.1E1,6.4E1,1.3E2,5.8E1,6.4E1,7.2E1,4.9E1,4.4E1],"tree_param":{"num_deleted":"0","num_feature":"9","num_nodes":"31","size_leaf_vector":"1"}},{"base_weights":[3.6026746E-2,-4.861176E0,4.503382E1,-9.805997E0,3.2947512E0,3.0329481E1,6.6830605E1,-1.4029104E1,-7.565776E0,4.5715296E-1,9.905541E0,2.235229E1,3.6753357E1,5.641194E1,8.1304276E1,-9.0719616E-1,-6.4902085E-1,-4.7738132E-1,-2.9381946E-1,-9.387964E-2,1.3577034E-1,3.879047E-1,7.418681E-1,8.2583094E-1,1.5134063E0,1.9831835E0,1.3279471E0,2.9649198E0,1.7682298E0,4.0859456E0,1.0685818E0],"categories":[],"categories_nodes":[],"categories_segments":[],"categories_sizes":[],"default_left":[0,0,0,0,0,0,0,0,0,0,0,0,0,0,0,0,0,0,0,0,0,0,0,0,0,0,0,0,0,0,0],"id":13,"left_children":[1,3,5,7,9,11,13,15,17,19,21,23,25,27,29,-1,-1,-1,-1,-1,-1,-1,-1,-1,-1,-1,-1,-1,-1,-1,-1],"loss_changes":[1.2864795E6,2.1236762E5,1.8162375E5,3.0906E4,3.72879E4,1.6806594E4,3.0096625E4,4.662203E3,7.12225E3,7.344346E3,6.2076133E3,6.706375E3,4.554E3,6.2259688E3,5.894375E2,0E0,0E0,0E0,0E0,0E0,0E0,0E0,0E0,0E0,0E0,0E0,0E0,0E0,0E0,0E0,0E0],"parents":[2147483647,0,0,1,1,2,2,3,3,4,4,5,5,6,6,7,7,8,8,9,9,10,10,11,11,12,12,13,13,14,14],"right_children":[2,4,6,8,10,12,14,16,18,20,22,24,26,28,30,-1,-1,-1,-1,-1,-1,-1,-1,-1,-1,-1,-1,-1,-1,-1,-1],"split_conditions":[9.185E1,4.73E1,1.507E2,3.08E1,6.765E1,1.1165E2,1.9745E2,2.2E1,3.74E1,5.555E1,8.14E1,2.83E2,7.4E1,1.23E1,3.54E2,-9.0719616E-1,-6.4902085E-1,-4.7738132E-1,-2.9381946E-1,-9.387964E-2,1.3577034E-1,3.879047E-1,7.418681E-1,8.2583094E-1,1.5134063E0,1.9831835E0,1.3279471E0,2.9649198E0,1.7682298E0,4.0859456E0,1.0685818E0],"split_indices":[0,0,0,0,0,0,0,0,0,0,0,8,2,3,8,0,0,0,0,0,0,0,0,0,0,0,0,0,0,0,0],"split_type":[0,0,0,0,0,0,0,0,0,0,0,0,0,0,0,0,0,0,0,0,0,0,0,0,0,0,0,0,0,0,0],"sum_hessian":[5.836E3,5.264E3,5.72E2,3.277E3,1.987E3,3.43E2,2.29E2,1.134E3,2.143E3,1.391E3,5.96E2,1.55E2,1.88E2,1.36E2,9.3E1,2.27E2,9.07E2,9.84E2,1.159E3,6.84E2,7.07E2,4.17E2,1.79E2,9.1E1,6.4E1,1.44E2,4.4E1,1.18E2,1.8E1,9.2E1,1E0],"tree_param":{"num_deleted":"0","num_feature":"9","num_nodes":"31","size_leaf_vector":"1"}},{"base_weights":[3.668982E-2,-4.618336E0,4.2809246E1,-9.316406E0,3.1306038E0,2.9804462E1,6.514702E1,-1.332902E1,-7.187846E0,-1.3647427E-1,8.353836E0,2.5341133E1,4.272494E1,5.483118E1,7.729389E1,-9.3761855E-1,-6.2952197E-1,-4.2473826E-1,-2.4247313E-1,-9.9186026E-2,8.783985E-2,3.4914398E-1,8.405585E-1,1.4310894E0,6.7351526E-1,2.22694E0,1.1280785E-1,2.7754915E0,-5.973117E-1,4.2323627E0,3.3702924E0],"categories":[],"categories_nodes":[],"categories_segments":[],"categories_sizes":[],"default_left":[0,0,0,0,0,0,0,0,0,0,0,0,0,0,0,0,0,0,0,0,0,0,0,0,0,0,0,0,0,0,0],"id":14,"left_children":[1,3,5,7,9,11,13,15,17,19,21,23,25,27,29,-1,-1,-1,-1,-1,-1,-1,-1,-1,-1,-1,-1,-1,-1,-1,-1],"loss_changes":[1.1623874E6,1.9170183E5,1.6451362E5,2.7901875E4,3.392578E4,1.9908562E4,2.2075938E4,4.3102344E3,6.5110312E3,4.2842266E3,8.752508E3,1.02461875E4,6.6527188E3,5.9654375E3,1.1290625E3,0E0,0E0,0E0,0E0,0E0,0E0,0E0,0E0,0E0,0E0,0E0,0E0,0E0,0E0,0E0,0E0],"parents":[2147483647,0,0,1,1,2,2,3,3,4,4,5,5,6,6,7,7,8,8,9,9,10,10,11,11,12,12,13,13,14,14],"right_children":[2,4,6,8,10,12,14,16,18,20,22,24,26,28,30,-1,-1,-1,-1,-1,-1,-1,-1,-1,-1,-1,-1,-1,-1,-1,-1],"split_conditions":[9.185E1,4.73E1,1.5675E2,3.08E1,6.435E1,1.353E2,1.9745E2,1.98E1,4.015E1,5.445E1,2.8E2,1.25E1,8.5E1,1.63E1,8.1E0,-9.3761855E-1,-6.2952197E-1,-4.2473826E-1,-2.4247313E-1,-9.9186026E-2,8.783985E-2,3.4914398E-1,8.405585E-1,1.4310894E0,6.7351526E-1,2.22694E0,1.1280785E-1,2.7754915E0,-5.973117E-1,4.2323627E0,3.3702924E0],"split_indices":[0,0,0,0,0,0,0,0,0,0,8,7,6,3,3,0,0,0,0,0,0,0,0,0,0,0,0,0,0,0,0],"split_type":[0,0,0,0,0,0,0,0,0,0,0,0,0,0,0,0,0,0,0,0,0,0,0,0,0,0,0,0,0,0,0],"sum_hessian":[5.836E3,5.264E3,5.72E2,3.277E3,1.987E3,3.63E2,2.09E2,1.134E3,2.143E3,1.223E3,7.64E2,2.72E2,9.1E1,1.16E2,9.3E1,1.33E2,1.001E3,1.373E3,7.7E2,6.19E2,6.04E2,6.59E2,1.05E2,2.12E2,6E1,8.7E1,4E0,1.15E2,1E0,4.9E1,4.4E1],"tree_param":{"num_deleted":"0","num_feature":"9","num_nodes":"31","size_leaf_vector":"1"}},{"base_weights":[3.71116E-2,-3.8788993E0,4.6037334E1,-8.174798E0,5.2827754E0,3.5981842E1,6.885546E1,-1.1205355E1,-4.9449973E0,2.522886E0,1.3969667E1,2.7480928E1,4.400124E1,7.586717E1,5.6046524E1,-7.399499E-1,-5.0073785E-1,-3.2858673E-1,-1.5403728E-1,1.9229438E-2,2.45331E-1,5.398299E-1,1.1662022E0,1.4956702E0,6.9904655E-1,2.7016373E0,1.9978173E0,3.8160055E0,9.228687E-1,2.938711E0,3.9693448E-1],"categories":[],"categories_nodes":[],"categories_segments":[],"categories_sizes":[],"default_left":[0,0,0,0,0,0,0,0,0,0,0,0,0,0,0,0,0,0,0,0,0,0,0,0,0,0,0,0,0,0,0],"id":15,"left_children":[1,3,5,7,9,11,13,15,17,19,21,23,25,27,29,-1,-1,-1,-1,-1,-1,-1,-1,-1,-1,-1,-1,-1,-1,-1,-1],"loss_changes":[1.0516404E6,2.1178725E5,1.0260931E5,3.5798375E4,4.115357E4,2.0605906E4,8.231875E3,7.9340312E3,5.362707E3,6.64987E3,1.20365625E4,4.77025E3,4.4550312E3,8.5359375E2,6.4882656E3,0E0,0E0,0E0,0E0,0E0,0E0,0E0,0E0,0E0,0E0,0E0,0E0,0E0,0E0,0E0,0E0],"parents":[2147483647,0,0,1,1,2,2,3,3,4,4,5,5,6,6,7,7,8,8,9,9,10,10,11,11,12,12,13,13,14,14],"right_children":[2,4,6,8,10,12,14,16,18,20,22,24,26,28,30,-1,-1,-1,-1,-1,-1,-1,-1,-1,-1,-1,-1,-1,-1,-1,-1],"split_conditions":[1.0285E2,5.17E1,1.804E2,3.575E1,7.645E1,1.353E2,9.5E0,2.53E1,4.29E1,6.16E1,2.75E2,1.38E1,7.5E0,1.42E1,8.8E1,-7.399499E-1,-5.0073785E-1,-3.2858673E-1,-1.5403728E-1,1.9229438E-2,2.45331E-1,5.398299E-1,1.1662022E0,1.4956702E0,6.9904655E-1,2.7016373E0,1.9978173E0,3.8160055E0,9.228687E-1,2.938711E0,3.9693448E-1],"split_indices":[0,0,0,0,0,0,7,0,0,0,8,3,3,3,6,0,0,0,0,0,0,0,0,0,0,0,0,0,0,0,0],"split_type":[0,0,0,0,0,0,0,0,0,0,0,0,0,0,0,0,0,0,0,0,0,0,0,0,0,0,0,0,0,0,0],"sum_hessian":[5.836E3,5.379E3,4.57E2,3.662E3,1.717E3,3.19E2,1.38E2,1.888E3,1.774E3,1.304E3,4.13E2,1.57E2,1.62E2,8.6E1,5.2E1,4.67E2,1.421E3,9.46E2,8.28E2,6.88E2,6.16E2,3.1E2,1.03E2,1.32E2,2.5E1,4.3E1,1.19E2,8.5E1,1E0,4.9E1,3E0],"tree_param":{"num_deleted":"0","num_feature":"9","num_nodes":"31","size_leaf_vector":"1"}},{"base_weights":[3.7862245E-2,-4.1722474E0,3.8722313E1,-8.153886E0,3.2809436E0,2.694414E1,5.8953426E1,-1.1200319E1,-5.6032276E0,7.9910076E-1,8.686277E0,2.0822525E1,3.4619053E1,4.9489304E1,7.010607E1,-7.594289E-1,-5.1476026E-1,-3.3842325E-1,-1.7080341E-1,4.4903904E-1,1.656489E-2,5.255439E-1,1.6139805E-1,7.668336E-1,1.3970969E0,2.050873E0,1.3853965E0,2.0188444E0,2.8596444E0,3.8493078E0,3.0451813E0],"categories":[],"categories_nodes":[],"categories_segments":[],"categories_sizes":[],"default_left":[0,0,0,0,0,0,0,0,0,0,0,0,0,0,0,0,0,0,0,0,0,0,0,0,0,0,0,0,0,0,0],"id":16,"left_children":[1,3,5,7,9,11,13,15,17,19,21,23,25,27,29,-1,-1,-1,-1,-1,-1,-1,-1,-1,-1,-1,-1,-1,-1,-1,-1],"loss_changes":[9.508091E5,1.5627042E5,1.3494919E5,2.6605281E4,2.4596516E4,1.6380906E4,1.8696062E4,5.4857812E3,4.7426836E3,4.8119116E3,5.7125625E3,7.5779453E3,5.9387188E3,5.9039375E3,1.2627188E3,0E0,0E0,0E0,0E0,0E0,0E0,0E0,0E0,0E0,0E0,0E0,0E0,0E0,0E0,0E0,0E0],"parents":[2147483647,0,0,1,1,2,2,3,3,4,4,5,5,6,6,7,7,8,8,9,9,10,10,11,11,12,12,13,13,14,14],"right_children":[2,4,6,8,10,12,14,16,18,20,22,24,26,28,30,-1,-1,-1,-1,-1,-1,-1,-1,-1,-1,-1,-1,-1,-1,-1,-1],"split_conditions":[9.185E1,4.895E1,1.5675E2,3.355E1,6.82E1,1.199E2,1.9745E2,2.31E1,4.235E1,2.14E1,1.14E1,2.85E2,9.6E0,6.9E1,8.1E0,-7.594289E-1,-5.1476026E-1,-3.3842325E-1,-1.7080341E-1,4.4903904E-1,1.656489E-2,5.255439E-1,1.6139805E-1,7.668336E-1,1.3970969E0,2.050873E0,1.3853965E0,2.0188444E0,2.8596444E0,3.8493078E0,3.0451813E0],"split_indices":[0,0,0,0,0,0,0,0,0,1,7,8,7,6,3,0,0,0,0,0,0,0,0,0,0,0,0,0,0,0,0],"split_type":[0,0,0,0,0,0,0,0,0,0,0,0,0,0,0,0,0,0,0,0,0,0,0,0,0,0,0,0,0,0,0],"sum_hessian":[5.836E3,5.264E3,5.72E2,3.431E3,1.833E3,3.63E2,2.09E2,1.562E3,1.869E3,1.257E3,5.76E2,2.04E2,1.59E2,1.16E2,9.3E1,2.86E2,1.276E3,1.218E3,6.51E2,6.7E1,1.19E3,4.31E2,1.45E2,1.17E2,8.7E1,8E1,7.9E1,5.6E1,6E1,4.9E1,4.4E1],"tree_param":{"num_deleted":"0","num_feature":"9","num_nodes":"31","size_leaf_vector":"1"}},{"base_weights":[3.8837906E-2,-3.5023015E0,4.1635544E1,-7.008187E0,5.7065516E0,3.251498E1,6.2332985E1,-9.999255E0,-3.9483254E0,3.513617E0,1.453328E1,2.4782284E1,3.9811E1,6.88732E1,5.0421074E1,-6.698725E-1,-4.467241E-1,-2.816114E-1,-1.09900944E-1,7.782894E-2,2.7640566E-1,5.553887E-1,1.1647891E0,1.3820566E0,7.1630764E-1,1.449594E0,2.1663399E0,3.4654217E0,7.860802E-1,2.6515071E0,2.60123E-1],"categories":[],"categories_nodes":[],"categories_segments":[],"categories_sizes":[],"default_left":[0,0,0,0,0,0,0,0,0,0,0,0,0,0,0,0,0,0,0,0,0,0,0,0,0,0,0,0,0,0,0],"id":17,"left_children":[1,3,5,7,9,11,13,15,17,19,21,23,25,27,29,-1,-1,-1,-1,-1,-1,-1,-1,-1,-1,-1,-1,-1,-1,-1,-1],"loss_changes":[8.599343E5,1.7373428E5,8.4431E4,3.562686E4,2.8673887E4,1.7067125E4,7.356375E3,7.008375E3,5.6701016E3,4.682907E3,8.595957E3,4.3270312E3,4.9440312E3,9.2296875E2,5.9769844E3,0E0,0E0,0E0,0E0,0E0,0E0,0E0,0E0,0E0,0E0,0E0,0E0,0E0,0E0,0E0,0E0],"parents":[2147483647,0,0,1,1,2,2,3,3,4,4,5,5,6,6,7,7,8,8,9,9,10,10,11,11,12,12,13,13,14,14],"right_children":[2,4,6,8,10,12,14,16,18,20,22,24,26,28,30,-1,-1,-1,-1,-1,-1,-1,-1,-1,-1,-1,-1,-1,-1,-1,-1],"split_conditions":[1.0285E2,5.445E1,1.804E2,3.63E1,8.14E1,1.353E2,9.5E0,2.53E1,4.4E1,6.435E1,2.75E2,1.25E1,1.11E2,3.54E2,8.8E1,-6.698725E-1,-4.467241E-1,-2.816114E-1,-1.09900944E-1,7.782894E-2,2.7640566E-1,5.553887E-1,1.1647891E0,1.3820566E0,7.1630764E-1,1.449594E0,2.1663399E0,3.4654217E0,7.860802E-1,2.6515071E0,2.60123E-1],"split_indices":[0,0,0,0,0,0,7,0,0,0,8,7,4,8,6,0,0,0,0,0,0,0,0,0,0,0,0,0,0,0,0],"split_type":[0,0,0,0,0,0,0,0,0,0,0,0,0,0,0,0,0,0,0,0,0,0,0,0,0,0,0,0,0,0,0],"sum_hessian":[5.836E3,5.379E3,4.57E2,3.896E3,1.483E3,3.19E2,1.38E2,1.969E3,1.927E3,1.189E3,2.94E2,1.57E2,1.62E2,8.6E1,5.2E1,4.67E2,1.502E3,9.81E2,9.46E2,6.04E2,5.85E2,2.13E2,8.1E1,1.22E2,3.5E1,4.2E1,1.2E2,8.5E1,1E0,4.9E1,3E0],"tree_param":{"num_deleted":"0","num_feature":"9","num_nodes":"31","size_leaf_vector":"1"}},{"base_weights":[3.919959E-2,-3.16593E0,4.1598442E1,-6.658164E0,5.766093E0,3.2678265E1,5.9267868E1,-9.6229925E0,-3.8671148E0,3.6187828E0,1.5549009E1,2.52675E1,3.7842636E1,6.54784E1,4.7954956E1,-6.3645047E-1,-4.2969957E-1,-2.7241188E-1,-1.0441168E-1,1.4843614E-1,5.342724E-1,5.753001E-1,1.1981853E0,1.4411261E0,8.0067605E-1,1.3787999E0,2.058918E0,3.2947412E0,7.416704E-1,2.5215833E0,2.5036857E-1],"categories":[],"categories_nodes":[],"categories_segments":[],"categories_sizes":[],"default_left":[0,0,0,0,0,0,0,0,0,0,0,0,0,0,0,0,0,0,0,0,0,0,0,0,0,0,0,0,0,0,0],"id":18,"left_children":[1,3,5,7,9,11,13,15,17,19,21,23,25,27,29,-1,-1,-1,-1,-1,-1,-1,-1,-1,-1,-1,-1,-1,-1,-1,-1],"loss_changes":[7.776361E5,1.691029E5,6.3946E4,3.2210375E4,3.1958332E4,9.7599375E3,6.6260312E3,5.9280312E3,5.6391953E3,5.7150664E3,9.0459375E3,3.420414E3,4.4466875E3,8.5734375E2,5.385E3,0E0,0E0,0E0,0E0,0E0,0E0,0E0,0E0,0E0,0E0,0E0,0E0,0E0,0E0,0E0,0E0],"parents":[2147483647,0,0,1,1,2,2,3,3,4,4,5,5,6,6,7,7,8,8,9,9,10,10,11,11,12,12,13,13,14,14],"right_children":[2,4,6,8,10,12,14,16,18,20,22,24,26,28,30,-1,-1,-1,-1,-1,-1,-1,-1,-1,-1,-1,-1,-1,-1,-1,-1],"split_conditions":[1.1165E2,5.445E1,1.804E2,3.575E1,8.36E1,1.353E2,9.5E0,2.53E1,4.4E1,2.97E2,2.83E2,7.1E1,1.11E2,1.42E1,8.8E1,-6.3645047E-1,-4.2969957E-1,-2.7241188E-1,-1.0441168E-1,1.4843614E-1,5.342724E-1,5.753001E-1,1.1981853E0,1.4411261E0,8.0067605E-1,1.3787999E0,2.058918E0,3.2947412E0,7.416704E-1,2.5215833E0,2.5036857E-1],"split_indices":[0,0,0,0,0,0,7,0,0,8,8,6,4,3,6,0,0,0,0,0,0,0,0,0,0,0,0,0,0,0,0],"split_type":[0,0,0,0,0,0,0,0,0,0,0,0,0,0,0,0,0,0,0,0,0,0,0,0,0,0,0,0,0,0,0],"sum_hessian":[5.836E3,5.419E3,4.17E2,3.896E3,1.523E3,2.79E2,1.38E2,1.888E3,2.008E3,1.25E3,2.73E2,1.17E2,1.62E2,8.6E1,5.2E1,4.67E2,1.421E3,1.062E3,9.46E2,1.146E3,1.04E2,1.86E2,8.7E1,8.3E1,3.4E1,4.2E1,1.2E2,8.5E1,1E0,4.9E1,3E0],"tree_param":{"num_deleted":"0","num_feature":"9","num_nodes":"31","size_leaf_vector":"1"}},{"base_weights":[3.9552383E-2,-3.007447E0,3.9548397E1,-6.3256264E0,5.4793987E0,3.106464E1,5.6353462E1,-9.027834E0,-3.5612726E0,3.1591203E0,1.3705225E1,2.4023125E1,3.5971596E1,6.225088E1,4.5609516E1,-5.857822E-1,-3.9557788E-1,-2.539384E-1,-9.9196576E-2,9.1060884E-2,2.9084516E-1,5.0141436E-1,1.1247542E0,1.3699276E0,7.6178616E-1,2.2826562E0,1.6060971E0,2.7974296E0,3.5667279E0,2.398026E0,2.4097982E-1],"categories":[],"categories_nodes":[],"categories_segments":[],"categories_sizes":[],"default_left":[0,0,0,0,0,0,0,0,0,0,0,0,0,0,0,0,0,0,0,0,0,0,0,0,0,0,0,0,0,0,0],"id":19,"left_children":[1,3,5,7,9,11,13,15,17,19,21,23,25,27,29,-1,-1,-1,-1,-1,-1,-1,-1,-1,-1,-1,-1,-1,-1,-1,-1],"loss_changes":[7.02797E5,1.5266662E5,5.784375E4,2.907786E4,2.9044082E4,8.810531E3,5.9680312E3,5.8179844E3,4.6048027E3,4.220872E3,1.0601527E4,3.0825938E3,4.608625E3,9.8953125E2,4.8513984E3,0E0,0E0,0E0,0E0,0E0,0E0,0E0,0E0,0E0,0E0,0E0,0E0,0E0,0E0,0E0,0E0],"parents":[2147483647,0,0,1,1,2,2,3,3,4,4,5,5,6,6,7,7,8,8,9,9,10,10,11,11,12,12,13,13,14,14],"right_children":[2,4,6,8,10,12,14,16,18,20,22,24,26,28,30,-1,-1,-1,-1,-1,-1,-1,-1,-1,-1,-1,-1,-1,-1,-1,-1],"split_conditions":[1.1165E2,5.445E1,1.804E2,3.63E1,8.14E1,1.353E2,9.5E0,2.64E1,4.4E1,6.82E1,2.83E2,7.1E1,7.5E0,3E2,8.8E1,-5.857822E-1,-3.9557788E-1,-2.539384E-1,-9.9196576E-2,9.1060884E-2,2.9084516E-1,5.0141436E-1,1.1247542E0,1.3699276E0,7.6178616E-1,2.2826562E0,1.6060971E0,2.7974296E0,3.5667279E0,2.398026E0,2.4097982E-1],"split_indices":[0,0,0,0,0,0,7,0,0,0,8,6,3,4,6,0,0,0,0,0,0,0,0,0,0,0,0,0,0,0,0],"split_type":[0,0,0,0,0,0,0,0,0,0,0,0,0,0,0,0,0,0,0,0,0,0,0,0,0,0,0,0,0,0,0],"sum_hessian":[5.836E3,5.419E3,4.17E2,3.896E3,1.523E3,2.79E2,1.38E2,1.969E3,1.927E3,1.189E3,3.34E2,1.17E2,1.62E2,8.6E1,5.2E1,5.75E2,1.394E3,9.81E2,9.46E2,7.92E2,3.97E2,2.37E2,9.7E1,8.3E1,3.4E1,4.3E1,1.19E2,5.5E1,3.1E1,4.9E1,3E0],"tree_param":{"num_deleted":"0","num_feature":"9","num_nodes":"31","size_leaf_vector":"1"}},{"base_weights":[4.026364E-2,-3.4024448E0,3.1673458E1,-6.6554036E0,2.6867354E0,2.2764717E1,4.9940884E1,-9.94515E0,-5.027676E0,6.30918E-1,7.1642594E0,1.8187752E1,3.0984087E1,4.2963776E1,6.073498E1,-7.227788E-1,-4.6660176E-1,-3.0181903E-1,-1.5379106E-1,8.3465004E-1,2.0527935E-2,4.445233E-1,1.00375526E-1,1.0455712E0,3.9320695E-1,7.963912E-1,1.7618536E0,3.431724E-1,2.2257059E0,1.588115E0,3.1460369E0],"categories":[],"categories_nodes":[],"categories_segments":[],"categories_sizes":[],"default_left":[0,0,0,0,0,0,0,0,0,0,0,0,0,0,0,0,0,0,0,0,0,0,0,0,0,0,0,0,0,0,0],"id":20,"left_children":[1,3,5,7,9,11,13,15,17,19,21,23,25,27,29,-1,-1,-1,-1,-1,-1,-1,-1,-1,-1,-1,-1,-1,-1,-1,-1],"loss_changes":[6.357796E5,1.0430623E5,9.2113E4,1.8327719E4,1.6877396E4,1.3995328E4,1.1473844E4,3.0038438E3,4.505836E3,4.44575E3,5.118385E3,6.893203E3,8.211406E3,6.2427188E3,2.4977344E3,0E0,0E0,0E0,0E0,0E0,0E0,0E0,0E0,0E0,0E0,0E0,0E0,0E0,0E0,0E0,0E0],"parents":[2147483647,0,0,1,1,2,2,3,3,4,4,5,5,6,6,7,7,8,8,9,9,10,10,11,11,12,12,13,13,14,14],"right_children":[2,4,6,8,10,12,14,16,18,20,22,24,26,28,30,-1,-1,-1,-1,-1,-1,-1,-1,-1,-1,-1,-1,-1,-1,-1,-1],"split_conditions":[9.185E1,4.895E1,1.628E2,3.08E1,6.82E1,1.309E2,2.079E2,1.98E1,4.125E1,1.65E1,1.14E1,1.24E1,1.11E2,3.3E1,6.6E1,-7.227788E-1,-4.6660176E-1,-3.0181903E-1,-1.5379106E-1,8.3465004E-1,2.0527935E-2,4.445233E-1,1.00375526E-1,1.0455712E0,3.9320695E-1,7.963912E-1,1.7618536E0,3.431724E-1,2.2257059E0,1.588115E0,3.1460369E0],"split_indices":[0,0,0,0,0,0,0,0,0,1,7,7,4,2,4,0,0,0,0,0,0,0,0,0,0,0,0,0,0,0,0],"split_type":[0,0,0,0,0,0,0,0,0,0,0,0,0,0,0,0,0,0,0,0,0,0,0,0,0,0,0,0,0,0,0],"sum_hessian":[5.836E3,5.264E3,5.72E2,3.431E3,1.833E3,3.86E2,1.86E2,1.134E3,2.297E3,1.257E3,5.76E2,2.5E2,1.36E2,1.16E2,7E1,1.33E2,1.001E3,1.513E3,7.84E2,1.6E1,1.241E3,4.31E2,1.45E2,1.97E2,5.3E1,3.1E1,1.05E2,5E0,1.11E2,6E0,6.4E1],"tree_param":{"num_deleted":"0","num_feature":"9","num_nodes":"31","size_leaf_vector":"1"}},{"base_weights":[4.0144295E-2,-2.7174273E0,3.579612E1,-5.633693E0,5.2037263E0,2.8116577E1,5.100818E1,-7.98155E0,-2.9326398E0,3.3029125E0,1.3412346E1,2.1802021E1,3.2515358E1,5.6635445E1,4.0808548E1,-4.9939772E-1,-3.326701E-1,7.033603E-1,-1.5351902E-1,2.5965816E-1,7.5776786E-2,7.982244E-1,1.2345908E-1,1.2496316E0,6.760821E-1,2.0880911E0,1.4427012E0,2.535526E0,3.2617104E0,1.703266E0,2.9468267E0],"categories":[],"categories_nodes":[],"categories_segments":[],"categories_sizes":[],"default_left":[0,0,0,0,0,0,0,0,0,0,0,0,0,0,0,0,0,0,0,0,0,0,0,0,0,0,0,0,0,0,0],"id":21,"left_children":[1,3,5,7,9,11,13,15,17,19,21,23,25,27,29,-1,-1,-1,-1,-1,-1,-1,-1,-1,-1,-1,-1,-1,-1,-1,-1],"loss_changes":[5.756235E5,1.2523236E5,4.739725E4,2.5102352E4,2.2720566E4,7.0684688E3,5.6668438E3,5.5802656E3,4.361041E3,3.9991367E3,7.6129883E3,2.7795586E3,4.3132656E3,1.1243438E3,4.471086E3,0E0,0E0,0E0,0E0,0E0,0E0,0E0,0E0,0E0,0E0,0E0,0E0,0E0,0E0,0E0,0E0],"parents":[2147483647,0,0,1,1,2,2,3,3,4,4,5,5,6,6,7,7,8,8,9,9,10,10,11,11,12,12,13,13,14,14],"right_children":[2,4,6,8,10,12,14,16,18,20,22,24,26,28,30,-1,-1,-1,-1,-1,-1,-1,-1,-1,-1,-1,-1,-1,-1,-1,-1],"split_conditions":[1.1165E2,5.555E1,1.804E2,3.74E1,8.36E1,1.353E2,9.5E0,2.86E1,1.94E1,8.9E0,1.26E1,7.1E1,7.5E0,3E2,2.31E2,-4.9939772E-1,-3.326701E-1,7.033603E-1,-1.5351902E-1,2.5965816E-1,7.5776786E-2,7.982244E-1,1.2345908E-1,1.2496316E0,6.760821E-1,2.0880911E0,1.4427012E0,2.535526E0,3.2617104E0,1.703266E0,2.9468267E0],"split_indices":[0,0,0,0,0,0,7,0,5,7,7,6,3,4,0,0,0,0,0,0,0,0,0,0,0,0,0,0,0,0,0],"split_type":[0,0,0,0,0,0,0,0,0,0,0,0,0,0,0,0,0,0,0,0,0,0,0,0,0,0,0,0,0,0,0],"sum_hessian":[5.836E3,5.419E3,4.17E2,3.961E3,1.458E3,2.79E2,1.38E2,2.118E3,1.843E3,1.185E3,2.73E2,1.17E2,1.62E2,8.6E1,5.2E1,8.41E2,1.277E3,1.4E1,1.829E3,5.75E2,6.1E2,2.21E2,5.2E1,8.3E1,3.4E1,4.3E1,1.19E2,5.5E1,3.1E1,4E1,1.2E1],"tree_param":{"num_deleted":"0","num_feature":"9","num_nodes":"31","size_leaf_vector":"1"}},{"base_weights":[4.1028332E-2,-2.5813766E0,3.404436E1,-5.6243486E0,4.2787323E0,2.6730234E1,4.8532936E1,-8.306367E0,-3.71025E0,1.941027E0,1.05152025E1,2.072824E1,3.091125E1,5.9704258E1,4.3416195E1,-6.6212606E-1,-3.9190048E-1,-2.4512067E-1,-1.0292105E-1,1.066292E0,8.647918E-2,3.796501E-1,9.4336224E-1,1.1595032E0,5.321325E-1,1.0754544E0,1.6998523E0,3.0209193E0,7.784802E-1,3.076744E-3,2.2385194E0],"categories":[],"categories_nodes":[],"categories_segments":[],"categories_sizes":[],"default_left":[0,0,0,0,0,0,0,0,0,0,0,0,0,0,0,0,0,0,0,0,0,0,0,0,0,0,0,0,0,0,0],"id":22,"left_children":[1,3,5,7,9,11,13,15,17,19,21,23,25,27,29,-1,-1,-1,-1,-1,-1,-1,-1,-1,-1,-1,-1,-1,-1,-1,-1],"loss_changes":[5.2057616E5,1.131672E5,4.299872E4,1.9246031E4,2.4268252E4,6.3856875E3,5.3532188E3,3.5096719E3,4.3084785E3,4.9349497E3,1.0937223E4,2.6830117E3,3.9979062E3,3.5153125E2,5.809578E3,0E0,0E0,0E0,0E0,0E0,0E0,0E0,0E0,0E0,0E0,0E0,0E0,0E0,0E0,0E0,0E0],"parents":[2147483647,0,0,1,1,2,2,3,3,4,4,5,5,6,6,7,7,8,8,9,9,10,10,11,11,12,12,13,13,14,14],"right_children":[2,4,6,8,10,12,14,16,18,20,22,24,26,28,30,-1,-1,-1,-1,-1,-1,-1,-1,-1,-1,-1,-1,-1,-1,-1,-1],"split_conditions":[1.1165E2,5.28E1,1.804E2,3.355E1,7.645E1,1.353E2,6.9E0,1.98E1,4.29E1,1.65E1,2.84E2,1.29E1,1.11E2,9.1E1,6.6E1,-6.6212606E-1,-3.9190048E-1,-2.4512067E-1,-1.0292105E-1,1.066292E0,8.647918E-2,3.796501E-1,9.4336224E-1,1.1595032E0,5.321325E-1,1.0754544E0,1.6998523E0,3.0209193E0,7.784802E-1,3.076744E-3,2.2385194E0],"split_indices":[0,0,0,0,0,0,3,0,0,1,8,7,4,6,4,0,0,0,0,0,0,0,0,0,0,0,0,0,0,0,0],"split_type":[0,0,0,0,0,0,0,0,0,0,0,0,0,0,0,0,0,0,0,0,0,0,0,0,0,0,0,0,0,0,0],"sum_hessian":[5.836E3,5.419E3,4.17E2,3.754E3,1.665E3,2.79E2,1.38E2,1.562E3,2.192E3,1.212E3,4.53E2,1.17E2,1.62E2,4E1,9.8E1,1.33E2,1.429E3,1.272E3,9.2E2,1.2E1,1.2E3,3.37E2,1.16E2,9.3E1,2.4E1,4.2E1,1.2E2,3.9E1,1E0,3E0,9.5E1],"tree_param":{"num_deleted":"0","num_feature":"9","num_nodes":"31","size_leaf_vector":"1"}},{"base_weights":[4.0960938E-2,-2.9221978E0,2.726782E1,-5.9089074E0,2.0040379E0,1.8835503E1,4.1753986E1,-8.569805E0,-4.4975142E0,-5.23431E-1,4.968516E0,2.7365465E1,1.6057625E1,3.1191504E1,4.7759155E1,-6.292668E-1,-4.0121228E-1,-1.703025E-1,-2.8518417E-1,2.4802904E-1,-5.059251E-2,1.9801646E-1,5.807375E-1,7.3611754E-1,1.5806342E0,1.5039192E0,6.9192165E-1,1.8488209E0,1.1431286E0,2.4189615E0,-8.367673E-1],"categories":[],"categories_nodes":[],"categories_segments":[],"categories_sizes":[],"default_left":[0,0,0,0,0,0,0,0,0,0,0,0,0,0,0,0,0,0,0,0,0,0,0,0,0,0,0,0,0,0,0],"id":23,"left_children":[1,3,5,7,9,11,13,15,17,19,21,23,25,27,29,-1,-1,-1,-1,-1,-1,-1,-1,-1,-1,-1,-1,-1,-1,-1,-1],"loss_changes":[4.7099428E5,7.747702E4,6.9206625E4,1.2272219E4,1.4897941E4,8.185625E3,1.18305E4,2.3854766E3,2.8031328E3,2.8817239E3,6.08509E3,4.2600156E3,8.202555E3,2.9610234E3,6.0885312E3,0E0,0E0,0E0,0E0,0E0,0E0,0E0,0E0,0E0,0E0,0E0,0E0,0E0,0E0,0E0,0E0],"parents":[2147483647,0,0,1,1,2,2,3,3,4,4,5,5,6,6,7,7,8,8,9,9,10,10,11,11,12,12,13,13,14,14],"right_children":[2,4,6,8,10,12,14,16,18,20,22,24,26,28,30,-1,-1,-1,-1,-1,-1,-1,-1,-1,-1,-1,-1,-1,-1,-1,-1],"split_conditions":[9.185E1,4.73E1,1.5675E2,3.08E1,6.16E1,2E1,6.8E1,1.98E1,7.6E1,2.24E1,2.8E2,2.8E2,3.5E1,2.95E2,1.54E1,-6.292668E-1,-4.0121228E-1,-1.703025E-1,-2.8518417E-1,2.4802904E-1,-5.059251E-2,1.9801646E-1,5.807375E-1,7.3611754E-1,1.5806342E0,1.5039192E0,6.9192165E-1,1.8488209E0,1.1431286E0,2.4189615E0,-8.367673E-1],"split_indices":[0,0,0,0,0,5,6,0,6,5,8,4,2,8,3,0,0,0,0,0,0,0,0,0,0,0,0,0,0,0,0],"split_type":[0,0,0,0,0,0,0,0,0,0,0,0,0,0,0,0,0,0,0,0,0,0,0,0,0,0,0,0,0,0,0],"sum_hessian":[5.836E3,5.264E3,5.72E2,3.277E3,1.987E3,3.63E2,2.09E2,1.134E3,2.143E3,1.073E3,9.14E2,8.7E1,2.76E2,7.8E1,1.31E2,1.33E2,1.001E3,1.127E3,1.016E3,8.7E1,9.86E2,7.95E2,1.19E2,2.3E1,6.4E1,3.6E1,2.4E2,4.4E1,3.4E1,1.3E2,1E0],"tree_param":{"num_deleted":"0","num_feature":"9","num_nodes":"31","size_leaf_vector":"1"}},{"base_weights":[4.0382367E-2,-2.3344226E0,3.083321E1,-4.842366E0,4.477646E0,2.4167662E1,4.4038395E1,-7.1279864E0,-2.758288E0,2.6035044E0,1.07580385E1,4.6081306E1,2.3014507E1,3.65927E1,5.0654087E1,-5.221837E-1,-3.2649505E-1,1.0779912E-3,-1.7331481E-1,2.2548608E-1,6.439132E-2,6.593396E-1,2.3324585E-2,4.1188622E-1,2.4274232E0,1.6109612E0,1.024322E0,2.002056E0,2.6466987E-1,1.2529348E0,2.631561E0],"categories":[],"categories_nodes":[],"categories_segments":[],"categories_sizes":[],"default_left":[0,0,0,0,0,0,0,0,0,0,0,0,0,0,0,0,0,0,0,0,0,0,0,0,0,0,0,0,0,0,0],"id":24,"left_children":[1,3,5,7,9,11,13,15,17,19,21,23,25,27,29,-1,-1,-1,-1,-1,-1,-1,-1,-1,-1,-1,-1,-1,-1,-1,-1],"loss_changes":[4.26914E5,9.26185E4,3.5728E4,1.8852969E4,1.714492E4,6.0149844E3,4.9933438E3,3.6778203E3,4.0820283E3,2.8156572E3,8.367391E3,8.138281E2,5.5763438E3,7.2354297E3,2.2741094E3,0E0,0E0,0E0,0E0,0E0,0E0,0E0,0E0,0E0,0E0,0E0,0E0,0E0,0E0,0E0,0E0],"parents":[2147483647,0,0,1,1,2,2,3,3,4,4,5,5,6,6,7,7,8,8,9,9,10,10,11,11,12,12,13,13,14,14],"right_children":[2,4,6,8,10,12,14,16,18,20,22,24,26,28,30,-1,-1,-1,-1,-1,-1,-1,-1,-1,-1,-1,-1,-1,-1,-1,-1],"split_conditions":[1.1165E2,5.555E1,1.804E2,3.575E1,8.14E1,1.22E1,2.079E2,2.31E1,7.9E1,2.5E1,1.24E1,5.7E1,7.1E0,1.31E1,6.6E1,-5.221837E-1,-3.2649505E-1,1.0779912E-3,-1.7331481E-1,2.2548608E-1,6.439132E-2,6.593396E-1,2.3324585E-2,4.1188622E-1,2.4274232E0,1.6109612E0,1.024322E0,2.002056E0,2.6466987E-1,1.2529348E0,2.631561E0],"split_indices":[0,0,0,0,0,1,0,0,8,5,7,2,3,3,4,0,0,0,0,0,0,0,0,0,0,0,0,0,0,0,0],"split_type":[0,0,0,0,0,0,0,0,0,0,0,0,0,0,0,0,0,0,0,0,0,0,0,0,0,0,0,0,0,0,0],"sum_hessian":[5.836E3,5.419E3,4.17E2,3.961E3,1.458E3,2.79E2,1.38E2,1.888E3,2.073E3,1.124E3,3.34E2,1.2E1,2.67E2,6.8E1,7E1,2.86E2,1.602E3,4.21E2,1.652E3,4.58E2,6.66E2,2.7E2,6.4E1,1E0,1.1E1,5.5E1,2.12E2,6.1E1,7E0,6E0,6.4E1],"tree_param":{"num_deleted":"0","num_feature":"9","num_nodes":"31","size_leaf_vector":"1"}},{"base_weights":[4.0346228E-2,-2.2177107E0,2.9319363E1,-4.4764805E0,4.6155815E0,2.297883E1,4.1880726E1,-6.5429163E0,-2.2355525E0,2.9668882E0,1.1061133E1,4.3995647E1,2.1873615E1,5.238319E1,3.710818E1,-4.112849E-1,-2.714555E-1,6.66629E-1,-1.1773248E-1,1.0156169E-1,3.3920664E-1,6.6902506E-1,5.68674E-2,4.01589E-1,2.3161662E0,1.5318514E0,9.7334635E-1,2.6552148E0,5.884792E-1,-1.2760793E-1,1.9187077E0],"categories":[],"categories_nodes":[],"categories_segments":[],"categories_sizes":[],"default_left":[0,0,0,0,0,0,0,0,0,0,0,0,0,0,0,0,0,0,0,0,0,0,0,0,0,0,0,0,0,0,0],"id":25,"left_children":[1,3,5,7,9,11,13,15,17,19,21,23,25,27,29,-1,-1,-1,-1,-1,-1,-1,-1,-1,-1,-1,-1,-1,-1,-1,-1],"loss_changes":[3.8597062E5,8.3677445E4,3.2329531E4,1.8850992E4,1.4281398E4,5.5415156E3,5.023328E3,3.9269688E3,3.6580498E3,3.8221406E3,6.291414E3,7.162012E2,5.055922E3,5.757344E2,5.0686094E3,0E0,0E0,0E0,0E0,0E0,0E0,0E0,0E0,0E0,0E0,0E0,0E0,0E0,0E0,0E0,0E0],"parents":[2147483647,0,0,1,1,2,2,3,3,4,4,5,5,6,6,7,7,8,8,9,9,10,10,11,11,12,12,13,13,14,14],"right_children":[2,4,6,8,10,12,14,16,18,20,22,24,26,28,30,-1,-1,-1,-1,-1,-1,-1,-1,-1,-1,-1,-1,-1,-1,-1,-1],"split_conditions":[1.1165E2,5.72E1,1.804E2,3.74E1,8.36E1,1.22E1,6.9E0,2.86E1,1.94E1,2.55E2,1.26E1,5.7E1,7.1E0,1.46E1,6.6E1,-4.112849E-1,-2.714555E-1,6.66629E-1,-1.1773248E-1,1.0156169E-1,3.3920664E-1,6.6902506E-1,5.68674E-2,4.01589E-1,2.3161662E0,1.5318514E0,9.7334635E-1,2.6552148E0,5.884792E-1,-1.2760793E-1,1.9187077E0],"split_indices":[0,0,0,0,0,1,3,0,5,8,7,2,3,7,4,0,0,0,0,0,0,0,0,0,0,0,0,0,0,0,0],"split_type":[0,0,0,0,0,0,0,0,0,0,0,0,0,0,0,0,0,0,0,0,0,0,0,0,0,0,0,0,0,0,0],"sum_hessian":[5.836E3,5.419E3,4.17E2,4.073E3,1.346E3,2.79E2,1.38E2,2.118E3,1.955E3,1.073E3,2.73E2,1.2E1,2.67E2,4E1,9.8E1,8.41E2,1.277E3,1.4E1,1.941E3,8.63E2,2.1E2,2.21E2,5.2E1,1E0,1.1E1,5.5E1,2.12E2,3.9E1,1E0,3E0,9.5E1],"tree_param":{"num_deleted":"0","num_feature":"9","num_nodes":"31","size_leaf_vector":"1"}},{"base_weights":[4.0263414E-2,-2.3986802E0,2.45682E1,-4.702726E0,2.7239647E0,1.7580908E1,3.7215717E1,-6.808561E0,-3.1338906E0,1.205018E0,7.03723E0,8.888483E0,2.0696932E1,3.147535E1,4.6151028E1,-5.246931E-1,-3.1741512E-1,-1.5857588E-2,-1.8143262E-1,9.400507E-1,5.1468562E-2,1.7387478E0,3.2137734E-1,1.1582971E0,9.743033E-2,8.2892466E-1,1.4134934E0,1.6173371E0,-6.2098855E-1,1.145075E0,2.3972404E0],"categories":[],"categories_nodes":[],"categories_segments":[],"categories_sizes":[],"default_left":[0,0,0,0,0,0,0,0,0,0,0,0,0,0,0,0,0,0,0,0,0,0,0,0,0,0,0,0,0,0,0],"id":26,"left_children":[1,3,5,7,9,11,13,15,17,19,21,23,25,27,29,-1,-1,-1,-1,-1,-1,-1,-1,-1,-1,-1,-1,-1,-1,-1,-1],"loss_changes":[3.492414E5,6.2685727E4,4.6006094E4,1.2080148E4,1.0788587E4,9.079383E3,8.138953E3,2.5845234E3,2.926832E3,3.7512769E3,7.0314023E3,9.070567E3,7.3596797E3,4.8769688E3,1.8630156E3,0E0,0E0,0E0,0E0,0E0,0E0,0E0,0E0,0E0,0E0,0E0,0E0,0E0,0E0,0E0,0E0],"parents":[2147483647,0,0,1,1,2,2,3,3,4,4,5,5,6,6,7,7,8,8,9,9,10,10,11,11,12,12,13,13,14,14],"right_children":[2,4,6,8,10,12,14,16,18,20,22,24,26,28,30,-1,-1,-1,-1,-1,-1,-1,-1,-1,-1,-1,-1,-1,-1,-1,-1],"split_conditions":[9.515E1,5.17E1,1.628E2,3.355E1,7.37E1,1.14E2,2.079E2,2.09E1,6E1,1.65E1,1.46E1,7.2E0,1.353E2,1.54E1,6.6E1,-5.246931E-1,-3.1741512E-1,-1.5857588E-2,-1.8143262E-1,9.400507E-1,5.1468562E-2,1.7387478E0,3.2137734E-1,1.1582971E0,9.743033E-2,8.2892466E-1,1.4134934E0,1.6173371E0,-6.2098855E-1,1.145075E0,2.3972404E0],"split_indices":[0,0,0,0,0,4,0,0,8,1,1,3,0,3,4,0,0,0,0,0,0,0,0,0,0,0,0,0,0,0,0],"split_type":[0,0,0,0,0,0,0,0,0,0,0,0,0,0,0,0,0,0,0,0,0,0,0,0,0,0,0,0,0,0,0],"sum_hessian":[5.836E3,5.309E3,5.27E2,3.662E3,1.647E3,3.41E2,1.86E2,1.562E3,2.1E3,1.219E3,4.28E2,9.1E1,2.5E2,1.16E2,7E1,1.71E2,1.391E3,3.14E2,1.786E3,1.1E1,1.208E3,8E0,4.2E2,2.9E1,6.2E1,1.64E2,8.6E1,1.14E2,2E0,6E0,6.4E1],"tree_param":{"num_deleted":"0","num_feature":"9","num_nodes":"31","size_leaf_vector":"1"}},{"base_weights":[3.9970662E-2,-2.0025516E0,2.6524256E1,-4.3730717E0,3.3415694E0,2.210837E1,4.150977E1,-6.8123293E0,-3.087736E0,1.4943763E0,8.269551E0,4.3512146E1,2.0932343E1,4.722812E1,3.4233604E1,-5.256742E-1,-3.1898278E-1,-2.0543166E-1,-7.63785E-2,9.317488E-1,6.537984E-2,2.8589442E-1,7.7851707E-1,1.060171E0,2.4590719E0,7.5035137E-1,1.21749E0,1.1731906E0,2.4673593E0,-3.0575666E-1,1.8126252E0],"categories":[],"categories_nodes":[],"categories_segments":[],"categories_sizes":[],"default_left":[0,0,0,0,0,0,0,0,0,0,0,0,0,0,0,0,0,0,0,0,0,0,0,0,0,0,0,0,0,0,0],"id":27,"left_children":[1,3,5,7,9,11,13,15,17,19,21,23,25,27,29,-1,-1,-1,-1,-1,-1,-1,-1,-1,-1,-1,-1,-1,-1,-1,-1],"loss_changes":[3.1580412E5,6.867705E4,2.6743156E4,1.1751891E4,1.5153129E4,7.2699062E3,2.2943438E3,2.0067305E3,3.9135273E3,3.8590679E3,8.368605E3,9.807793E2,5.911922E3,1.3600312E3,3.8873828E3,0E0,0E0,0E0,0E0,0E0,0E0,0E0,0E0,0E0,0E0,0E0,0E0,0E0,0E0,0E0,0E0],"parents":[2147483647,0,0,1,1,2,2,3,3,4,4,5,5,6,6,7,7,8,8,9,9,10,10,11,11,12,12,13,13,14,14],"right_children":[2,4,6,8,10,12,14,16,18,20,22,24,26,28,30,-1,-1,-1,-1,-1,-1,-1,-1,-1,-1,-1,-1,-1,-1,-1,-1],"split_conditions":[1.1165E2,5.28E1,1.9745E2,3.19E1,7.645E1,1.22E1,8.1E0,1.98E1,4.235E1,1.65E1,2.84E2,6.9E1,1.353E2,6.8E1,5.2E1,-5.256742E-1,-3.1898278E-1,-2.0543166E-1,-7.63785E-2,9.317488E-1,6.537984E-2,2.8589442E-1,7.7851707E-1,1.060171E0,2.4590719E0,7.5035137E-1,1.21749E0,1.1731906E0,2.4673593E0,-3.0575666E-1,1.8126252E0],"split_indices":[0,0,0,0,0,1,3,0,0,1,8,6,0,6,4,0,0,0,0,0,0,0,0,0,0,0,0,0,0,0,0],"split_type":[0,0,0,0,0,0,0,0,0,0,0,0,0,0,0,0,0,0,0,0,0,0,0,0,0,0,0,0,0,0,0],"sum_hessian":[5.836E3,5.419E3,4.17E2,3.754E3,1.665E3,3.24E2,9.3E1,1.294E3,2.46E3,1.212E3,4.53E2,1.5E1,3.09E2,4.9E1,4.4E1,1.33E2,1.161E3,1.486E3,9.74E2,1.2E1,1.2E3,3.37E2,1.16E2,4E0,1.1E1,1.15E2,1.94E2,5E0,4.4E1,2E0,4.2E1],"tree_param":{"num_deleted":"0","num_feature":"9","num_nodes":"31","size_leaf_vector":"1"}},{"base_weights":[3.9954163E-2,-2.2685988E0,2.125198E1,-4.9507947E0,1.151457E0,1.4587712E1,3.270218E1,-6.798067E0,-3.9040592E0,-4.4025242E-1,4.377064E0,2.1913109E1,1.2207849E1,2.3488697E1,3.7968563E1,-4.9958664E-1,-3.166049E-1,-1.0214571E-1,-2.3294647E-1,2.935439E-1,-4.280343E-2,1.7161018E-1,5.1094335E-1,5.115697E-1,1.2944616E0,1.2358321E0,5.0577927E-1,7.4166834E-1,1.4242579E0,1.9538872E0,9.898968E-2],"categories":[],"categories_nodes":[],"categories_segments":[],"categories_sizes":[],"default_left":[0,0,0,0,0,0,0,0,0,0,0,0,0,0,0,0,0,0,0,0,0,0,0,0,0,0,0,0,0,0,0],"id":28,"left_children":[1,3,5,7,9,11,13,15,17,19,21,23,25,27,29,-1,-1,-1,-1,-1,-1,-1,-1,-1,-1,-1,-1,-1,-1,-1,-1],"loss_changes":[2.8588078E5,4.8302914E4,4.3246953E4,5.6795312E3,1.1887669E4,6.078258E3,9.29775E3,1.5230977E3,2.640166E3,4.0752686E3,4.18749E3,3.8225352E3,6.999535E3,2.9939023E3,5.1918125E3,0E0,0E0,0E0,0E0,0E0,0E0,0E0,0E0,0E0,0E0,0E0,0E0,0E0,0E0,0E0,0E0],"parents":[2147483647,0,0,1,1,2,2,3,3,4,4,5,5,6,6,7,7,8,8,9,9,10,10,11,11,12,12,13,13,14,14],"right_children":[2,4,6,8,10,12,14,16,18,20,22,24,26,28,30,-1,-1,-1,-1,-1,-1,-1,-1,-1,-1,-1,-1,-1,-1,-1,-1],"split_conditions":[9.185E1,4.4E1,1.5675E2,3.025E1,6.435E1,2E1,6.8E1,1.98E1,7E1,2.2E1,2.8E2,2.8E2,3.6E1,2.34E1,1.42E1,-4.9958664E-1,-3.166049E-1,-1.0214571E-1,-2.3294647E-1,2.935439E-1,-4.280343E-2,1.7161018E-1,5.1094335E-1,5.115697E-1,1.2944616E0,1.2358321E0,5.0577927E-1,7.4166834E-1,1.4242579E0,1.9538872E0,9.898968E-2],"split_indices":[0,0,0,0,0,5,6,0,6,1,8,4,2,1,3,0,0,0,0,0,0,0,0,0,0,0,0,0,0,0,0],"split_type":[0,0,0,0,0,0,0,0,0,0,0,0,0,0,0,0,0,0,0,0,0,0,0,0,0,0,0,0,0,0,0],"sum_hessian":[5.836E3,5.264E3,5.72E2,2.95E3,2.314E3,3.63E2,2.09E2,1.065E3,1.885E3,1.55E3,7.64E2,8.7E1,2.76E2,7.8E1,1.31E2,1.33E2,9.32E2,5.45E2,1.34E3,9.5E1,1.455E3,6.59E2,1.05E2,2.3E1,6.4E1,3.8E1,2.38E2,3E1,4.8E1,1.27E2,4E0],"tree_param":{"num_deleted":"0","num_feature":"9","num_nodes":"31","size_leaf_vector":"1"}},{"base_weights":[3.9250534E-2,-1.8105525E0,2.4024641E1,-3.533764E0,4.2523527E0,1.9954803E1,3.7840305E1,-5.119327E0,-1.3754586E0,2.9782884E0,1.0042634E1,4.0054432E1,1.8853033E1,4.3132282E1,3.1119434E1,-3.6320466E-1,-2.2258356E-1,2.2067364E-1,-8.860432E-2,1.8005489E0,1.3865042E-1,3.0981952E-1,7.948739E-1,9.659856E-1,2.2678018E0,1.364623E0,8.2732326E-1,2.309652E0,1.3134984E0,-3.5186717E-1,1.6528914E0],"categories":[],"categories_nodes":[],"categories_segments":[],"categories_sizes":[],"default_left":[0,0,0,0,0,0,0,0,0,0,0,0,0,0,0,0,0,0,0,0,0,0,0,0,0,0,0,0,0,0,0],"id":29,"left_children":[1,3,5,7,9,11,13,15,17,19,21,23,25,27,29,-1,-1,-1,-1,-1,-1,-1,-1,-1,-1,-1,-1,-1,-1,-1,-1],"loss_changes":[2.5902097E5,5.6641383E4,2.2748E4,1.4437766E4,8.822719E3,6.442039E3,2.0010156E3,3.4516328E3,4.115457E3,6.579378E3,4.765631E3,8.825664E2,5.5828984E3,1.3670703E3,3.5609688E3,0E0,0E0,0E0,0E0,0E0,0E0,0E0,0E0,0E0,0E0,0E0,0E0,0E0,0E0,0E0,0E0],"parents":[2147483647,0,0,1,1,2,2,3,3,4,4,5,5,6,6,7,7,8,8,9,9,10,10,11,11,12,12,13,13,14,14],"right_children":[2,4,6,8,10,12,14,16,18,20,22,24,26,28,30,-1,-1,-1,-1,-1,-1,-1,-1,-1,-1,-1,-1,-1,-1,-1,-1],"split_conditions":[1.1165E2,5.94E1,1.9745E2,3.96E1,2.73E2,1.22E1,8.1E0,2.64E1,2.24E1,1.54E1,8.635E1,6.9E1,7.1E0,9.7E0,5.2E1,-3.6320466E-1,-2.2258356E-1,2.2067364E-1,-8.860432E-2,1.8005489E0,1.3865042E-1,3.0981952E-1,7.948739E-1,9.659856E-1,2.2678018E0,1.364623E0,8.2732326E-1,2.309652E0,1.3134984E0,-3.5186717E-1,1.6528914E0],"split_indices":[0,0,0,0,8,1,3,0,5,5,0,6,3,7,4,0,0,0,0,0,0,0,0,0,0,0,0,0,0,0,0],"split_type":[0,0,0,0,0,0,0,0,0,0,0,0,0,0,0,0,0,0,0,0,0,0,0,0,0,0,0,0,0,0,0],"sum_hessian":[5.836E3,5.419E3,4.17E2,4.22E3,1.199E3,3.24E2,9.3E1,2.432E3,1.788E3,9.84E2,2.15E2,1.5E1,3.09E2,4.9E1,4.4E1,5.75E2,1.857E3,1.14E2,1.674E3,5E0,9.79E2,1.31E2,8.4E1,4E0,1.1E1,6.4E1,2.45E2,4E1,9E0,2E0,4.2E1],"tree_param":{"num_deleted":"0","num_feature":"9","num_nodes":"31","size_leaf_vector":"1"}},{"base_weights":[3.95052E-2,-1.7195468E0,2.2848171E1,-3.5836315E0,3.3436632E0,1.7769089E1,3.291504E1,-5.104964E0,-1.8334761E0,2.0906596E0,8.755046E0,3.5828663E1,1.6826763E1,3.755027E1,2.468522E1,-3.5919836E-1,-2.2564533E-1,3.5452344E-2,-1.250241E-1,1.9187085E-1,2.2027012E-2,5.4888463E-1,-3.6004864E-2,2.5752456E0,1.298765E0,8.6601144E-1,-6.2967753E-1,1.6554152E0,2.3349206E0,9.423365E-1,2.0600033E0],"categories":[],"categories_nodes":[],"categories_segments":[],"categories_sizes":[],"default_left":[0,0,0,0,0,0,0,0,0,0,0,0,0,0,0,0,0,0,0,0,0,0,0,0,0,0,0,0,0,0,0],"id":30,"left_children":[1,3,5,7,9,11,13,15,17,19,21,23,25,27,29,-1,-1,-1,-1,-1,-1,-1,-1,-1,-1,-1,-1,-1,-1,-1,-1],"loss_changes":[2.3422923E5,5.1167312E4,2.078764E4,1.0539734E4,9.87442E3,4.162164E3,4.3755156E3,2.575832E3,3.1289712E3,3.4167861E3,5.7783164E3,6.701738E2,4.108914E3,1.9892031E3,4.333869E3,0E0,0E0,0E0,0E0,0E0,0E0,0E0,0E0,0E0,0E0,0E0,0E0,0E0,0E0,0E0,0E0],"parents":[2147483647,0,0,1,1,2,2,3,3,4,4,5,5,6,6,7,7,8,8,9,9,10,10,11,11,12,12,13,13,14,14],"right_children":[2,4,6,8,10,12,14,16,18,20,22,24,26,28,30,-1,-1,-1,-1,-1,-1,-1,-1,-1,-1,-1,-1,-1,-1,-1,-1],"split_conditions":[1.1165E2,5.555E1,1.804E2,3.74E1,8.36E1,1.22E1,9.5E0,2.53E1,7.9E1,8.9E0,1.26E1,5.7E0,8.7E1,3.06E2,2.31E2,-3.5919836E-1,-2.2564533E-1,3.5452344E-2,-1.250241E-1,1.9187085E-1,2.2027012E-2,5.4888463E-1,-3.6004864E-2,2.5752456E0,1.298765E0,8.6601144E-1,-6.2967753E-1,1.6554152E0,2.3349206E0,9.423365E-1,2.0600033E0],"split_indices":[0,0,0,0,0,1,7,0,8,7,7,7,6,4,0,0,0,0,0,0,0,0,0,0,0,0,0,0,0,0,0],"split_type":[0,0,0,0,0,0,0,0,0,0,0,0,0,0,0,0,0,0,0,0,0,0,0,0,0,0,0,0,0,0,0],"sum_hessian":[5.836E3,5.419E3,4.17E2,3.961E3,1.458E3,2.79E2,1.38E2,2.118E3,1.843E3,1.185E3,2.73E2,1.2E1,2.67E2,8.6E1,5.2E1,4.67E2,1.651E3,3.83E2,1.46E3,5.75E2,6.1E2,2.21E2,5.2E1,3E0,9E0,2.63E2,4E0,6.1E1,2.5E1,4E1,1.2E1],"tree_param":{"num_deleted":"0","num_feature":"9","num_nodes":"31","size_leaf_vector":"1"}},{"base_weights":[3.94413E-2,-1.6335596E0,2.1732325E1,-3.194853E0,3.8596518E0,1.8020796E1,3.433354E1,-4.5382333E0,-1.0967861E0,2.6589346E0,9.317275E0,3.6732113E1,1.699692E1,3.93063E1,2.8045284E1,-2.9383808E-1,-1.7945115E-1,2.598463E-1,-7.147241E-2,1.7148955E0,1.2312567E-1,5.948643E-1,7.742838E-2,5.3046775E-1,1.9853064E0,1.2499956E0,7.406607E-1,2.1038454E0,1.2008094E0,1.5576355E0,1.3274537E-1],"categories":[],"categories_nodes":[],"categories_segments":[],"categories_sizes":[],"default_left":[0,0,0,0,0,0,0,0,0,0,0,0,0,0,0,0,0,0,0,0,0,0,0,0,0,0,0,0,0,0,0],"id":31,"left_children":[1,3,5,7,9,11,13,15,17,19,21,23,25,27,29,-1,-1,-1,-1,-1,-1,-1,-1,-1,-1,-1,-1,-1,-1,-1,-1],"loss_changes":[2.1187316E5,4.649704E4,1.8931047E4,1.1891926E4,7.8389004E3,5.602047E3,1.8370234E3,3.2480156E3,3.4599048E3,6.0368867E3,4.3109395E3,8.2177344E2,5.0472812E3,1.1076172E3,3.4677383E3,0E0,0E0,0E0,0E0,0E0,0E0,0E0,0E0,0E0,0E0,0E0,0E0,0E0,0E0,0E0,0E0],"parents":[2147483647,0,0,1,1,2,2,3,3,4,4,5,5,6,6,7,7,8,8,9,9,10,10,11,11,12,12,13,13,14,14],"right_children":[2,4,6,8,10,12,14,16,18,20,22,24,26,28,30,-1,-1,-1,-1,-1,-1,-1,-1,-1,-1,-1,-1,-1,-1,-1,-1],"split_conditions":[1.1165E2,5.94E1,1.9745E2,4.07E1,2.73E2,1.22E1,8.1E0,3.025E1,2.2E1,1.54E1,1.24E1,6.6E1,7.1E0,9.7E0,7.9E1,-2.9383808E-1,-1.7945115E-1,2.598463E-1,-7.147241E-2,1.7148955E0,1.2312567E-1,5.948643E-1,7.742838E-2,5.3046775E-1,1.9853064E0,1.2499956E0,7.406607E-1,2.1038454E0,1.2008094E0,1.5576355E0,1.3274537E-1],"split_indices":[0,0,0,0,8,1,3,0,1,5,7,6,3,7,2,0,0,0,0,0,0,0,0,0,0,0,0,0,0,0,0],"split_type":[0,0,0,0,0,0,0,0,0,0,0,0,0,0,0,0,0,0,0,0,0,0,0,0,0,0,0,0,0,0,0],"sum_hessian":[5.836E3,5.419E3,4.17E2,4.22E3,1.199E3,3.24E2,9.3E1,2.572E3,1.648E3,9.84E2,2.15E2,1.5E1,3.09E2,4.9E1,4.4E1,1.065E3,1.507E3,8.2E1,1.566E3,5E0,9.79E2,1.61E2,5.4E1,2E0,1.3E1,6.4E1,2.45E2,4E1,9E0,3.9E1,5E0],"tree_param":{"num_deleted":"0","num_feature":"9","num_nodes":"31","size_leaf_vector":"1"}},{"base_weights":[3.9478317E-2,-1.9822177E0,1.6344835E1,-4.064711E0,7.5727415E-1,1.07325945E1,2.6400204E1,-5.5831985E0,-3.2042801E0,-5.3602195E-1,2.9031873E0,1.3521023E1,4.975632E0,1.8481749E1,3.1000935E1,-4.7065425E-1,-2.6272377E-1,-7.364964E-2,-1.9534E-1,2.6659575E-1,-4.477108E-2,8.751432E-1,1.3268653E-1,8.3001274E-1,3.691149E-1,8.3280945E-1,4.7910206E-2,5.373332E-1,1.1182154E0,1.7343292E0,1.0768639E0],"categories":[],"categories_nodes":[],"categories_segments":[],"categories_sizes":[],"default_left":[0,0,0,0,0,0,0,0,0,0,0,0,0,0,0,0,0,0,0,0,0,0,0,0,0,0,0,0,0,0,0],"id":32,"left_children":[1,3,5,7,9,11,13,15,17,19,21,23,25,27,29,-1,-1,-1,-1,-1,-1,-1,-1,-1,-1,-1,-1,-1,-1,-1,-1],"loss_changes":[1.9244605E5,2.9634713E4,3.6059594E4,3.83775E3,6.229332E3,6.594672E3,7.8061094E3,1.2926055E3,2.2881172E3,2.959391E3,3.027392E3,5.151258E3,6.412874E3,2.3724355E3,4.2756406E3,0E0,0E0,0E0,0E0,0E0,0E0,0E0,0E0,0E0,0E0,0E0,0E0,0E0,0E0,0E0,0E0],"parents":[2147483647,0,0,1,1,2,2,3,3,4,4,5,5,6,6,7,7,8,8,9,9,10,10,11,11,12,12,13,13,14,14],"right_children":[2,4,6,8,10,12,14,16,18,20,22,24,26,28,30,-1,-1,-1,-1,-1,-1,-1,-1,-1,-1,-1,-1,-1,-1,-1,-1],"split_conditions":[8.635E1,4.4E1,1.507E2,3.025E1,6.16E1,7.2E1,6.8E1,1.815E1,7E1,2.2E1,1.65E1,1.09E1,1.75E1,2.34E1,7.9E1,-4.7065425E-1,-2.6272377E-1,-7.364964E-2,-1.9534E-1,2.6659575E-1,-4.477108E-2,8.751432E-1,1.3268653E-1,8.3001274E-1,3.691149E-1,8.3280945E-1,4.7910206E-2,5.373332E-1,1.1182154E0,1.7343292E0,1.0768639E0],"split_indices":[0,0,0,0,0,2,6,0,6,1,1,7,5,1,2,0,0,0,0,0,0,0,0,0,0,0,0,0,0,0,0],"split_type":[0,0,0,0,0,0,0,0,0,0,0,0,0,0,0,0,0,0,0,0,0,0,0,0,0,0,0,0,0,0,0],"sum_hessian":[5.836E3,5.193E3,6.43E2,2.95E3,2.243E3,4.14E2,2.29E2,1.065E3,1.885E3,1.4E3,8.43E2,2.78E2,1.36E2,8.6E1,1.43E2,8.2E1,9.83E2,5.45E2,1.34E3,8E1,1.32E3,1.3E1,8.3E2,1.84E2,9.4E1,3.4E1,1.02E2,3E1,5.6E1,1.01E2,4.2E1],"tree_param":{"num_deleted":"0","num_feature":"9","num_nodes":"31","size_leaf_vector":"1"}},{"base_weights":[3.866453E-2,-1.7624547E0,1.6588148E1,-3.8618157E0,9.1442513E-1,1.16893635E1,2.6637568E1,-5.2371836E0,-3.0005589E0,-1.23676814E-1,4.041539E0,5.7556925E0,1.4085056E1,2.2133068E1,3.36853E1,-3.3335206E-1,-2.2173865E-1,-6.5201E-2,-1.849099E-1,-2.7475497E-2,2.4699612E-1,2.7467117E-1,-1.4106448E-2,8.1315565E-1,7.0191704E-2,5.42869E-1,1.0467505E0,-2.686018E-1,1.170447E0,6.9038165E-1,1.7653866E0],"categories":[],"categories_nodes":[],"categories_segments":[],"categories_sizes":[],"default_left":[0,0,0,0,0,0,0,0,0,0,0,0,0,0,0,0,0,0,0,0,0,0,0,0,0,0,0,0,0,0,0],"id":33,"left_children":[1,3,5,7,9,11,13,15,17,19,21,23,25,27,29,-1,-1,-1,-1,-1,-1,-1,-1,-1,-1,-1,-1,-1,-1,-1,-1],"loss_changes":[1.7401617E5,2.9591447E4,2.7897375E4,3.4798828E3,7.5155996E3,5.4202344E3,5.1910312E3,1.2726523E3,2.1457285E3,3.7524302E3,3.6236484E3,5.144298E3,5.852801E3,4.231633E3,1.80225E3,0E0,0E0,0E0,0E0,0E0,0E0,0E0,0E0,0E0,0E0,0E0,0E0,0E0,0E0,0E0,0E0],"parents":[2147483647,0,0,1,1,2,2,3,3,4,4,5,5,6,6,7,7,8,8,9,9,10,10,11,11,12,12,13,13,14,14],"right_children":[2,4,6,8,10,12,14,16,18,20,22,24,26,28,30,-1,-1,-1,-1,-1,-1,-1,-1,-1,-1,-1,-1,-1,-1,-1,-1],"split_conditions":[9.185E1,4.4E1,1.628E2,3.08E1,6.82E1,1.14E2,2.079E2,2.57E1,7E1,2.89E2,1.14E1,7.2E0,1.353E2,3.3E1,6.6E1,-3.3335206E-1,-2.2173865E-1,-6.5201E-2,-1.849099E-1,-2.7475497E-2,2.4699612E-1,2.7467117E-1,-1.4106448E-2,8.1315565E-1,7.0191704E-2,5.42869E-1,1.0467505E0,-2.686018E-1,1.170447E0,6.9038165E-1,1.7653866E0],"split_indices":[0,0,0,0,0,4,0,5,6,4,7,3,0,2,4,0,0,0,0,0,0,0,0,0,0,0,0,0,0,0,0],"split_type":[0,0,0,0,0,0,0,0,0,0,0,0,0,0,0,0,0,0,0,0,0,0,0,0,0,0,0,0,0,0,0],"sum_hessian":[5.836E3,5.264E3,5.72E2,2.95E3,2.314E3,3.86E2,1.86E2,1.134E3,1.816E3,1.738E3,5.76E2,1.12E2,2.74E2,1.16E2,7E1,4.05E2,7.29E2,5.3E2,1.286E3,1.604E3,1.34E2,4.31E2,1.45E2,3.2E1,8E1,1.88E2,8.6E1,5E0,1.11E2,6E0,6.4E1],"tree_param":{"num_deleted":"0","num_feature":"9","num_nodes":"31","size_leaf_vector":"1"}},{"base_weights":[3.7674695E-2,-1.8660737E0,1.4217928E1,-3.6689982E0,5.564555E-1,9.382294E0,2.386943E1,-5.042992E0,-2.8904476E0,2.3762312E0,-7.7867687E-1,5.6589465E0,1.2657017E1,1.6463978E1,2.81778E1,-4.5242697E-1,-2.3805013E-1,-1.2253225E-1,-2.6762298E-1,6.573647E-2,2.5175193E-1,-2.54444E-3,-1.964067E-1,3.7830007E-1,-2.6306957E-1,1.1425935E0,4.6863875E-1,4.4782E-1,1.0129102E0,1.4543121E0,-1.4470844E-1],"categories":[],"categories_nodes":[],"categories_segments":[],"categories_sizes":[],"default_left":[0,0,0,0,0,0,0,0,0,0,0,0,0,0,0,0,0,0,0,0,0,0,0,0,0,0,0,0,0,0,0],"id":34,"left_children":[1,3,5,7,9,11,13,15,17,19,21,23,25,27,29,-1,-1,-1,-1,-1,-1,-1,-1,-1,-1,-1,-1,-1,-1,-1,-1],"loss_changes":[1.5760006E5,2.248227E4,3.2025812E4,3.1421797E3,5.3397725E3,5.561508E3,6.874328E3,1.1609941E3,2.029044E3,2.6181455E3,2.9062302E3,4.5798066E3,7.988996E3,2.296793E3,4.148883E3,0E0,0E0,0E0,0E0,0E0,0E0,0E0,0E0,0E0,0E0,0E0,0E0,0E0,0E0,0E0,0E0],"parents":[2147483647,0,0,1,1,2,2,3,3,4,4,5,5,6,6,7,7,8,8,9,9,10,10,11,11,12,12,13,13,14,14],"right_children":[2,4,6,8,10,12,14,16,18,20,22,24,26,28,30,-1,-1,-1,-1,-1,-1,-1,-1,-1,-1,-1,-1,-1,-1,-1,-1],"split_conditions":[8.36E1,4.4E1,1.507E2,3.025E1,8.8E0,1.68E2,6.8E1,1.76E1,8.4E1,6.655E1,8E1,1.26E1,2.07E2,2.34E1,1.42E1,-4.5242697E-1,-2.3805013E-1,-1.2253225E-1,-2.6762298E-1,6.573647E-2,2.5175193E-1,-2.54444E-3,-1.964067E-1,3.7830007E-1,-2.6306957E-1,1.1425935E0,4.6863875E-1,4.4782E-1,1.0129102E0,1.4543121E0,-1.4470844E-1],"split_indices":[0,0,0,0,7,4,6,0,6,0,6,7,8,1,3,0,0,0,0,0,0,0,0,0,0,0,0,0,0,0,0],"split_type":[0,0,0,0,0,0,0,0,0,0,0,0,0,0,0,0,0,0,0,0,0,0,0,0,0,0,0,0,0,0,0],"sum_hessian":[5.836E3,5.146E3,6.9E2,2.95E3,2.196E3,4.61E2,2.29E2,1.065E3,1.885E3,9.29E2,1.267E3,2.17E2,2.44E2,8.6E1,1.43E2,6.8E1,9.97E2,1.601E3,2.84E2,6.65E2,2.64E2,1.03E3,2.37E2,1.85E2,3.2E1,5.8E1,1.86E2,3E1,5.6E1,1.39E2,4E0],"tree_param":{"num_deleted":"0","num_feature":"9","num_nodes":"31","size_leaf_vector":"1"}},{"base_weights":[3.639647E-2,-1.3350677E0,1.781941E1,-3.009124E0,2.1537848E0,1.5117352E1,3.0812328E1,-4.3649344E0,-1.9990616E0,8.933513E-1,5.772093E0,3.424579E1,1.3970207E1,1.2032377E1,3.236075E1,-1.869481E-1,-2.9745337E-1,5.9511352E-2,-1.1882515E-1,7.958741E-1,3.7080284E-2,1.8948655E-1,5.7247907E-1,7.547385E-1,1.9173203E0,1.0397407E0,5.9925336E-1,1.2148856E0,-1.5389909E0,1.7154837E0,5.6555593E-1],"categories":[],"categories_nodes":[],"categories_segments":[],"categories_sizes":[],"default_left":[0,0,0,0,0,0,0,0,0,0,0,0,0,0,0,0,0,0,0,0,0,0,0,0,0,0,0,0,0,0,0],"id":35,"left_children":[1,3,5,7,9,11,13,15,17,19,21,23,25,27,29,-1,-1,-1,-1,-1,-1,-1,-1,-1,-1,-1,-1,-1,-1,-1,-1],"loss_changes":[1.4238103E5,3.1662184E4,1.42091875E4,5.007582E3,8.012442E3,7.1577734E3,1.67525E3,1.5276621E3,2.5319482E3,2.9633943E3,5.0663057E3,9.132617E2,4.221551E3,4.42362E3,2.2784844E3,0E0,0E0,0E0,0E0,0E0,0E0,0E0,0E0,0E0,0E0,0E0,0E0,0E0,0E0,0E0,0E0],"parents":[2147483647,0,0,1,1,2,2,3,3,4,4,5,5,6,6,7,7,8,8,9,9,10,10,11,11,12,12,13,13,14,14],"right_children":[2,4,6,8,10,12,14,16,18,20,22,24,26,28,30,-1,-1,-1,-1,-1,-1,-1,-1,-1,-1,-1,-1,-1,-1,-1,-1],"split_conditions":[1.1165E2,5.17E1,2.079E2,3.355E1,7.645E1,1.22E1,6.6E1,2.53E2,4.9E1,1.65E1,2.84E2,6.9E1,7.1E0,3.33E2,8.3E1,-1.869481E-1,-2.9745337E-1,5.9511352E-2,-1.1882515E-1,7.958741E-1,3.7080284E-2,1.8948655E-1,5.7247907E-1,7.547385E-1,1.9173203E0,1.0397407E0,5.9925336E-1,1.2148856E0,-1.5389909E0,1.7154837E0,5.6555593E-1],"split_indices":[0,0,0,0,0,1,4,4,8,1,8,6,3,8,6,0,0,0,0,0,0,0,0,0,0,0,0,0,0,0,0],"split_type":[0,0,0,0,0,0,0,0,0,0,0,0,0,0,0,0,0,0,0,0,0,0,0,0,0,0,0,0,0,0,0],"sum_hessian":[5.836E3,5.419E3,4.17E2,3.662E3,1.757E3,3.47E2,7E1,1.562E3,2.1E3,1.304E3,4.53E2,1.8E1,3.29E2,6E0,6.4E1,1.122E3,4.4E2,2.22E2,1.878E3,1.2E1,1.292E3,3.37E2,1.16E2,4E0,1.4E1,7.2E1,2.57E2,5E0,1E0,5.8E1,6E0],"tree_param":{"num_deleted":"0","num_feature":"9","num_nodes":"31","size_leaf_vector":"1"}},{"base_weights":[3.5830557E-2,-1.6859345E0,1.2860562E1,-3.3529751E0,4.755756E-1,8.723341E0,2.2295229E1,-4.8217983E0,-2.7524414E0,2.170889E0,-7.681091E-1,1.108733E1,3.5675263E0,1.526554E1,2.6333488E1,-3.0992675E-1,-1.9678007E-1,-6.5230146E-2,-1.6314895E-1,3.0354485E-1,7.385597E-2,3.6575906E-2,-1.03687756E-1,3.5654667E-1,7.78131E-1,-5.224623E-1,2.698228E-1,1.0257175E0,4.0404564E-1,1.3641702E0,-1.6255315E-1],"categories":[],"categories_nodes":[],"categories_segments":[],"categories_sizes":[],"default_left":[0,0,0,0,0,0,0,0,0,0,0,0,0,0,0,0,0,0,0,0,0,0,0,0,0,0,0,0,0,0,0],"id":36,"left_children":[1,3,5,7,9,11,13,15,17,19,21,23,25,27,29,-1,-1,-1,-1,-1,-1,-1,-1,-1,-1,-1,-1,-1,-1,-1,-1],"loss_changes":[1.2890951E5,1.854791E4,2.6777516E4,2.5500469E3,4.7287793E3,5.835203E3,5.559422E3,1.0028965E3,1.5221426E3,2.5587485E3,2.535146E3,5.7320117E3,3.9786494E3,2.813373E3,3.7982656E3,0E0,0E0,0E0,0E0,0E0,0E0,0E0,0E0,0E0,0E0,0E0,0E0,0E0,0E0,0E0,0E0],"parents":[2147483647,0,0,1,1,2,2,3,3,4,4,5,5,6,6,7,7,8,8,9,9,10,10,11,11,12,12,13,13,14,14],"right_children":[2,4,6,8,10,12,14,16,18,20,22,24,26,28,30,-1,-1,-1,-1,-1,-1,-1,-1,-1,-1,-1,-1,-1,-1,-1,-1],"split_conditions":[8.36E1,4.345E1,1.5675E2,2.86E1,8.8E0,1.09E1,6.8E1,2.57E1,6.9E1,2.21E1,2.65E1,1.67E2,5E1,2.95E2,1.42E1,-3.0992675E-1,-1.9678007E-1,-6.5230146E-2,-1.6314895E-1,3.0354485E-1,7.385597E-2,3.6575906E-2,-1.03687756E-1,3.5654667E-1,7.78131E-1,-5.224623E-1,2.698228E-1,1.0257175E0,4.0404564E-1,1.3641702E0,-1.6255315E-1],"split_indices":[0,0,0,0,7,7,6,5,6,1,1,4,4,8,3,0,0,0,0,0,0,0,0,0,0,0,0,0,0,0,0],"split_type":[0,0,0,0,0,0,0,0,0,0,0,0,0,0,0,0,0,0,0,0,0,0,0,0,0,0,0,0,0,0,0],"sum_hessian":[5.836E3,5.146E3,6.9E2,2.905E3,2.241E3,4.81E2,2.09E2,8.41E2,2.064E3,9.48E2,1.293E3,3.29E2,1.52E2,7.8E1,1.31E2,3.27E2,5.14E2,5.39E2,1.525E3,1.42E2,8.06E2,6.02E2,6.91E2,1.76E2,1.53E2,1.7E1,1.35E2,4.4E1,3.4E1,1.27E2,4E0],"tree_param":{"num_deleted":"0","num_feature":"9","num_nodes":"31","size_leaf_vector":"1"}},{"base_weights":[3.4569114E-2,-1.2078652E0,1.614452E1,-2.3830137E0,2.9267259E0,1.3652314E1,2.8132454E1,-3.4016638E0,-8.9108986E-1,1.6973838E0,6.9041433E0,3.1735527E1,1.2569789E1,1.0263519E1,2.9623993E1,-2.9383066E-1,-1.5402305E-1,1.8950006E-1,-6.119263E-2,1.5593523E0,7.508632E-2,5.727026E-1,2.1776323E-1,1.9761966E0,1.0386784E0,6.781154E-1,4.6460625E-2,1.1102455E0,-1.5346203E0,1.5732486E0,4.9375883E-1],"categories":[],"categories_nodes":[],"categories_segments":[],"categories_sizes":[],"default_left":[0,0,0,0,0,0,0,0,0,0,0,0,0,0,0,0,0,0,0,0,0,0,0,0,0,0,0,0,0,0,0],"id":37,"left_children":[1,3,5,7,9,11,13,15,17,19,21,23,25,27,29,-1,-1,-1,-1,-1,-1,-1,-1,-1,-1,-1,-1,-1,-1,-1,-1],"loss_changes":[1.16850305E5,2.6341441E4,1.2104258E4,6.411828E3,5.8558096E3,6.413375E3,1.5882617E3,1.9756543E3,2.6745244E3,5.249911E3,3.2321104E3,8.0109375E2,3.8000508E3,4.105016E3,2.0524883E3,0E0,0E0,0E0,0E0,0E0,0E0,0E0,0E0,0E0,0E0,0E0,0E0,0E0,0E0,0E0,0E0],"parents":[2147483647,0,0,1,1,2,2,3,3,4,4,5,5,6,6,7,7,8,8,9,9,10,10,11,11,12,12,13,13,14,14],"right_children":[2,4,6,8,10,12,14,16,18,20,22,24,26,28,30,-1,-1,-1,-1,-1,-1,-1,-1,-1,-1,-1,-1,-1,-1,-1,-1],"split_conditions":[1.1165E2,5.94E1,2.079E2,4.015E1,2.55E2,1.22E1,6.6E1,2.31E1,2.24E1,1.54E1,9.3E0,7.8E0,8.3E1,3.33E2,8.3E1,-2.9383066E-1,-1.5402305E-1,1.8950006E-1,-6.119263E-2,1.5593523E0,7.508632E-2,5.727026E-1,2.1776323E-1,1.9761966E0,1.0386784E0,6.781154E-1,4.6460625E-2,1.1102455E0,-1.5346203E0,1.5732486E0,4.9375883E-1],"split_indices":[0,0,0,0,8,1,4,0,5,5,7,7,6,8,6,0,0,0,0,0,0,0,0,0,0,0,0,0,0,0,0],"split_type":[0,0,0,0,0,0,0,0,0,0,0,0,0,0,0,0,0,0,0,0,0,0,0,0,0,0,0,0,0,0,0],"sum_hessian":[5.836E3,5.419E3,4.17E2,4.22E3,1.199E3,3.47E2,7E1,2.507E3,1.713E3,9.17E2,2.82E2,1.8E1,3.29E2,6E0,6.4E1,2.86E2,2.221E3,1.13E2,1.6E3,5E0,9.12E2,1E2,1.82E2,9E0,9E0,3.03E2,2.6E1,5E0,1E0,5.8E1,6E0],"tree_param":{"num_deleted":"0","num_feature":"9","num_nodes":"31","size_leaf_vector":"1"}},{"base_weights":[3.4122795E-2,-1.5270741E0,1.1662844E1,-3.0067618E0,4.611304E-1,8.183842E0,2.0995642E1,-4.104902E0,-2.319147E0,2.0762146E0,-7.2379804E-1,3.4881437E0,1.0577484E1,1.8943476E1,3.3535934E1,-3.2432917E-1,-1.8607943E-1,-6.795571E-2,-1.6654286E-1,7.376512E-2,3.0994007E-1,-1.5524136E-3,-1.860851E-1,5.881696E-1,6.440825E-2,6.5995556E-1,2.0647459E-1,1.0325328E0,3.612938E-2,1.7849514E0,2.8867874E-1],"categories":[],"categories_nodes":[],"categories_segments":[],"categories_sizes":[],"default_left":[0,0,0,0,0,0,0,0,0,0,0,0,0,0,0,0,0,0,0,0,0,0,0,0,0,0,0,0,0,0,0],"id":38,"left_children":[1,3,5,7,9,11,13,15,17,19,21,23,25,27,29,-1,-1,-1,-1,-1,-1,-1,-1,-1,-1,-1,-1,-1,-1,-1,-1],"loss_changes":[1.0598694E5,1.5143459E4,2.2264125E4,2.2187715E3,4.2060312E3,5.639215E3,4.1771094E3,1.01203516E3,1.7602793E3,2.294755E3,2.6332637E3,3.1161704E3,5.591508E3,5.05541E3,1.2952031E3,0E0,0E0,0E0,0E0,0E0,0E0,0E0,0E0,0E0,0E0,0E0,0E0,0E0,0E0,0E0,0E0],"parents":[2147483647,0,0,1,1,2,2,3,3,4,4,5,5,6,6,7,7,8,8,9,9,10,10,11,11,12,12,13,13,14,14],"right_children":[2,4,6,8,10,12,14,16,18,20,22,24,26,28,30,-1,-1,-1,-1,-1,-1,-1,-1,-1,-1,-1,-1,-1,-1,-1,-1],"split_conditions":[8.36E1,4.4E1,1.628E2,3.08E1,8.8E0,1.12E2,2.31E2,2.44E1,7.6E1,2.68E2,8E1,6.9E0,1.17E1,1.33E1,8.7E1,-3.2432917E-1,-1.8607943E-1,-6.795571E-2,-1.6654286E-1,7.376512E-2,3.0994007E-1,-1.5524136E-3,-1.860851E-1,5.881696E-1,6.440825E-2,6.5995556E-1,2.0647459E-1,1.0325328E0,3.612938E-2,1.7849514E0,2.8867874E-1],"split_indices":[0,0,0,0,7,4,0,5,6,4,6,7,7,7,6,0,0,0,0,0,0,0,0,0,0,0,0,0,0,0,0],"split_type":[0,0,0,0,0,0,0,0,0,0,0,0,0,0,0,0,0,0,0,0,0,0,0,0,0,0,0,0,0,0,0],"sum_hessian":[5.836E3,5.146E3,6.9E2,2.95E3,2.196E3,5.04E2,1.86E2,1.134E3,1.816E3,9.29E2,1.267E3,1.71E2,3.33E2,1.62E2,2.4E1,1.55E2,9.79E2,9.33E2,8.83E2,8.12E2,1.17E2,1.03E3,2.37E2,3.5E1,1.36E2,2.36E2,9.7E1,1.48E2,1.4E1,2.2E1,2E0],"tree_param":{"num_deleted":"0","num_feature":"9","num_nodes":"31","size_leaf_vector":"1"}},{"base_weights":[3.3120874E-2,-1.0210732E0,1.5657387E1,-2.0897539E0,3.135183E0,1.3246688E1,2.5588959E1,-3.2717319E0,-9.6718305E-1,1.7712295E0,7.215847E0,1.6736134E1,7.675617E0,1.17621355E1,2.7406366E1,-1.3860412E-1,-2.365619E-1,6.762334E-2,-7.9484284E-2,1.6006671E-1,-1.1121464E-1,4.4315243E-1,8.7031685E-2,1.0656999E0,3.94557E-1,-7.6104954E-2,8.2194084E-1,9.916893E-1,-1.522068E0,1.4629383E0,4.3359834E-1],"categories":[],"categories_nodes":[],"categories_segments":[],"categories_sizes":[],"default_left":[0,0,0,0,0,0,0,0,0,0,0,0,0,0,0,0,0,0,0,0,0,0,0,0,0,0,0,0,0,0,0],"id":39,"left_children":[1,3,5,7,9,11,13,15,17,19,21,23,25,27,29,-1,-1,-1,-1,-1,-1,-1,-1,-1,-1,-1,-1,-1,-1,-1,-1],"loss_changes":[9.6157266E4,2.4298268E4,8.495641E3,5.7699766E3,6.2153906E3,5.684086E3,1.4617969E3,1.5321465E3,3.2265754E3,4.806893E3,2.50983E3,7.2416914E3,9.455387E3,4.0102864E3,1.8978906E3,0E0,0E0,0E0,0E0,0E0,0E0,0E0,0E0,0E0,0E0,0E0,0E0,0E0,0E0,0E0,0E0],"parents":[2147483647,0,0,1,1,2,2,3,3,4,4,5,5,6,6,7,7,8,8,9,9,10,10,11,11,12,12,13,13,14,14],"right_children":[2,4,6,8,10,12,14,16,18,20,22,24,26,28,30,-1,-1,-1,-1,-1,-1,-1,-1,-1,-1,-1,-1,-1,-1,-1,-1],"split_conditions":[1.199E2,6.16E1,2.079E2,3.74E1,2.55E2,9.9E0,7.3E1,2.53E2,7.9E1,1.06E1,1.41E1,2.56E1,2.77E1,3.33E2,8.3E1,-1.3860412E-1,-2.365619E-1,6.762334E-2,-7.9484284E-2,1.6006671E-1,-1.1121464E-1,4.4315243E-1,8.7031685E-2,1.0656999E0,3.94557E-1,-7.6104954E-2,8.2194084E-1,9.916893E-1,-1.522068E0,1.4629383E0,4.3359834E-1],"split_indices":[0,0,0,0,8,7,4,4,8,7,3,1,1,8,6,0,0,0,0,0,0,0,0,0,0,0,0,0,0,0,0],"split_type":[0,0,0,0,0,0,0,0,0,0,0,0,0,0,0,0,0,0,0,0,0,0,0,0,0,0,0,0,0,0,0],"sum_hessian":[5.836E3,5.468E3,3.68E2,4.35E3,1.118E3,2.98E2,7E1,2.118E3,2.232E3,8.39E2,2.79E2,1.82E2,1.16E2,9E0,6.1E1,1.58E3,5.38E2,4.72E2,1.76E3,6.18E2,2.21E2,2.14E2,6.5E1,1.19E2,6.3E1,5.7E1,5.9E1,8E0,1E0,5.5E1,6E0],"tree_param":{"num_deleted":"0","num_feature":"9","num_nodes":"31","size_leaf_vector":"1"}},{"base_weights":[3.2109074E-2,-1.3836161E0,1.0577269E1,-2.5876987E0,6.3810843E-1,7.422457E0,1.9040382E1,-3.7316763E0,-1.9658048E0,2.397159E0,-3.0947497E-1,3.0953622E0,9.628558E0,3.0485802E1,1.7002703E1,-3.5365203E-1,-1.732379E-1,3.2047417E-2,-1.1696812E-1,2.0828362E-1,3.568606E-2,-5.799334E-2,1.3690586E-1,4.0647957E-1,-2.1960111E-2,6.03273E-1,1.8184935E-1,1.5535983E0,3.81139E-1,9.531558E-1,2.515762E-1],"categories":[],"categories_nodes":[],"categories_segments":[],"categories_sizes":[],"default_left":[0,0,0,0,0,0,0,0,0,0,0,0,0,0,0,0,0,0,0,0,0,0,0,0,0,0,0,0,0,0,0],"id":40,"left_children":[1,3,5,7,9,11,13,15,17,19,21,23,25,27,29,-1,-1,-1,-1,-1,-1,-1,-1,-1,-1,-1,-1,-1,-1,-1,-1],"loss_changes":[8.7155484E4,1.2531113E4,1.8308047E4,2.287746E3,3.2044224E3,4.7909336E3,3.8428984E3,9.877676E2,2.0386304E3,2.0006702E3,3.2427354E3,3.064105E3,4.8328066E3,1.2498047E2,3.875246E3,0E0,0E0,0E0,0E0,0E0,0E0,0E0,0E0,0E0,0E0,0E0,0E0,0E0,0E0,0E0,0E0],"parents":[2147483647,0,0,1,1,2,2,3,3,4,4,5,5,6,6,7,7,8,8,9,9,10,10,11,11,12,12,13,13,14,14],"right_children":[2,4,6,8,10,12,14,16,18,20,22,24,26,28,30,-1,-1,-1,-1,-1,-1,-1,-1,-1,-1,-1,-1,-1,-1,-1,-1],"split_conditions":[8.36E1,4.675E1,1.628E2,3.08E1,2.5E1,1.12E2,1.22E1,1.815E1,5.6E1,9.4E1,2.53E2,6.5E1,1.17E1,1.38E1,7.9E1,-3.5365203E-1,-1.732379E-1,3.2047417E-2,-1.1696812E-1,2.0828362E-1,3.568606E-2,-5.799334E-2,1.3690586E-1,4.0647957E-1,-2.1960111E-2,6.03273E-1,1.8184935E-1,1.5535983E0,3.81139E-1,9.531558E-1,2.515762E-1],"split_indices":[0,0,0,0,5,4,1,0,8,8,4,6,7,5,2,0,0,0,0,0,0,0,0,0,0,0,0,0,0,0,0],"split_type":[0,0,0,0,0,0,0,0,0,0,0,0,0,0,0,0,0,0,0,0,0,0,0,0,0,0,0,0,0,0,0],"sum_hessian":[5.836E3,5.146E3,6.9E2,3.225E3,1.921E3,5.04E2,1.86E2,1.134E3,2.091E3,6.72E2,1.249E3,1.71E2,3.33E2,2.6E1,1.6E2,8.2E1,1.052E3,2.62E2,1.829E3,3.27E2,3.45E2,9.77E2,2.72E2,7E1,1.01E2,2.36E2,9.7E1,2.5E1,1E0,1.36E2,2.4E1],"tree_param":{"num_deleted":"0","num_feature":"9","num_nodes":"31","size_leaf_vector":"1"}},{"base_weights":[3.1192033E-2,-8.618255E-1,1.5278748E1,-1.8938862E0,2.9934175E0,9.705513E0,1.948939E1,-2.7104707E0,-5.5159426E-1,1.7836542E0,6.2807484E0,1.4984373E1,2.3293128E0,1.19932785E1,2.5324602E1,-2.484862E-1,-1.22065164E-1,1.07341565E-1,-5.399565E-2,1.5644951E-1,-8.129855E-2,3.686415E-1,-1.3020755E-1,8.1227845E-1,-1.849186E-1,1.32046E0,-9.415772E-2,1.0963081E0,1.4582783E-1,1.7528938E0,1.0676593E0],"categories":[],"categories_nodes":[],"categories_segments":[],"categories_sizes":[],"default_left":[0,0,0,0,0,0,0,0,0,0,0,0,0,0,0,0,0,0,0,0,0,0,0,0,0,0,0,0,0,0,0],"id":41,"left_children":[1,3,5,7,9,11,13,15,17,19,21,23,25,27,29,-1,-1,-1,-1,-1,-1,-1,-1,-1,-1,-1,-1,-1,-1,-1,-1],"loss_changes":[7.949171E4,2.1948998E4,7.3906484E3,4.7676123E3,4.621876E3,5.4553438E3,7.700953E3,1.6328262E3,2.3503289E3,3.9178772E3,3.05625E3,1.9922168E3,6.1358765E3,7.329009E3,3.1941992E3,0E0,0E0,0E0,0E0,0E0,0E0,0E0,0E0,0E0,0E0,0E0,0E0,0E0,0E0,0E0,0E0],"parents":[2147483647,0,0,1,1,2,2,3,3,4,4,5,5,6,6,7,7,8,8,9,9,10,10,11,11,12,12,13,13,14,14],"right_children":[2,4,6,8,10,12,14,16,18,20,22,24,26,28,30,-1,-1,-1,-1,-1,-1,-1,-1,-1,-1,-1,-1,-1,-1,-1,-1],"split_conditions":[1.309E2,6.16E1,6.7E1,4.18E1,2.53E2,3.02E2,1.82E2,2.31E1,6.1E1,1.05E1,3.42E2,6.9E1,7.7E0,6.7E0,2.71E2,-2.484862E-1,-1.22065164E-1,1.07341565E-1,-5.399565E-2,1.5644951E-1,-8.129855E-2,3.686415E-1,-1.3020755E-1,8.1227845E-1,-1.849186E-1,1.32046E0,-9.415772E-2,1.0963081E0,1.4582783E-1,1.7528938E0,1.0676593E0],"split_indices":[0,0,6,0,4,4,4,0,8,7,4,2,7,3,8,0,0,0,0,0,0,0,0,0,0,0,0,0,0,0,0],"split_type":[0,0,0,0,0,0,0,0,0,0,0,0,0,0,0,0,0,0,0,0,0,0,0,0,0,0,0,0,0,0,0],"sum_hessian":[5.836E3,5.514E3,3.22E2,4.35E3,1.164E3,1.4E2,1.82E2,2.704E3,1.646E3,8.52E2,3.12E2,8.1E1,5.9E1,8.1E1,1.01E2,2.86E2,2.418E3,2.69E2,1.377E3,6.11E2,2.41E2,2.78E2,3.4E1,7.6E1,5E0,8E0,5.1E1,3.8E1,4.3E1,2.7E1,7.4E1],"tree_param":{"num_deleted":"0","num_feature":"9","num_nodes":"31","size_leaf_vector":"1"}},{"base_weights":[3.0646259E-2,-8.1873405E-1,1.4533129E1,-1.7992637E0,2.8440158E0,9.233388E0,1.8537119E1,-2.8995707E0,-8.885148E-1,1.6945604E0,5.9674706E0,1.4653887E1,2.670129E0,1.140876E1,2.4086023E1,-2.8798363E-1,-1.3446811E-1,-8.6158095E-3,-1.24657504E-1,1.4863987E-1,-7.725041E-2,4.2490107E-1,1.2165853E-1,8.0158216E-1,-7.06955E-2,1.5491785E0,-3.671745E-2,1.042898E0,1.3870214E-1,1.6683791E0,1.0149882E0],"categories":[],"categories_nodes":[],"categories_segments":[],"categories_sizes":[],"default_left":[0,0,0,0,0,0,0,0,0,0,0,0,0,0,0,0,0,0,0,0,0,0,0,0,0,0,0,0,0,0,0],"id":42,"left_children":[1,3,5,7,9,11,13,15,17,19,21,23,25,27,29,-1,-1,-1,-1,-1,-1,-1,-1,-1,-1,-1,-1,-1,-1,-1,-1],"loss_changes":[7.191277E4,1.9811883E4,6.6829375E3,4.357576E3,4.1725537E3,4.9771084E3,6.963699E3,1.1689102E3,2.7370547E3,3.536812E3,2.77871E3,1.7272539E3,6.288264E3,6.632616E3,2.9071758E3,0E0,0E0,0E0,0E0,0E0,0E0,0E0,0E0,0E0,0E0,0E0,0E0,0E0,0E0,0E0,0E0],"parents":[2147483647,0,0,1,1,2,2,3,3,4,4,5,5,6,6,7,7,8,8,9,9,10,10,11,11,12,12,13,13,14,14],"right_children":[2,4,6,8,10,12,14,16,18,20,22,24,26,28,30,-1,-1,-1,-1,-1,-1,-1,-1,-1,-1,-1,-1,-1,-1,-1,-1],"split_conditions":[1.309E2,6.16E1,6.7E1,3.63E1,2.53E2,2.97E2,1.82E2,1.98E1,7.8E1,1.05E1,3.1E2,6.9E1,6.9E0,6.7E0,2.71E2,-2.8798363E-1,-1.3446811E-1,-8.6158095E-3,-1.24657504E-1,1.4863987E-1,-7.725041E-2,4.2490107E-1,1.2165853E-1,8.0158216E-1,-7.06955E-2,1.5491785E0,-3.671745E-2,1.042898E0,1.3870214E-1,1.6683791E0,1.0149882E0],"split_indices":[0,0,6,0,4,8,4,0,2,7,4,2,3,3,8,0,0,0,0,0,0,0,0,0,0,0,0,0,0,0,0],"split_type":[0,0,0,0,0,0,0,0,0,0,0,0,0,0,0,0,0,0,0,0,0,0,0,0,0,0,0,0,0,0,0],"sum_hessian":[5.836E3,5.514E3,3.22E2,4.35E3,1.164E3,1.4E2,1.82E2,1.969E3,2.381E3,8.52E2,3.12E2,7.6E1,6.4E1,8.1E1,1.01E2,1.33E2,1.836E3,1.647E3,7.34E2,6.11E2,2.41E2,1.81E2,1.31E2,7E1,6E0,6E0,5.8E1,3.8E1,4.3E1,2.7E1,7.4E1],"tree_param":{"num_deleted":"0","num_feature":"9","num_nodes":"31","size_leaf_vector":"1"}},{"base_weights":[3.0171178E-2,-1.1991357E0,9.186773E0,-2.4075935E0,2.8256655E-1,6.459933E0,1.6501574E1,-2.0452485E0,-3.9367666E0,1.7101943E0,-7.534993E-1,7.8735323E0,5.832159E-1,1.4647552E1,2.7929733E1,-2.7900506E-2,-1.2254997E-1,-1.17125E-1,-2.6075003E-1,2.5369367E-1,5.5750825E-2,8.826571E-2,-7.0396E-2,4.164962E-1,-7.965105E-1,7.41461E-1,-7.7610046E-2,8.105928E-1,-9.338499E-2,1.4953873E0,1.7275314E-1],"categories":[],"categories_nodes":[],"categories_segments":[],"categories_sizes":[],"default_left":[0,0,0,0,0,0,0,0,0,0,0,0,0,0,0,0,0,0,0,0,0,0,0,0,0,0,0,0,0,0,0],"id":43,"left_children":[1,3,5,7,9,11,13,15,17,19,21,23,25,27,29,-1,-1,-1,-1,-1,-1,-1,-1,-1,-1,-1,-1,-1,-1,-1,-1],"loss_changes":[6.571388E4,9.21677E3,1.3676289E4,1.5627891E3,3.4224846E3,4.1906074E3,3.5530664E3,1.3829424E3,1.0922959E3,1.9422759E3,2.2129404E3,4.5542676E3,3.0347124E3,4.2413633E3,1.1069473E3,0E0,0E0,0E0,0E0,0E0,0E0,0E0,0E0,0E0,0E0,0E0,0E0,0E0,0E0,0E0,0E0],"parents":[2147483647,0,0,1,1,2,2,3,3,4,4,5,5,6,6,7,7,8,8,9,9,10,10,11,11,12,12,13,13,14,14],"right_children":[2,4,6,8,10,12,14,16,18,20,22,24,26,28,30,-1,-1,-1,-1,-1,-1,-1,-1,-1,-1,-1,-1,-1,-1,-1,-1],"split_conditions":[8.36E1,4.29E1,1.628E2,8.4E1,8.8E0,1.26E1,2.31E2,1.06E2,9.7E0,2.21E1,6.1E1,8.9E1,3.3E1,1.33E1,8.7E1,-2.7900506E-2,-1.2254997E-1,-1.17125E-1,-2.6075003E-1,2.5369367E-1,5.5750825E-2,8.826571E-2,-7.0396E-2,4.164962E-1,-7.965105E-1,7.41461E-1,-7.7610046E-2,8.105928E-1,-9.338499E-2,1.4953873E0,1.7275314E-1],"split_indices":[0,0,0,6,7,7,0,8,7,1,8,6,2,7,6,0,0,0,0,0,0,0,0,0,0,0,0,0,0,0,0],"split_type":[0,0,0,0,0,0,0,0,0,0,0,0,0,0,0,0,0,0,0,0,0,0,0,0,0,0,0,0,0,0,0],"sum_hessian":[5.836E3,5.146E3,6.9E2,2.834E3,2.312E3,5.04E2,1.86E2,2.293E3,5.41E2,9.72E2,1.34E3,4.06E2,9.8E1,1.62E2,2.4E1,4.92E2,1.801E3,2.42E2,2.99E2,1.45E2,8.27E2,2.76E2,1.064E3,3.99E2,7E0,1.2E1,8.6E1,1.48E2,1.4E1,2.2E1,2E0],"tree_param":{"num_deleted":"0","num_feature":"9","num_nodes":"31","size_leaf_vector":"1"}},{"base_weights":[2.9085968E-2,-1.0239475E0,9.704813E0,-1.9468714E0,1.085656E0,7.3038373E0,1.714884E1,1.1183547E-1,-2.2462492E0,1.4004589E1,9.053134E-1,1.2572978E1,5.3933854E0,2.469176E1,1.3851786E1,-1.7822934E-2,2.3634164E-1,-4.9153704E-2,-1.3672203E-1,3.276524E-1,1.6391596E0,7.20179E-2,-1.4209351E-1,-9.73479E-1,6.6562E-1,2.9895124E-1,-1.086543E0,3.9353225E-1,1.3148769E0,8.0052084E-1,-1.9889465E-2],"categories":[],"categories_nodes":[],"categories_segments":[],"categories_sizes":[],"default_left":[0,0,0,0,0,0,0,0,0,0,0,0,0,0,0,0,0,0,0,0,0,0,0,0,0,0,0,0,0,0,0],"id":44,"left_children":[1,3,5,7,9,11,13,15,17,19,21,23,25,27,29,-1,-1,-1,-1,-1,-1,-1,-1,-1,-1,-1,-1,-1,-1,-1,-1],"loss_changes":[5.9482336E4,1.0253088E4,1.01159375E4,2.257872E3,3.7220483E3,4.31109E3,3.1148242E3,1.00879297E3,1.9694258E3,2.86362E3,3.175862E3,2.983879E3,5.2290205E3,9.004707E2,3.0515664E3,0E0,0E0,0E0,0E0,0E0,0E0,0E0,0E0,0E0,0E0,0E0,0E0,0E0,0E0,0E0,0E0],"parents":[2147483647,0,0,1,1,2,2,3,3,4,4,5,5,6,6,7,7,8,8,9,9,10,10,11,11,12,12,13,13,14,14],"right_children":[2,4,6,8,10,12,14,16,18,20,22,24,26,28,30,-1,-1,-1,-1,-1,-1,-1,-1,-1,-1,-1,-1,-1,-1,-1,-1],"split_conditions":[9.185E1,5.17E1,1.804E2,5.6E1,1.65E1,2.04E1,6.9E0,5.3E1,6.9E1,7.9E1,8.2E1,1.2E1,8.9E1,4.6E0,8.2E1,-1.7822934E-2,2.3634164E-1,-4.9153704E-2,-1.3672203E-1,3.276524E-1,1.6391596E0,7.20179E-2,-1.4209351E-1,-9.73479E-1,6.6562E-1,2.9895124E-1,-1.086543E0,3.9353225E-1,1.3148769E0,8.0052084E-1,-1.9889465E-2],"split_indices":[0,0,0,8,1,1,3,8,6,2,6,4,6,7,6,0,0,0,0,0,0,0,0,0,0,0,0,0,0,0,0],"split_type":[0,0,0,0,0,0,0,0,0,0,0,0,0,0,0,0,0,0,0,0,0,0,0,0,0,0,0,0,0,0,0],"sum_hessian":[5.836E3,5.264E3,5.72E2,3.662E3,1.602E3,4.34E2,1.38E2,4.65E2,3.197E3,2.1E1,1.581E3,1.14E2,3.2E2,4E1,9.8E1,4.23E2,4.2E1,8.92E2,2.305E3,1.6E1,5E0,1.384E3,1.97E2,2E0,1.12E2,3.14E2,6E0,4E0,3.6E1,8.5E1,1.3E1],"tree_param":{"num_deleted":"0","num_feature":"9","num_nodes":"31","size_leaf_vector":"1"}},{"base_weights":[2.8200665E-2,-7.0892113E-1,1.26139555E1,-1.4901049E0,2.755923E0,1.5762832E1,6.7815275E0,-2.5667458E0,-7.1120536E-1,1.4217404E1,2.475851E0,1.8650312E1,6.9119396E0,-2.5522494E0,1.6323832E1,-1.0467019E-1,-1.9316715E-1,2.73727E-3,-1.0808688E-1,1.6609157E0,4.3781534E-1,1.06617644E-1,6.045852E-1,1.0772381E0,4.5095727E-1,7.717646E-1,-5.25938E-1,3.691002E-1,-1.1146573E0,1.3806541E0,4.4857025E-1],"categories":[],"categories_nodes":[],"categories_segments":[],"categories_sizes":[],"default_left":[0,0,0,0,0,0,0,0,0,0,0,0,0,0,0,0,0,0,0,0,0,0,0,0,0,0,0,0,0,0,0],"id":45,"left_children":[1,3,5,7,9,11,13,15,17,19,21,23,25,27,29,-1,-1,-1,-1,-1,-1,-1,-1,-1,-1,-1,-1,-1,-1,-1,-1],"loss_changes":[5.4160156E4,1.4931448E4,5.8251953E3,3.7726914E3,3.2229902E3,5.212457E3,1.0284221E4,1.1512549E3,2.9032559E3,2.1995103E3,3.2508208E3,4.1823633E3,8.036463E3,1.1735121E4,4.483464E3,0E0,0E0,0E0,0E0,0E0,0E0,0E0,0E0,0E0,0E0,0E0,0E0,0E0,0E0,0E0,0E0],"parents":[2147483647,0,0,1,1,2,2,3,3,4,4,5,5,6,6,7,7,8,8,9,9,10,10,11,11,12,12,13,13,14,14],"right_children":[2,4,6,8,10,12,14,16,18,20,22,24,26,28,30,-1,-1,-1,-1,-1,-1,-1,-1,-1,-1,-1,-1,-1,-1,-1,-1],"split_conditions":[1.309E2,6.435E1,9.9E0,3.575E1,1.46E1,2.56E1,2.77E1,2.53E2,7.7E1,1.51E2,3.36E1,9.6E0,2.49E2,2.07E1,3.05E1,-1.0467019E-1,-1.9316715E-1,2.73727E-3,-1.0808688E-1,1.6609157E0,4.3781534E-1,1.06617644E-1,6.045852E-1,1.0772381E0,4.5095727E-1,7.717646E-1,-5.25938E-1,3.691002E-1,-1.1146573E0,1.3806541E0,4.4857025E-1],"split_indices":[0,0,7,0,5,1,1,4,6,8,5,3,8,1,5,0,0,0,0,0,0,0,0,0,0,0,0,0,0,0,0],"split_type":[0,0,0,0,0,0,0,0,0,0,0,0,0,0,0,0,0,0,0,0,0,0,0,0,0,0,0,0,0,0,0],"sum_hessian":[5.836E3,5.514E3,3.22E2,4.5E3,1.014E3,2.08E2,1.14E2,1.888E3,2.612E3,2.3E1,9.91E2,1.56E2,5.2E1,5.8E1,5.6E1,1.385E3,5.03E2,1.71E3,9.02E2,4E0,1.9E1,9.58E2,3.3E1,1.19E2,3.7E1,3.5E1,1.7E1,3.9E1,1.9E1,2.1E1,3.5E1],"tree_param":{"num_deleted":"0","num_feature":"9","num_nodes":"31","size_leaf_vector":"1"}},{"base_weights":[2.769173E-2,-1.0341977E0,7.937268E0,-2.0873191E0,2.5704026E-1,4.5496197E0,1.2311464E1,-3.635264E0,-1.7805094E0,1.5938907E0,-7.1314055E-1,6.2110753E0,-2.197133E0,1.8108067E1,9.632656E0,-3.06909E-1,-1.5972115E-1,-7.2378546E-2,-1.7001508E-1,2.3474978E-1,5.2257627E-2,8.189956E-2,-6.6199295E-2,5.650744E-1,2.3111363E-1,-2.6411727E-1,5.556457E-1,9.4996053E-1,-7.6281714E-1,-2.5708604E-1,5.793847E-1],"categories":[],"categories_nodes":[],"categories_segments":[],"categories_sizes":[],"default_left":[0,0,0,0,0,0,0,0,0,0,0,0,0,0,0,0,0,0,0,0,0,0,0,0,0,0,0,0,0,0,0],"id":46,"left_children":[1,3,5,7,9,11,13,15,17,19,21,23,25,27,29,-1,-1,-1,-1,-1,-1,-1,-1,-1,-1,-1,-1,-1,-1,-1,-1],"loss_changes":[4.9033727E4,6.9995825E3,1.0183391E4,1.3399385E3,3.0010667E3,4.3965347E3,4.499492E3,4.9677783E2,1.2721187E3,1.6508418E3,1.9280835E3,2.487287E3,3.2617192E3,3.084713E3,6.067547E3,0E0,0E0,0E0,0E0,0E0,0E0,0E0,0E0,0E0,0E0,0E0,0E0,0E0,0E0,0E0,0E0],"parents":[2147483647,0,0,1,1,2,2,3,3,4,4,5,5,6,6,7,7,8,8,9,9,10,10,11,11,12,12,13,13,14,14],"right_children":[2,4,6,8,10,12,14,16,18,20,22,24,26,28,30,-1,-1,-1,-1,-1,-1,-1,-1,-1,-1,-1,-1,-1,-1,-1,-1],"split_conditions":[8.36E1,4.29E1,1.353E2,2.53E1,8.8E0,1.26E1,7.3E0,1.76E1,8.4E1,2.21E1,6.1E1,4.9E1,1.74E1,9.1E1,1E2,-3.06909E-1,-1.5972115E-1,-7.2378546E-2,-1.7001508E-1,2.3474978E-1,5.2257627E-2,8.189956E-2,-6.6199295E-2,5.650744E-1,2.3111363E-1,-2.6411727E-1,5.556457E-1,9.4996053E-1,-7.6281714E-1,-2.5708604E-1,5.793847E-1],"split_indices":[0,0,0,0,7,7,3,0,6,1,8,2,7,6,4,0,0,0,0,0,0,0,0,0,0,0,0,0,0,0,0],"split_type":[0,0,0,0,0,0,0,0,0,0,0,0,0,0,0,0,0,0,0,0,0,0,0,0,0,0,0,0,0,0,0],"sum_hessian":[5.836E3,5.146E3,6.9E2,2.834E3,2.312E3,3.9E2,3E2,4.67E2,2.367E3,9.72E2,1.34E3,3.13E2,7.7E1,9.3E1,2.07E2,6.8E1,3.99E2,1.965E3,4.02E2,1.45E2,8.27E2,2.76E2,1.064E3,7.3E1,2.4E2,6.3E1,1.4E1,9.1E1,2E0,2.4E1,1.83E2],"tree_param":{"num_deleted":"0","num_feature":"9","num_nodes":"31","size_leaf_vector":"1"}},{"base_weights":[2.6511265E-2,-6.400722E-1,1.1407878E1,-1.3517042E0,2.5162785E0,1.4344651E1,5.971412E0,-2.138441E0,-4.749478E-1,1.3396138E1,2.2505195E0,1.7061277E1,6.026636E0,-2.9741325E0,1.5126074E1,-8.74867E-2,-1.6764902E-1,1.570848E-2,-1.0318362E-1,1.5849622E0,4.0752774E-1,9.64265E-2,5.633163E-1,9.8824424E-1,4.0372917E-1,7.0240754E-1,-5.1756024E-1,3.216823E-1,-1.0820491E0,1.2957667E0,4.0562344E-1],"categories":[],"categories_nodes":[],"categories_segments":[],"categories_sizes":[],"default_left":[0,0,0,0,0,0,0,0,0,0,0,0,0,0,0,0,0,0,0,0,0,0,0,0,0,0,0,0,0,0,0],"id":47,"left_children":[1,3,5,7,9,11,13,15,17,19,21,23,25,27,29,-1,-1,-1,-1,-1,-1,-1,-1,-1,-1,-1,-1,-1,-1,-1,-1],"loss_changes":[4.429047E4,1.2390976E4,5.071254E3,3.103668E3,2.904643E3,4.6199336E3,9.462732E3,1.1139551E3,2.6710083E3,2.0458848E3,2.858043E3,3.654957E3,7.1082954E3,1.0500432E4,4.103045E3,0E0,0E0,0E0,0E0,0E0,0E0,0E0,0E0,0E0,0E0,0E0,0E0,0E0,0E0,0E0,0E0],"parents":[2147483647,0,0,1,1,2,2,3,3,4,4,5,5,6,6,7,7,8,8,9,9,10,10,11,11,12,12,13,13,14,14],"right_children":[2,4,6,8,10,12,14,16,18,20,22,24,26,28,30,-1,-1,-1,-1,-1,-1,-1,-1,-1,-1,-1,-1,-1,-1,-1,-1],"split_conditions":[1.309E2,6.435E1,9.9E0,3.905E1,1.46E1,2.56E1,2.77E1,2.53E2,7.7E1,1.51E2,3.36E1,9.6E0,2.49E2,2.07E1,3.05E1,-8.74867E-2,-1.6764902E-1,1.570848E-2,-1.0318362E-1,1.5849622E0,4.0752774E-1,9.64265E-2,5.633163E-1,9.8824424E-1,4.0372917E-1,7.0240754E-1,-5.1756024E-1,3.216823E-1,-1.0820491E0,1.2957667E0,4.0562344E-1],"split_indices":[0,0,7,0,5,1,1,4,6,8,5,3,8,1,5,0,0,0,0,0,0,0,0,0,0,0,0,0,0,0,0],"split_type":[0,0,0,0,0,0,0,0,0,0,0,0,0,0,0,0,0,0,0,0,0,0,0,0,0,0,0,0,0,0,0],"sum_hessian":[5.836E3,5.514E3,3.22E2,4.5E3,1.014E3,2.08E2,1.14E2,2.371E3,2.129E3,2.3E1,9.91E2,1.56E2,5.2E1,5.8E1,5.6E1,1.798E3,5.73E2,1.423E3,7.06E2,4E0,1.9E1,9.58E2,3.3E1,1.19E2,3.7E1,3.5E1,1.7E1,3.9E1,1.9E1,2.1E1,3.5E1],"tree_param":{"num_deleted":"0","num_feature":"9","num_nodes":"31","size_leaf_vector":"1"}},{"base_weights":[2.6012069E-2,-9.366782E-1,7.196693E0,-1.7376537E0,4.6788576E-1,5.4089255E0,1.4257403E1,1.1978452E-1,-2.0017493E0,-8.695485E-2,2.7715545E0,1.064225E1,3.9494605E0,1.2117949E1,2.3528599E1,-2.0058643E-2,2.6841804E-1,-9.081222E-2,-2.4240743E-1,4.5499492E-2,-1.4021687E-1,1.1596527E-1,5.6554073E-1,-9.582257E-1,5.6549305E-1,7.88681E-1,1.5319227E-1,7.975209E-1,3.638039E-2,3.2760438E-1,1.3225108E0],"categories":[],"categories_nodes":[],"categories_segments":[],"categories_sizes":[],"default_left":[0,0,0,0,0,0,0,0,0,0,0,0,0,0,0,0,0,0,0,0,0,0,0,0,0,0,0,0,0,0,0],"id":48,"left_children":[1,3,5,7,9,11,13,15,17,19,21,23,25,27,29,-1,-1,-1,-1,-1,-1,-1,-1,-1,-1,-1,-1,-1,-1,-1,-1],"loss_changes":[4.0300395E4,5.791298E3,8.6453125E3,1.6082344E3,2.390417E3,4.181701E3,2.4719883E3,1.1204761E3,1.5066152E3,4.0878445E3,1.3756267E3,2.604666E3,4.4963716E3,5.008504E3,1.066667E3,0E0,0E0,0E0,0E0,0E0,0E0,0E0,0E0,0E0,0E0,0E0,0E0,0E0,0E0,0E0,0E0],"parents":[2147483647,0,0,1,1,2,2,3,3,4,4,5,5,6,6,7,7,8,8,9,9,10,10,11,11,12,12,13,13,14,14],"right_children":[2,4,6,8,10,12,14,16,18,20,22,24,26,28,30,-1,-1,-1,-1,-1,-1,-1,-1,-1,-1,-1,-1,-1,-1,-1,-1],"split_conditions":[8.36E1,4.73E1,1.804E2,5.6E1,2.53E2,2E1,2.31E2,5.3E1,8.8E1,1.12E1,8.085E1,1.2E1,3E1,1.03E1,1.06E2,-2.0058643E-2,2.6841804E-1,-9.081222E-2,-2.4240743E-1,4.5499492E-2,-1.4021687E-1,1.1596527E-1,5.6554073E-1,-9.582257E-1,5.6549305E-1,7.88681E-1,1.5319227E-1,7.975209E-1,3.638039E-2,3.2760438E-1,1.3225108E0],"split_indices":[0,0,0,8,4,5,0,8,6,3,0,4,2,7,8,0,0,0,0,0,0,0,0,0,0,0,0,0,0,0,0],"split_type":[0,0,0,0,0,0,0,0,0,0,0,0,0,0,0,0,0,0,0,0,0,0,0,0,0,0,0,0,0,0,0],"sum_hessian":[5.836E3,5.146E3,6.9E2,3.277E3,1.869E3,5.52E2,1.38E2,4.08E2,2.869E3,1.507E3,3.62E2,1.19E2,4.33E2,1.14E2,2.4E1,3.72E2,3.6E1,2.695E3,1.74E2,1.103E3,4.04E2,3.45E2,1.7E1,2E0,1.17E2,2.9E1,4.04E2,8.5E1,2.9E1,4E0,2E1],"tree_param":{"num_deleted":"0","num_feature":"9","num_nodes":"31","size_leaf_vector":"1"}},{"base_weights":[2.531749E-2,-5.7975143E-1,1.0356369E1,-1.1518942E0,2.6649368E0,1.7499758E1,8.382839E0,-1.8188931E0,-1.796178E-1,3.4495523E0,-2.4806888E0,1.8699438E1,-1.5126317E1,-2.7557807E0,9.936647E0,-1.9897069E-1,-8.1265375E-2,1.5018909E-1,-2.9909063E-2,8.02896E-1,1.5604393E-1,-2.772132E-1,2.5800166E-1,1.3822063E0,8.122625E-1,-1.0968277E0,-3.7646104E-2,4.4347095E-1,-5.087186E-1,2.4973254E-1,7.4170244E-1],"categories":[],"categories_nodes":[],"categories_segments":[],"categories_sizes":[],"default_left":[0,0,0,0,0,0,0,0,0,0,0,0,0,0,0,0,0,0,0,0,0,0,0,0,0,0,0,0,0,0,0],"id":49,"left_children":[1,3,5,7,9,11,13,15,17,19,21,23,25,27,29,-1,-1,-1,-1,-1,-1,-1,-1,-1,-1,-1,-1,-1,-1,-1,-1],"loss_changes":[3.6493082E4,1.0241253E4,4.4068555E3,3.0405234E3,3.3474355E3,2.9835684E3,4.4407363E3,1.1566738E3,2.545453E3,2.9253037E3,2.60348E3,1.02169727E3,2.7714215E2,2.850004E3,5.347369E3,0E0,0E0,0E0,0E0,0E0,0E0,0E0,0E0,0E0,0E0,0E0,0E0,0E0,0E0,0E0,0E0],"parents":[2147483647,0,0,1,1,2,2,3,3,4,4,5,5,6,6,7,7,8,8,9,9,10,10,11,11,12,12,13,13,14,14],"right_children":[2,4,6,8,10,12,14,16,18,20,22,24,26,28,30,-1,-1,-1,-1,-1,-1,-1,-1,-1,-1,-1,-1,-1,-1,-1,-1],"split_conditions":[1.309E2,6.82E1,6.7E0,4.235E1,1.39E1,9.1E1,1E2,2.2E1,4.7E1,1.38E1,1.86E1,5.8E0,1.5675E2,4.8E1,6.7E1,-1.9897069E-1,-8.1265375E-2,1.5018909E-1,-2.9909063E-2,8.02896E-1,1.5604393E-1,-2.772132E-1,2.5800166E-1,1.3822063E0,8.122625E-1,-1.0968277E0,-3.7646104E-2,4.4347095E-1,-5.087186E-1,2.4973254E-1,7.4170244E-1],"split_indices":[0,0,3,0,3,6,4,0,8,5,7,7,0,2,6,0,0,0,0,0,0,0,0,0,0,0,0,0,0,0,0],"split_type":[0,0,0,0,0,0,0,0,0,0,0,0,0,0,0,0,0,0,0,0,0,0,0,0,0,0,0,0,0,0,0],"sum_hessian":[5.836E3,5.514E3,3.22E2,4.688E3,8.26E2,6.8E1,2.54E2,2.78E3,1.908E3,7.17E2,1.09E2,6.6E1,2E0,3.1E1,2.23E2,2.27E2,2.553E3,2.21E2,1.687E3,1.7E1,7E2,7.8E1,3.1E1,1.2E1,5.4E1,1E0,1E0,1.2E1,1.9E1,1.12E2,1.11E2],"tree_param":{"num_deleted":"0","num_feature":"9","num_nodes":"31","size_leaf_vector":"1"}},{"base_weights":[2.4524825E-2,-8.4841037E-1,6.526656E0,-1.5271595E0,5.0958234E-1,1.5491849E1,5.3274627E0,-1.3400816E0,-4.089915E0,2.0006115E0,-3.637529E-1,2.3261908E1,1.0711203E1,6.103085E0,-5.059902E0,-5.5320403E-3,-8.604985E-2,-1.1076134E-1,-2.556237E-1,1.839872E-1,1.5493551E-2,-6.3278235E-2,1.4130916E-1,2.5177118E-1,1.2936157E0,-1.5568252E0,6.5039206E-1,2.788722E-1,1.3271314E0,-6.407484E-1,1.12040244E-1],"categories":[],"categories_nodes":[],"categories_segments":[],"categories_sizes":[],"default_left":[0,0,0,0,0,0,0,0,0,0,0,0,0,0,0,0,0,0,0,0,0,0,0,0,0,0,0,0,0,0,0],"id":50,"left_children":[1,3,5,7,9,11,13,15,17,19,21,23,25,27,29,-1,-1,-1,-1,-1,-1,-1,-1,-1,-1,-1,-1,-1,-1,-1,-1],"loss_changes":[3.3135996E4,4.7449556E3,7.34641E3,1.639939E3,2.2352485E3,2.7596543E3,4.953508E3,1.4984106E3,4.3533105E2,1.7987717E3,3.1190664E3,1.2970771E3,5.402689E3,5.9652227E3,2.4632666E3,0E0,0E0,0E0,0E0,0E0,0E0,0E0,0E0,0E0,0E0,0E0,0E0,0E0,0E0,0E0,0E0],"parents":[2147483647,0,0,1,1,2,2,3,3,4,4,5,5,6,6,7,7,8,8,9,9,10,10,11,11,12,12,13,13,14,14],"right_children":[2,4,6,8,10,12,14,16,18,20,22,24,26,28,30,-1,-1,-1,-1,-1,-1,-1,-1,-1,-1,-1,-1,-1,-1,-1,-1],"split_conditions":[8.36E1,4.895E1,1.38E1,8.8E1,2.5E1,7.8E0,8.4E1,1.06E2,9.8E0,9.6E1,2.53E2,1.265E2,8E0,2.31E2,8.4E1,-5.5320403E-3,-8.604985E-2,-1.1076134E-1,-2.556237E-1,1.839872E-1,1.5493551E-2,-6.3278235E-2,1.4130916E-1,2.5177118E-1,1.2936157E0,-1.5568252E0,6.5039206E-1,2.788722E-1,1.3271314E0,-6.407484E-1,1.12040244E-1],"split_indices":[0,0,1,6,5,7,6,8,7,8,4,0,7,0,2,0,0,0,0,0,0,0,0,0,0,0,0,0,0,0,0],"split_type":[0,0,0,0,0,0,0,0,0,0,0,0,0,0,0,0,0,0,0,0,0,0,0,0,0,0,0,0,0,0,0],"sum_hessian":[5.836E3,5.146E3,6.9E2,3.431E3,1.715E3,8E1,6.1E2,3.199E3,2.32E2,6.33E2,1.082E3,2.9E1,5.1E1,5.68E2,4.2E1,7.57E2,2.442E3,8.3E1,1.49E2,3.17E2,3.16E2,8.44E2,2.38E2,4E0,2.5E1,2E0,4.9E1,5.55E2,1.3E1,2E1,2.2E1],"tree_param":{"num_deleted":"0","num_feature":"9","num_nodes":"31","size_leaf_vector":"1"}},{"base_weights":[2.3561113E-2,-5.2842295E-1,9.448232E0,-1.210461E0,1.6950605E0,1.2070653E1,4.6001062E0,1.0210165E1,-1.2536182E0,8.080248E-1,4.1743097E0,1.4486251E1,4.6872673E0,-3.93762E0,1.3356698E1,1.16666615E-1,1.6628666E0,1.136228E-2,-7.885703E-2,2.2882717E-2,4.8697463E-1,1.058832E0,1.9032882E-1,8.489651E-1,3.116122E-1,6.1187917E-1,-5.336884E-1,2.3624091E-1,-1.0532807E0,1.18254E0,3.3474192E-1],"categories":[],"categories_nodes":[],"categories_segments":[],"categories_sizes":[],"default_left":[0,0,0,0,0,0,0,0,0,0,0,0,0,0,0,0,0,0,0,0,0,0,0,0,0,0,0,0,0,0,0],"id":51,"left_children":[1,3,5,7,9,11,13,15,17,19,21,23,25,27,29,-1,-1,-1,-1,-1,-1,-1,-1,-1,-1,-1,-1,-1,-1,-1,-1],"loss_changes":[3.0370627E4,8.365551E3,4.051039E3,2.0932598E3,2.8445686E3,3.6596758E3,8.650152E3,2.8270186E3,2.0154204E3,2.9840457E3,2.0514307E3,3.124871E3,6.277596E3,8.853373E3,3.7506006E3,0E0,0E0,0E0,0E0,0E0,0E0,0E0,0E0,0E0,0E0,0E0,0E0,0E0,0E0,0E0,0E0],"parents":[2147483647,0,0,1,1,2,2,3,3,4,4,5,5,6,6,7,7,8,8,9,9,10,10,11,11,12,12,13,13,14,14],"right_children":[2,4,6,8,