{"learner":{"attributes":{"scikit_learn":"{\"_estimator_type\": \"regressor\"}"},"feature_names":["SO2","temperature","precipitation","wind_speed","surface pressure","temperature_t+1","precipitation_t+1","wind_speed_t+1","surface pressure_t+1"],"feature_types":["float","float","float","float","float","float","float","float","float"],"gradient_booster":{"model":{"gbtree_model_param":{"num_parallel_tree":"1","num_trees":"100"},"iteration_indptr":[0,1,2,3,4,5,6,7,8,9,10,11,12,13,14,15,16,17,18,19,20,21,22,23,24,25,26,27,28,29,30,31,32,33,34,35,36,37,38,39,40,41,42,43,44,45,46,47,48,49,50,51,52,53,54,55,56,57,58,59,60,61,62,63,64,65,66,67,68,69,70,71,72,73,74,75,76,77,78,79,80,81,82,83,84,85,86,87,88,89,90,91,92,93,94,95,96,97,98,99,100],"tree_info":[0,0,0,0,0,0,0,0,0,0,0,0,0,0,0,0,0,0,0,0,0,0,0,0,0,0,0,0,0,0,0,0,0,0,0,0,0,0,0,0,0,0,0,0,0,0,0,0,0,0,0,0,0,0,0,0,0,0,0,0,0,0,0,0,0,0,0,0,0,0,0,0,0,0,0,0,0,0,0,0,0,0,0,0,0,0,0,0,0,0,0,0,0,0,0,0,0,0,0,0],"trees":[{"base_weights":[-3.2356631E-6,-1.73141E1,2.0338394E2,-3.557809E1,2.4874456E1,1.3886676E2,2.6673633E2,-4.7800755E1,-1.9734837E1,1.1047364E1,5.6081043E1,1.4392091E2,4.381922E1,2.2537761E2,1.6208841E1,-3.0748136E0,-2.1330297E0,-1.38352E0,-6.177443E-1,1.5471295E-1,9.9757093E-1,2.122136E0,3.5672386E0,6.5047584E0,8.5259495E0,7.011299E-1,3.8122425E0,1.1726104E1,7.812118E0],"categories":[],"categories_nodes":[],"categories_segments":[],"categories_sizes":[],"default_left":[0,0,0,0,0,0,0,0,0,0,0,0,0,0,0,0,0,0,0,0,0,0,0,0,0,0,0,0,0],"id":0,"left_children":[1,3,5,7,9,11,13,15,17,19,21,23,25,27,-1,-1,-1,-1,-1,-1,-1,-1,-1,-1,-1,-1,-1,-1,-1],"loss_changes":[2.0557986E7,4.146344E6,1.834952E6,7.262E5,7.009936E5,1.037015E5,4.73341E5,1.46548E5,9.55275E4,7.981742E4,1.008495E5,5.76155E4,1.1491119E4,4.997E4,0E0,0E0,0E0,0E0,0E0,0E0,0E0,0E0,0E0,0E0,0E0,0E0,0E0,0E0,0E0],"parents":[2147483647,0,0,1,1,2,2,3,3,4,4,5,5,6,6,7,7,8,8,9,9,10,10,11,11,12,12,13,13],"right_children":[2,4,6,8,10,12,14,16,18,20,22,24,26,28,-1,-1,-1,-1,-1,-1,-1,-1,-1,-1,-1,-1,-1,-1,-1],"split_conditions":[2.1318E2,1.0944E2,3.1236E2,7.752E1,1.5276E2,1.008E3,4.0926E2,5.472E1,9.006E1,1.2768E2,1.7328E2,2.8044E2,1.0106E3,1.23E1,1.6208841E1,-3.0748136E0,-2.1330297E0,-1.38352E0,-6.177443E-1,1.5471295E-1,9.9757093E-1,2.122136E0,3.5672386E0,6.5047584E0,8.5259495E0,7.011299E-1,3.8122425E0,1.1726104E1,7.812118E0],"split_indices":[0,0,0,0,0,4,0,0,0,0,0,0,8,3,0,0,0,0,0,0,0,0,0,0,0,0,0,0,0],"split_type":[0,0,0,0,0,0,0,0,0,0,0,0,0,0,0,0,0,0,0,0,0,0,0,0,0,0,0,0,0],"sum_hessian":[5.836E3,5.379E3,4.57E2,3.754E3,1.625E3,2.28E2,2.29E2,2.118E3,1.636E3,1.127E3,4.98E2,2.16E2,1.2E1,1.36E2,9.3E1,5.75E2,1.543E3,7.87E2,8.49E2,5.96E2,5.31E2,2.65E2,2.33E2,1.46E2,7E1,7E0,5E0,1.18E2,1.8E1],"tree_param":{"num_deleted":"0","num_feature":"9","num_nodes":"29","size_leaf_vector":"1"}},{"base_weights":[9.404968E-3,-1.6448465E1,1.9333546E2,-3.4508503E1,2.2067463E1,1.3200876E2,2.5355493E2,-4.6409653E1,-2.0647953E1,9.279502E0,5.328839E1,1.3679413E2,4.197545E1,2.1425134E2,1.5407021E1,-3.022028E0,-2.1004934E0,-1.3944144E0,-6.529779E-1,8.973513E-2,9.47786E-1,2.016428E0,3.389639E0,6.1817336E0,8.105656E0,6.7045563E-1,3.6533992E0,1.07920885E1,-5.115738E-2],"categories":[],"categories_nodes":[],"categories_segments":[],"categories_sizes":[],"default_left":[0,0,0,0,0,0,0,0,0,0,0,0,0,0,0,0,0,0,0,0,0,0,0,0,0,0,0,0,0],"id":1,"left_children":[1,3,5,7,9,11,13,15,17,19,21,23,25,27,-1,-1,-1,-1,-1,-1,-1,-1,-1,-1,-1,-1,-1,-1,-1],"loss_changes":[1.8574968E7,3.7430845E6,1.65795E6,6.032775E5,6.854204E5,9.292075E4,4.27425E5,1.190745E5,9.270844E4,8.8323914E4,9.1065375E4,5.22585E4,1.0566822E4,4.71265E4,0E0,0E0,0E0,0E0,0E0,0E0,0E0,0E0,0E0,0E0,0E0,0E0,0E0,0E0,0E0],"parents":[2147483647,0,0,1,1,2,2,3,3,4,4,5,5,6,6,7,7,8,8,9,9,10,10,11,11,12,12,13,13],"right_children":[2,4,6,8,10,12,14,16,18,20,22,24,26,28,-1,-1,-1,-1,-1,-1,-1,-1,-1,-1,-1,-1,-1,-1,-1],"split_conditions":[2.1318E2,1.0716E2,3.1236E2,7.524E1,1.5276E2,1.008E3,4.0926E2,5.244E1,8.892E1,1.2768E2,1.7328E2,2.8044E2,1.0106E3,1.65E1,1.5407021E1,-3.022028E0,-2.1004934E0,-1.3944144E0,-6.529779E-1,8.973513E-2,9.47786E-1,2.016428E0,3.389639E0,6.1817336E0,8.105656E0,6.7045563E-1,3.6533992E0,1.07920885E1,-5.115738E-2],"split_indices":[0,0,0,0,0,4,0,0,0,0,0,0,8,3,0,0,0,0,0,0,0,0,0,0,0,0,0,0,0],"split_type":[0,0,0,0,0,0,0,0,0,0,0,0,0,0,0,0,0,0,0,0,0,0,0,0,0,0,0,0,0],"sum_hessian":[5.836E3,5.379E3,4.57E2,3.662E3,1.717E3,2.28E2,2.29E2,1.969E3,1.693E3,1.219E3,4.98E2,2.16E2,1.2E1,1.36E2,9.3E1,4.67E2,1.502E3,8.65E2,8.28E2,6.88E2,5.31E2,2.65E2,2.33E2,1.46E2,7E1,7E0,5E0,1.35E2,1E0],"tree_param":{"num_deleted":"0","num_feature":"9","num_nodes":"29","size_leaf_vector":"1"}},{"base_weights":[1.647917E-2,-1.5626177E1,1.8376642E2,-3.1095589E1,2.5007196E1,1.4520578E2,2.7121707E2,-4.316023E1,-1.6707693E1,1.3550914E1,5.45837E1,1.1241512E2,1.7609975E2,2.2101793E2,1.4644866E1,-2.8712494E0,-1.9546499E0,-1.2306131E0,-4.8685166E-1,3.380011E-1,1.115976E0,3.0783997E0,1.5076203E0,5.8747497E0,2.0409434E0,8.985415E0,3.5003726E0,1.2073167E1,4.685966E0],"categories":[],"categories_nodes":[],"categories_segments":[],"categories_sizes":[],"default_left":[0,0,0,0,0,0,0,0,0,0,0,0,0,0,0,0,0,0,0,0,0,0,0,0,0,0,0,0,0],"id":2,"left_children":[1,3,5,7,9,11,13,15,17,19,21,23,25,27,-1,-1,-1,-1,-1,-1,-1,-1,-1,-1,-1,-1,-1,-1,-1],"loss_changes":[1.6780376E7,3.382508E6,1.505064E6,6.757385E5,5.0209406E5,3.043745E5,8.6543E4,1.2069525E5,9.7783375E4,6.3623594E4,6.8786625E4,5.2668375E4,4.98225E4,9.709325E4,0E0,0E0,0E0,0E0,0E0,0E0,0E0,0E0,0E0,0E0,0E0,0E0,0E0,0E0,0E0],"parents":[2147483647,0,0,1,1,2,2,3,3,4,4,5,5,6,6,7,7,8,8,9,9,10,10,11,11,12,12,13,13],"right_children":[2,4,6,8,10,12,14,16,18,20,22,24,26,28,-1,-1,-1,-1,-1,-1,-1,-1,-1,-1,-1,-1,-1,-1,-1],"split_conditions":[2.1318E2,1.1286E2,3.7392E2,7.752E1,1.5846E2,2.8044E2,4.0926E2,5.244E1,9.12E1,1.3338E2,9.944E2,1.008E3,5.6E0,1.23E1,1.4644866E1,-2.8712494E0,-1.9546499E0,-1.2306131E0,-4.8685166E-1,3.380011E-1,1.115976E0,3.0783997E0,1.5076203E0,5.8747497E0,2.0409434E0,8.985415E0,3.5003726E0,1.2073167E1,4.685966E0],"split_indices":[0,0,0,0,0,0,0,0,0,0,4,4,6,3,0,0,0,0,0,0,0,0,0,0,0,0,0,0,0],"split_type":[0,0,0,0,0,0,0,0,0,0,0,0,0,0,0,0,0,0,0,0,0,0,0,0,0,0,0,0,0],"sum_hessian":[5.836E3,5.379E3,4.57E2,3.896E3,1.483E3,3.19E2,1.38E2,2.118E3,1.778E3,1.07E3,4.13E2,1.57E2,1.62E2,4.5E1,9.3E1,4.67E2,1.651E3,8.32E2,9.46E2,6.04E2,4.66E2,3.2E2,9.3E1,1.46E2,1.1E1,1.56E2,6E0,3.8E1,7E0],"tree_param":{"num_deleted":"0","num_feature":"9","num_nodes":"29","size_leaf_vector":"1"}},{"base_weights":[2.4445308E-2,-1.5319551E1,1.6937782E2,-3.2787205E1,1.5879363E1,1.14767975E2,2.2942453E2,-4.4632797E1,-2.2868786E1,5.936039E0,4.6413013E1,1.20922356E2,3.6100117E1,1.9414066E2,1.3920412E1,-2.9408817E0,-2.0704935E0,-1.3978573E0,-7.424185E-1,-1.8359916E-1,6.7826194E-1,1.6515299E0,2.8238192E0,6.484783E0,4.275812E0,2.4991286E0,-7.771878E-1,1.011947E1,6.612977E0],"categories":[],"categories_nodes":[],"categories_segments":[],"categories_sizes":[],"default_left":[0,0,0,0,0,0,0,0,0,0,0,0,0,0,0,0,0,0,0,0,0,0,0,0,0,0,0,0,0],"id":3,"left_children":[1,3,5,7,9,11,13,15,17,19,21,23,25,27,-1,-1,-1,-1,-1,-1,-1,-1,-1,-1,-1,-1,-1,-1,-1],"loss_changes":[1.5170376E7,2.917755E6,1.564053E6,4.022035E5,5.832551E5,1.195775E5,3.43467E5,6.901975E4,7.590106E4,1.0641031E5,6.1699875E4,6.2528E4,1.5115789E4,4.31625E4,0E0,0E0,0E0,0E0,0E0,0E0,0E0,0E0,0E0,0E0,0E0,0E0,0E0,0E0,0E0],"parents":[2147483647,0,0,1,1,2,2,3,3,4,4,5,5,6,6,7,7,8,8,9,9,10,10,11,11,12,12,13,13],"right_children":[2,4,6,8,10,12,14,16,18,20,22,24,26,28,-1,-1,-1,-1,-1,-1,-1,-1,-1,-1,-1,-1,-1,-1,-1],"split_conditions":[2.0862E2,1.0146E2,3.1236E2,6.954E1,1.5276E2,1.0075E3,4.0926E2,4.788E1,8.664E1,1.1856E2,1.6872E2,2E-1,1.45E1,1.23E1,1.3920412E1,-2.9408817E0,-2.0704935E0,-1.3978573E0,-7.424185E-1,-1.8359916E-1,6.7826194E-1,1.6515299E0,2.8238192E0,6.484783E0,4.275812E0,2.4991286E0,-7.771878E-1,1.011947E1,6.612977E0],"split_indices":[0,0,0,0,0,4,0,0,0,0,0,2,3,3,0,0,0,0,0,0,0,0,0,0,0,0,0,0,0],"split_type":[0,0,0,0,0,0,0,0,0,0,0,0,0,0,0,0,0,0,0,0,0,0,0,0,0,0,0,0,0],"sum_hessian":[5.836E3,5.352E3,4.84E2,3.431E3,1.921E3,2.55E2,2.29E2,1.562E3,1.869E3,1.45E3,4.71E2,2.36E2,1.9E1,1.36E2,9.3E1,2.86E2,1.276E3,1.142E3,7.27E2,6.42E2,8.08E2,2.04E2,2.67E2,1.87E2,4.9E1,1.5E1,4E0,1.18E2,1.8E1],"tree_param":{"num_deleted":"0","num_feature":"9","num_nodes":"29","size_leaf_vector":"1"}},{"base_weights":[3.0239517E-2,-1.4108669E1,1.6611604E2,-2.9016407E1,2.0327162E1,1.31128E2,2.4546898E2,-3.9863987E1,-1.7035025E1,9.0718775E0,4.5729233E1,1.01227E2,1.5930733E2,2.0096547E2,1.3231796E1,-2.5194664E0,-1.7744732E0,-1.1921932E0,-5.3071487E-1,1.24619044E-1,8.219104E-1,1.809668E0,3.0722907E0,5.287126E0,1.8738106E0,8.132426E0,3.080539E0,1.0991987E1,4.191638E0],"categories":[],"categories_nodes":[],"categories_segments":[],"categories_sizes":[],"default_left":[0,0,0,0,0,0,0,0,0,0,0,0,0,0,0,0,0,0,0,0,0,0,0,0,0,0,0,0,0],"id":4,"left_children":[1,3,5,7,9,11,13,15,17,19,21,23,25,27,-1,-1,-1,-1,-1,-1,-1,-1,-1,-1,-1,-1,-1,-1,-1],"loss_changes":[1.3709209E7,2.7624685E6,1.239405E6,4.873545E5,4.6447088E5,2.53503E5,6.5383E4,8.891725E4,7.782669E4,5.4629523E4,7.256194E4,4.15205E4,4.3186E4,8.3266875E4,0E0,0E0,0E0,0E0,0E0,0E0,0E0,0E0,0E0,0E0,0E0,0E0,0E0,0E0,0E0],"parents":[2147483647,0,0,1,1,2,2,3,3,4,4,5,5,6,6,7,7,8,8,9,9,10,10,11,11,12,12,13,13],"right_children":[2,4,6,8,10,12,14,16,18,20,22,24,26,28,-1,-1,-1,-1,-1,-1,-1,-1,-1,-1,-1,-1,-1,-1,-1],"split_conditions":[2.1318E2,1.0944E2,3.7392E2,7.524E1,1.5276E2,2.8044E2,4.0926E2,5.472E1,8.892E1,1.2768E2,1.7898E2,1.008E3,5.6E0,1.23E1,1.3231796E1,-2.5194664E0,-1.7744732E0,-1.1921932E0,-5.3071487E-1,1.24619044E-1,8.219104E-1,1.809668E0,3.0722907E0,5.287126E0,1.8738106E0,8.132426E0,3.080539E0,1.0991987E1,4.191638E0],"split_indices":[0,0,0,0,0,0,0,0,0,0,0,4,6,3,0,0,0,0,0,0,0,0,0,0,0,0,0,0,0],"split_type":[0,0,0,0,0,0,0,0,0,0,0,0,0,0,0,0,0,0,0,0,0,0,0,0,0,0,0,0,0],"sum_hessian":[5.836E3,5.379E3,4.57E2,3.754E3,1.625E3,3.19E2,1.38E2,1.969E3,1.785E3,1.127E3,4.98E2,1.57E2,1.62E2,4.5E1,9.3E1,5.75E2,1.394E3,8.65E2,9.2E2,5.96E2,5.31E2,3.12E2,1.86E2,1.46E2,1.1E1,1.56E2,6E0,3.8E1,7E0],"tree_param":{"num_deleted":"0","num_feature":"9","num_nodes":"29","size_leaf_vector":"1"}},{"base_weights":[3.6711957E-2,-1.3829527E1,1.5307988E2,-2.9614267E1,1.436353E1,1.03481926E2,2.07619E2,-4.0356953E1,-2.0619383E1,5.405752E0,4.1870678E1,1.1140634E2,5.026185E1,1.7596461E2,1.2577245E1,-2.6688156E0,-1.8699654E0,-1.2393941E0,-6.397099E-1,-2.5268888E-2,7.808923E-1,1.4793142E0,2.5555544E0,5.969721E0,3.768854E0,9.276102E-1,3.4078043E0,8.869353E0,-4.3714294E-1],"categories":[],"categories_nodes":[],"categories_segments":[],"categories_sizes":[],"default_left":[0,0,0,0,0,0,0,0,0,0,0,0,0,0,0,0,0,0,0,0,0,0,0,0,0,0,0,0,0],"id":5,"left_children":[1,3,5,7,9,11,13,15,17,19,21,23,25,27,-1,-1,-1,-1,-1,-1,-1,-1,-1,-1,-1,-1,-1,-1,-1],"loss_changes":[1.2389008E7,2.3826175E6,1.290454E6,3.307995E5,4.7336012E5,1.0236525E5,2.7554E5,5.818975E4,6.0680875E4,8.759753E4,5.2065812E4,5.489325E4,1.8595234E4,3.75455E4,0E0,0E0,0E0,0E0,0E0,0E0,0E0,0E0,0E0,0E0,0E0,0E0,0E0,0E0,0E0],"parents":[2147483647,0,0,1,1,2,2,3,3,4,4,5,5,6,6,7,7,8,8,9,9,10,10,11,11,12,12,13,13],"right_children":[2,4,6,8,10,12,14,16,18,20,22,24,26,28,-1,-1,-1,-1,-1,-1,-1,-1,-1,-1,-1,-1,-1,-1,-1],"split_conditions":[2.0862E2,1.0146E2,3.1236E2,6.954E1,1.5276E2,1.0023E3,4.0926E2,4.788E1,8.778E1,1.2768E2,1.6872E2,2E-1,2.3142E2,1.65E1,1.2577245E1,-2.6688156E0,-1.8699654E0,-1.2393941E0,-6.397099E-1,-2.5268888E-2,7.808923E-1,1.4793142E0,2.5555544E0,5.969721E0,3.768854E0,9.276102E-1,3.4078043E0,8.869353E0,-4.3714294E-1],"split_indices":[0,0,0,0,0,4,0,0,0,0,0,2,0,3,0,0,0,0,0,0,0,0,0,0,0,0,0,0,0],"split_type":[0,0,0,0,0,0,0,0,0,0,0,0,0,0,0,0,0,0,0,0,0,0,0,0,0,0,0,0,0],"sum_hessian":[5.836E3,5.352E3,4.84E2,3.431E3,1.921E3,2.55E2,2.29E2,1.562E3,1.869E3,1.45E3,4.71E2,2.21E2,3.4E1,1.36E2,9.3E1,2.86E2,1.276E3,1.218E3,6.51E2,9.19E2,5.31E2,2.04E2,2.67E2,1.79E2,4.2E1,1.3E1,2.1E1,1.35E2,1E0],"tree_param":{"num_deleted":"0","num_feature":"9","num_nodes":"29","size_leaf_vector":"1"}},{"base_weights":[4.0607695E-2,-1.2736801E1,1.5013322E2,-2.5381397E1,2.0476627E1,1.1836851E2,2.2218054E2,-3.5247696E1,-1.36152E1,1.1164484E1,4.4517273E1,9.113441E1,1.4404102E2,1.8277304E2,2.3910144E2,-2.0661879E0,-1.410528E0,-9.9831706E-1,-4.007117E-1,3.5688588E-1,1.0768741E0,2.553684E0,1.0827137E0,4.761966E0,1.662739E0,7.356862E0,2.7009878E0,9.942451E0,3.2399995E0,1.2338193E1,8.884513E0],"categories":[],"categories_nodes":[],"categories_segments":[],"categories_sizes":[],"default_left":[0,0,0,0,0,0,0,0,0,0,0,0,0,0,0,0,0,0,0,0,0,0,0,0,0,0,0,0,0,0,0],"id":6,"left_children":[1,3,5,7,9,11,13,15,17,19,21,23,25,27,29,-1,-1,-1,-1,-1,-1,-1,-1,-1,-1,-1,-1,-1,-1,-1,-1],"loss_changes":[1.119608E7,2.2599605E6,1.021862E6,4.51918E5,3.31726E5,2.10607E5,4.8985E4,8.943875E4,6.312353E4,4.4581562E4,6.0952188E4,3.437225E4,3.7484E4,7.4354875E4,3.85E2,0E0,0E0,0E0,0E0,0E0,0E0,0E0,0E0,0E0,0E0,0E0,0E0,0E0,0E0,0E0,0E0],"parents":[2147483647,0,0,1,1,2,2,3,3,4,4,5,5,6,6,7,7,8,8,9,9,10,10,11,11,12,12,13,13,14,14],"right_children":[2,4,6,8,10,12,14,16,18,20,22,24,26,28,30,-1,-1,-1,-1,-1,-1,-1,-1,-1,-1,-1,-1,-1,-1,-1,-1],"split_conditions":[2.1318E2,1.1286E2,3.7392E2,7.752E1,1.5846E2,2.8044E2,4.0926E2,6.384E1,9.12E1,1.4022E2,9.944E2,1.008E3,5.6E0,1.31E1,9E-1,-2.0661879E0,-1.410528E0,-9.9831706E-1,-4.007117E-1,3.5688588E-1,1.0768741E0,2.553684E0,1.0827137E0,4.761966E0,1.662739E0,7.356862E0,2.7009878E0,9.942451E0,3.2399995E0,1.2338193E1,8.884513E0],"split_indices":[0,0,0,0,0,0,0,0,0,0,4,4,6,3,2,0,0,0,0,0,0,0,0,0,0,0,0,0,0,0,0],"split_type":[0,0,0,0,0,0,0,0,0,0,0,0,0,0,0,0,0,0,0,0,0,0,0,0,0,0,0,0,0,0,0],"sum_hessian":[5.836E3,5.379E3,4.57E2,3.896E3,1.483E3,3.19E2,1.38E2,2.118E3,1.778E3,1.07E3,4.13E2,1.57E2,1.62E2,4.5E1,9.3E1,1.134E3,9.84E2,8.32E2,9.46E2,7.72E2,2.98E2,3.2E2,9.3E1,1.46E2,1.1E1,1.56E2,6E0,3.9E1,6E0,8E1,1.3E1],"tree_param":{"num_deleted":"0","num_feature":"9","num_nodes":"31","size_leaf_vector":"1"}},{"base_weights":[4.7328115E-2,-1.3088045E1,1.3214731E2,-2.6750122E1,1.187275E1,8.882249E1,1.87895E2,-3.6456688E1,-1.862279E1,2.681723E0,3.0442587E1,6.823001E1,1.0604939E2,1.59437E2,1.13686075E1,-2.4801898E0,-1.6933855E0,-1.1362876E0,-6.077666E-1,-1.5335624E-1,4.339098E-1,1.1511854E0,2.1715233E0,3.7955155E0,9.368359E-1,5.9551945E0,3.0329878E0,8.331269E0,5.301183E0],"categories":[],"categories_nodes":[],"categories_segments":[],"categories_sizes":[],"default_left":[0,0,0,0,0,0,0,0,0,0,0,0,0,0,0,0,0,0,0,0,0,0,0,0,0,0,0,0,0],"id":7,"left_children":[1,3,5,7,9,11,13,15,17,19,21,23,25,27,-1,-1,-1,-1,-1,-1,-1,-1,-1,-1,-1,-1,-1,-1,-1],"loss_changes":[1.012999E7,1.8111142E6,1.258568E6,2.70066E5,3.206183E5,9.8833E4,2.221405E5,5.1520875E4,4.9345688E4,4.3393406E4,5.8933188E4,5.1414875E4,8.8173875E4,3.49355E4,0E0,0E0,0E0,0E0,0E0,0E0,0E0,0E0,0E0,0E0,0E0,0E0,0E0,0E0,0E0],"parents":[2147483647,0,0,1,1,2,2,3,3,4,4,5,5,6,6,7,7,8,8,9,9,10,10,11,11,12,12,13,13],"right_children":[2,4,6,8,10,12,14,16,18,20,22,24,26,28,-1,-1,-1,-1,-1,-1,-1,-1,-1,-1,-1,-1,-1,-1,-1],"split_conditions":[1.9722E2,1.0146E2,3.1236E2,6.954E1,1.4136E2,2.4282E2,4.0926E2,4.674E1,8.664E1,1.1856E2,1.6872E2,1.41E1,2E-1,1.23E1,1.13686075E1,-2.4801898E0,-1.6933855E0,-1.1362876E0,-6.077666E-1,-1.5335624E-1,4.339098E-1,1.1511854E0,2.1715233E0,3.7955155E0,9.368359E-1,5.9551945E0,3.0329878E0,8.331269E0,5.301183E0],"split_indices":[0,0,0,0,0,0,0,0,0,0,0,3,2,3,0,0,0,0,0,0,0,0,0,0,0,0,0,0,0],"split_type":[0,0,0,0,0,0,0,0,0,0,0,0,0,0,0,0,0,0,0,0,0,0,0,0,0,0,0,0,0],"sum_hessian":[5.836E3,5.309E3,5.27E2,3.431E3,1.878E3,2.98E2,2.29E2,1.562E3,1.869E3,1.257E3,6.21E2,1.38E2,1.6E2,1.36E2,9.3E1,2.54E2,1.308E3,1.142E3,7.27E2,6.42E2,6.15E2,3.97E2,2.24E2,1.19E2,1.9E1,1.23E2,3.7E1,1.18E2,1.8E1],"tree_param":{"num_deleted":"0","num_feature":"9","num_nodes":"29","size_leaf_vector":"1"}},{"base_weights":[5.1197655E-2,-1.243408E1,1.2561327E2,-2.5414343E1,1.1281032E1,8.442725E1,1.7860896E2,-3.4636524E1,-1.7692587E1,2.5478625E0,2.89258E1,6.0608765E1,9.796918E1,1.5156467E2,2.1612448E2,-2.4005384E0,-1.6164086E0,-1.0795232E0,-5.774202E-1,-1.4570023E-1,4.1224965E-1,5.3382435E0,1.3868864E0,3.5014744E0,1.0759752E0,5.450938E0,3.0624712E0,7.6433635E0,-6.397438E-1,1.1167487E1,7.9441895E0],"categories":[],"categories_nodes":[],"categories_segments":[],"categories_sizes":[],"default_left":[0,0,0,0,0,0,0,0,0,0,0,0,0,0,0,0,0,0,0,0,0,0,0,0,0,0,0,0,0,0,0],"id":8,"left_children":[1,3,5,7,9,11,13,15,17,19,21,23,25,27,29,-1,-1,-1,-1,-1,-1,-1,-1,-1,-1,-1,-1,-1,-1,-1,-1],"loss_changes":[9.152095E6,1.6348555E6,1.1373765E6,2.4378475E5,2.894703E5,9.050425E4,2.00597E5,4.6701875E4,4.4535812E4,3.9169176E4,5.4560312E4,3.9368656E4,7.0007E4,3.1287E4,3.3895E3,0E0,0E0,0E0,0E0,0E0,0E0,0E0,0E0,0E0,0E0,0E0,0E0,0E0,0E0,0E0,0E0],"parents":[2147483647,0,0,1,1,2,2,3,3,4,4,5,5,6,6,7,7,8,8,9,9,10,10,11,11,12,12,13,13,14,14],"right_children":[2,4,6,8,10,12,14,16,18,20,22,24,26,28,30,-1,-1,-1,-1,-1,-1,-1,-1,-1,-1,-1,-1,-1,-1,-1,-1],"split_conditions":[1.9722E2,1.0146E2,3.1236E2,6.954E1,1.4136E2,2.3142E2,4.0926E2,4.56E1,8.664E1,1.1856E2,1.46E1,9.995E2,2E-1,1.65E1,9E-1,-2.4005384E0,-1.6164086E0,-1.0795232E0,-5.774202E-1,-1.4570023E-1,4.1224965E-1,5.3382435E0,1.3868864E0,3.5014744E0,1.0759752E0,5.450938E0,3.0624712E0,7.6433635E0,-6.397438E-1,1.1167487E1,7.9441895E0],"split_indices":[0,0,0,0,0,0,0,0,0,0,1,4,2,3,2,0,0,0,0,0,0,0,0,0,0,0,0,0,0,0,0],"split_type":[0,0,0,0,0,0,0,0,0,0,0,0,0,0,0,0,0,0,0,0,0,0,0,0,0,0,0,0,0,0,0],"sum_hessian":[5.836E3,5.309E3,5.27E2,3.431E3,1.878E3,2.98E2,2.29E2,1.562E3,1.869E3,1.257E3,6.21E2,1.1E2,1.88E2,1.36E2,9.3E1,2.27E2,1.335E3,1.142E3,7.27E2,6.42E2,6.15E2,8E0,6.13E2,8.8E1,2.2E1,1.43E2,4.5E1,1.35E2,1E0,8E1,1.3E1],"tree_param":{"num_deleted":"0","num_feature":"9","num_nodes":"31","size_leaf_vector":"1"}},{"base_weights":[5.5580623E-2,-1.1273785E1,1.2509895E2,-2.2976107E1,1.4082148E1,8.445632E1,1.6979205E2,-3.1331333E1,-1.4071319E1,6.238033E0,3.432736E1,9.1263435E1,3.8866756E1,1.4403755E2,2.0552158E2,-2.0460908E0,-1.407647E0,-9.3299025E-1,-4.4063663E-1,6.0600247E-2,6.36779E-1,1.299713E0,2.2434878E0,4.9043546E0,3.028845E0,2.4248102E0,1.5267325E-2,7.5392494E0,4.7098193E0,1.0616006E1,7.5753527E0],"categories":[],"categories_nodes":[],"categories_segments":[],"categories_sizes":[],"default_left":[0,0,0,0,0,0,0,0,0,0,0,0,0,0,0,0,0,0,0,0,0,0,0,0,0,0,0,0,0,0,0],"id":9,"left_children":[1,3,5,7,9,11,13,15,17,19,21,23,25,27,29,-1,-1,-1,-1,-1,-1,-1,-1,-1,-1,-1,-1,-1,-1,-1,-1],"loss_changes":[8.270467E6,1.5886835E6,8.66636E5,2.7209175E5,2.6832644E5,7.589825E4,1.82042E5,5.6429E4,4.2664438E4,3.982592E4,4.0299188E4,4.0543625E4,1.2981566E4,3.186975E4,2.3505E3,0E0,0E0,0E0,0E0,0E0,0E0,0E0,0E0,0E0,0E0,0E0,0E0,0E0,0E0,0E0,0E0],"parents":[2147483647,0,0,1,1,2,2,3,3,4,4,5,5,6,6,7,7,8,8,9,9,10,10,11,11,12,12,13,13,14,14],"right_children":[2,4,6,8,10,12,14,16,18,20,22,24,26,28,30,-1,-1,-1,-1,-1,-1,-1,-1,-1,-1,-1,-1,-1,-1,-1,-1],"split_conditions":[2.0862E2,1.0716E2,3.1236E2,7.41E1,1.5276E2,1.0023E3,4.0926E2,5.244E1,8.892E1,1.2768E2,1.7328E2,2E-1,1.5E1,1.23E1,9E-1,-2.0460908E0,-1.407647E0,-9.3299025E-1,-4.4063663E-1,6.0600247E-2,6.36779E-1,1.299713E0,2.2434878E0,4.9043546E0,3.028845E0,2.4248102E0,1.5267325E-2,7.5392494E0,4.7098193E0,1.0616006E1,7.5753527E0],"split_indices":[0,0,0,0,0,4,0,0,0,0,0,2,3,3,2,0,0,0,0,0,0,0,0,0,0,0,0,0,0,0,0],"split_type":[0,0,0,0,0,0,0,0,0,0,0,0,0,0,0,0,0,0,0,0,0,0,0,0,0,0,0,0,0,0,0],"sum_hessian":[5.836E3,5.352E3,4.84E2,3.662E3,1.69E3,2.55E2,2.29E2,1.888E3,1.774E3,1.219E3,4.71E2,2.21E2,3.4E1,1.36E2,9.3E1,4.67E2,1.421E3,9.46E2,8.28E2,6.88E2,5.31E2,2.65E2,2.06E2,1.79E2,4.2E1,2.7E1,7E0,1.18E2,1.8E1,8E1,1.3E1],"tree_param":{"num_deleted":"0","num_feature":"9","num_nodes":"31","size_leaf_vector":"1"}},{"base_weights":[5.969296E-2,-9.885886E0,1.2901898E2,-2.0708923E1,1.7796043E1,1.02025444E2,1.8246625E2,-2.879129E1,-1.1070224E1,1.0581045E1,4.337232E1,7.9624954E1,1.1761582E2,1.9855219E2,1.5261827E2,-1.781646E0,-1.2130606E0,-8.098566E-1,-3.274402E-1,2.9504538E-1,9.6053135E-1,2.5754087E0,7.2406197E-1,4.372883E0,2.5662465E0,6.018966E0,1.941609E0,1.039821E1,6.975516E0,7.8061805E0,-7.414959E-1],"categories":[],"categories_nodes":[],"categories_segments":[],"categories_sizes":[],"default_left":[0,0,0,0,0,0,0,0,0,0,0,0,0,0,0,0,0,0,0,0,0,0,0,0,0,0,0,0,0,0,0],"id":10,"left_children":[1,3,5,7,9,11,13,15,17,19,21,23,25,27,29,-1,-1,-1,-1,-1,-1,-1,-1,-1,-1,-1,-1,-1,-1,-1,-1],"loss_changes":[7.487664E6,1.6242144E6,5.844455E5,3.0327125E5,2.8076903E5,8.841975E4,3.64355E4,6.481E4,4.113275E4,4.7947906E4,7.7997125E4,2.166775E4,3.08135E4,1.933325E4,3.3424375E4,0E0,0E0,0E0,0E0,0E0,0E0,0E0,0E0,0E0,0E0,0E0,0E0,0E0,0E0,0E0,0E0],"parents":[2147483647,0,0,1,1,2,2,3,3,4,4,5,5,6,6,7,7,8,8,9,9,10,10,11,11,12,12,13,13,14,14],"right_children":[2,4,6,8,10,12,14,16,18,20,22,24,26,28,30,-1,-1,-1,-1,-1,-1,-1,-1,-1,-1,-1,-1,-1,-1,-1,-1],"split_conditions":[2.3142E2,1.1286E2,3.7392E2,7.752E1,1.6872E2,2.8044E2,9.5E0,5.928E1,9.12E1,1.4022E2,9.995E2,9.911E2,5.6E0,1E-1,7E0,-1.781646E0,-1.2130606E0,-8.098566E-1,-3.274402E-1,2.9504538E-1,9.6053135E-1,2.5754087E0,7.2406197E-1,4.372883E0,2.5662465E0,6.018966E0,1.941609E0,1.039821E1,6.975516E0,7.8061805E0,-7.414959E-1],"split_indices":[0,0,0,0,0,0,7,0,0,0,4,4,6,2,6,0,0,0,0,0,0,0,0,0,0,0,0,0,0,0,0],"split_type":[0,0,0,0,0,0,0,0,0,0,0,0,0,0,0,0,0,0,0,0,0,0,0,0,0,0,0,0,0,0,0],"sum_hessian":[5.836E3,5.419E3,4.17E2,3.896E3,1.523E3,2.79E2,1.38E2,2.118E3,1.778E3,1.189E3,3.34E2,1.17E2,1.62E2,8.6E1,5.2E1,8.41E2,1.277E3,8.32E2,9.46E2,7.72E2,4.17E2,2.6E2,7.4E1,9E1,2.7E1,1.56E2,6E0,7.2E1,1.4E1,5.1E1,1E0],"tree_param":{"num_deleted":"0","num_feature":"9","num_nodes":"31","size_leaf_vector":"1"}},{"base_weights":[6.3520476E-2,-1.097478E1,1.0513609E2,-2.1820045E1,9.128852E0,7.056381E1,1.5368144E2,-3.2317223E1,-1.6625914E1,2.2220623E0,2.3716434E1,7.796776E1,3.005129E1,1.3014897E2,1.8634386E2,-2.0904908E0,-1.4949015E0,-1.0100374E0,-5.312485E-1,-1.24669544E-1,3.5702962E-1,4.841751E0,1.1340646E0,3.2599518E0,4.6274915E0,-6.194207E-1,1.9611062E0,6.822239E0,4.1933703E0,1.0156631E1,8.177435E0],"categories":[],"categories_nodes":[],"categories_segments":[],"categories_sizes":[],"default_left":[0,0,0,0,0,0,0,0,0,0,0,0,0,0,0,0,0,0,0,0,0,0,0,0,0,0,0,0,0,0,0],"id":11,"left_children":[1,3,5,7,9,11,13,15,17,19,21,23,25,27,29,-1,-1,-1,-1,-1,-1,-1,-1,-1,-1,-1,-1,-1,-1,-1,-1],"loss_changes":[6.771039E6,1.1520475E6,9.206255E5,1.8658812E5,1.8654252E5,9.54415E4,1.52532E5,2.4814625E4,4.9082938E4,2.9194719E4,4.283822E4,4.5169375E4,2.072468E4,2.84755E4,2.752E3,0E0,0E0,0E0,0E0,0E0,0E0,0E0,0E0,0E0,0E0,0E0,0E0,0E0,0E0,0E0,0E0],"parents":[2147483647,0,0,1,1,2,2,3,3,4,4,5,5,6,6,7,7,8,8,9,9,10,10,11,11,12,12,13,13,14,14],"right_children":[2,4,6,8,10,12,14,16,18,20,22,24,26,28,30,-1,-1,-1,-1,-1,-1,-1,-1,-1,-1,-1,-1,-1,-1,-1,-1],"split_conditions":[1.938E2,1.0146E2,3.1236E2,6.384E1,1.4136E2,1.0023E3,4.0926E2,4.56E1,8.436E1,1.1856E2,1.46E1,2.4852E2,2.47E1,1.23E1,8.1E0,-2.0904908E0,-1.4949015E0,-1.0100374E0,-5.312485E-1,-1.24669544E-1,3.5702962E-1,4.841751E0,1.1340646E0,3.2599518E0,4.6274915E0,-6.194207E-1,1.9611062E0,6.822239E0,4.1933703E0,1.0156631E1,8.177435E0],"split_indices":[0,0,0,0,0,4,0,0,0,0,1,0,1,3,3,0,0,0,0,0,0,0,0,0,0,0,0,0,0,0,0],"split_type":[0,0,0,0,0,0,0,0,0,0,0,0,0,0,0,0,0,0,0,0,0,0,0,0,0,0,0,0,0,0,0],"sum_hessian":[5.836E3,5.282E3,5.54E2,3.431E3,1.851E3,3.25E2,2.29E2,1.134E3,2.297E3,1.257E3,5.94E2,2.74E2,5.1E1,1.36E2,9.3E1,2.27E2,9.07E2,1.438E3,8.59E2,6.42E2,6.15E2,7E0,5.87E2,1.49E2,1.25E2,9E0,4.2E1,1.18E2,1.8E1,4.9E1,4.4E1],"tree_param":{"num_deleted":"0","num_feature":"9","num_nodes":"31","size_leaf_vector":"1"}},{"base_weights":[6.714075E-2,-8.927847E0,1.16700554E2,-1.8700153E1,1.6066647E1,9.217073E1,1.6527357E2,-2.6605927E1,-1.0612461E1,9.505621E0,3.9325016E1,7.20296E1,1.0618597E2,1.8030441E2,1.3748193E2,-1.7660831E0,-1.1937171E0,-7.577581E-1,-2.945331E-1,1.9731091E-1,7.6145285E-1,2.3432148E0,6.281992E-1,3.8544445E0,1.6074946E0,5.821647E0,4.06999E0,9.450557E0,6.295568E0,7.038129E0,-8.2779276E-1],"categories":[],"categories_nodes":[],"categories_segments":[],"categories_sizes":[],"default_left":[0,0,0,0,0,0,0,0,0,0,0,0,0,0,0,0,0,0,0,0,0,0,0,0,0,0,0,0,0,0,0],"id":12,"left_children":[1,3,5,7,9,11,13,15,17,19,21,23,25,27,29,-1,-1,-1,-1,-1,-1,-1,-1,-1,-1,-1,-1,-1,-1,-1,-1],"loss_changes":[6.1247325E6,1.3241564E6,4.82808E5,2.4888975E5,2.3218662E5,7.13905E4,3.327625E4,4.6057875E4,4.126578E4,3.7804367E4,6.7000375E4,2.1329625E4,3.1921625E4,1.740325E4,2.9113625E4,0E0,0E0,0E0,0E0,0E0,0E0,0E0,0E0,0E0,0E0,0E0,0E0,0E0,0E0,0E0,0E0],"parents":[2147483647,0,0,1,1,2,2,3,3,4,4,5,5,6,6,7,7,8,8,9,9,10,10,11,11,12,12,13,13,14,14],"right_children":[2,4,6,8,10,12,14,16,18,20,22,24,26,28,30,-1,-1,-1,-1,-1,-1,-1,-1,-1,-1,-1,-1,-1,-1,-1,-1],"split_conditions":[2.3142E2,1.1286E2,3.7392E2,7.524E1,1.6872E2,2.8044E2,9.5E0,5.244E1,9.12E1,1.3338E2,9.995E2,1.5E0,1E-1,1E-1,7E0,-1.7660831E0,-1.1937171E0,-7.577581E-1,-2.945331E-1,1.9731091E-1,7.6145285E-1,2.3432148E0,6.281992E-1,3.8544445E0,1.6074946E0,5.821647E0,4.06999E0,9.450557E0,6.295568E0,7.038129E0,-8.2779276E-1],"split_indices":[0,0,0,0,0,0,7,0,0,0,4,2,2,2,6,0,0,0,0,0,0,0,0,0,0,0,0,0,0,0,0],"split_type":[0,0,0,0,0,0,0,0,0,0,0,0,0,0,0,0,0,0,0,0,0,0,0,0,0,0,0,0,0,0,0],"sum_hessian":[5.836E3,5.419E3,4.17E2,3.896E3,1.523E3,2.79E2,1.38E2,1.969E3,1.927E3,1.189E3,3.34E2,1.17E2,1.62E2,8.6E1,5.2E1,4.67E2,1.502E3,9.81E2,9.46E2,6.04E2,5.85E2,2.6E2,7.4E1,1.03E2,1.4E1,1.12E2,5E1,7.2E1,1.4E1,5.1E1,1E0],"tree_param":{"num_deleted":"0","num_feature":"9","num_nodes":"31","size_leaf_vector":"1"}},{"base_weights":[7.0161715E-2,-9.917181E0,9.513874E1,-1.9709919E1,8.235406E0,6.3784252E1,1.3916667E2,-2.927635E1,-1.4976406E1,2.0114844E0,2.1380714E1,6.924234E1,1.7892925E1,1.1769553E2,1.6897922E2,-1.9836848E0,-1.3695427E0,-9.090603E-1,-4.7982714E-1,-1.5215129E-1,2.8477296E-1,4.537295E0,1.0200304E0,2.785884E0,4.0538445E0,9.891692E-3,1.9999713E0,6.17667E0,3.7468777E0,9.226314E0,7.397481E0],"categories":[],"categories_nodes":[],"categories_segments":[],"categories_sizes":[],"default_left":[0,0,0,0,0,0,0,0,0,0,0,0,0,0,0,0,0,0,0,0,0,0,0,0,0,0,0,0,0,0,0],"id":13,"left_children":[1,3,5,7,9,11,13,15,17,19,21,23,25,27,29,-1,-1,-1,-1,-1,-1,-1,-1,-1,-1,-1,-1,-1,-1,-1,-1],"loss_changes":[5.543073E6,9.392869E5,7.57286E5,1.5497225E5,1.5147906E5,8.0417125E4,1.27337E5,2.1164E4,3.9446188E4,2.3442154E4,3.8599938E4,4.20595E4,1.4074442E4,2.4940125E4,3.4325E3,0E0,0E0,0E0,0E0,0E0,0E0,0E0,0E0,0E0,0E0,0E0,0E0,0E0,0E0,0E0,0E0],"parents":[2147483647,0,0,1,1,2,2,3,3,4,4,5,5,6,6,7,7,8,8,9,9,10,10,11,11,12,12,13,13,14,14],"right_children":[2,4,6,8,10,12,14,16,18,20,22,24,26,28,30,-1,-1,-1,-1,-1,-1,-1,-1,-1,-1,-1,-1,-1,-1,-1,-1],"split_conditions":[1.938E2,1.0146E2,3.1236E2,6.384E1,1.4136E2,1.0075E3,4.0926E2,4.332E1,8.436E1,1.1514E2,1.46E1,2.4282E2,3E-1,1.23E1,8.1E0,-1.9836848E0,-1.3695427E0,-9.090603E-1,-4.7982714E-1,-1.5215129E-1,2.8477296E-1,4.537295E0,1.0200304E0,2.785884E0,4.0538445E0,9.891692E-3,1.9999713E0,6.17667E0,3.7468777E0,9.226314E0,7.397481E0],"split_indices":[0,0,0,0,0,4,0,0,0,0,1,0,2,3,3,0,0,0,0,0,0,0,0,0,0,0,0,0,0,0,0],"split_type":[0,0,0,0,0,0,0,0,0,0,0,0,0,0,0,0,0,0,0,0,0,0,0,0,0,0,0,0,0,0,0],"sum_hessian":[5.836E3,5.282E3,5.54E2,3.431E3,1.851E3,3.25E2,2.29E2,1.134E3,2.297E3,1.257E3,5.94E2,2.9E2,3.5E1,1.36E2,9.3E1,1.71E2,9.63E2,1.438E3,8.59E2,5.3E2,7.27E2,7E0,5.87E2,1.38E2,1.52E2,2E1,1.5E1,1.18E2,1.8E1,4.9E1,4.4E1],"tree_param":{"num_deleted":"0","num_feature":"9","num_nodes":"31","size_leaf_vector":"1"}},{"base_weights":[7.2879724E-2,-9.421143E0,9.044558E1,-1.9334654E1,6.7832003E0,6.0622185E1,1.3232376E2,-2.7815485E1,-1.4836018E1,9.318664E-1,2.0016165E1,6.710118E1,2.5192446E1,1.11883194E2,1.6070709E2,-1.9640478E0,-1.312721E0,-8.734199E-1,-5.062805E-1,-1.768736E-1,2.627349E-1,4.3387885E0,9.552414E-1,1.5144422E0,3.549342E0,-1.5964385E0,1.5308865E0,5.7901626E0,2.822664E0,8.319429E0,5.8178306E0],"categories":[],"categories_nodes":[],"categories_segments":[],"categories_sizes":[],"default_left":[0,0,0,0,0,0,0,0,0,0,0,0,0,0,0,0,0,0,0,0,0,0,0,0,0,0,0,0,0,0,0],"id":14,"left_children":[1,3,5,7,9,11,13,15,17,19,21,23,25,27,29,-1,-1,-1,-1,-1,-1,-1,-1,-1,-1,-1,-1,-1,-1,-1,-1],"loss_changes":[5.0090005E6,8.488026E5,6.851455E5,1.2465025E5,1.5530694E5,7.31425E4,1.1545925E5,1.9283312E4,2.6407781E4,2.69123E4,3.575903E4,3.7186E4,1.7092324E4,2.3231125E4,4.32525E3,0E0,0E0,0E0,0E0,0E0,0E0,0E0,0E0,0E0,0E0,0E0,0E0,0E0,0E0,0E0,0E0],"parents":[2147483647,0,0,1,1,2,2,3,3,4,4,5,5,6,6,7,7,8,8,9,9,10,10,11,11,12,12,13,13,14,14],"right_children":[2,4,6,8,10,12,14,16,18,20,22,24,26,28,30,-1,-1,-1,-1,-1,-1,-1,-1,-1,-1,-1,-1,-1,-1,-1,-1],"split_conditions":[1.938E2,9.804E1,3.1236E2,6.384E1,1.4022E2,1.0023E3,4.0926E2,4.104E1,8.322E1,1.1514E2,1.46E1,9.701E2,2.43E1,1.36E1,9E-1,-1.9640478E0,-1.312721E0,-8.734199E-1,-5.062805E-1,-1.768736E-1,2.627349E-1,4.3387885E0,9.552414E-1,1.5144422E0,3.549342E0,-1.5964385E0,1.5308865E0,5.7901626E0,2.822664E0,8.319429E0,5.8178306E0],"split_indices":[0,0,0,0,0,4,0,0,0,0,1,4,1,7,2,0,0,0,0,0,0,0,0,0,0,0,0,0,0,0,0],"split_type":[0,0,0,0,0,0,0,0,0,0,0,0,0,0,0,0,0,0,0,0,0,0,0,0,0,0,0,0,0,0,0],"sum_hessian":[5.836E3,5.282E3,5.54E2,3.277E3,2.005E3,3.25E2,2.29E2,1.134E3,2.143E3,1.391E3,6.14E2,2.74E2,5.1E1,1.36E2,9.3E1,1.33E2,1.001E3,1.373E3,7.7E2,6.84E2,7.07E2,7E0,6.07E2,2.7E1,2.47E2,4E0,4.7E1,1.26E2,1E1,8E1,1.3E1],"tree_param":{"num_deleted":"0","num_feature":"9","num_nodes":"31","size_leaf_vector":"1"}},{"base_weights":[7.4113354E-2,-7.666454E0,1.00442055E2,-1.6041256E1,1.3753672E1,7.91673E1,1.4257509E2,-2.2378046E1,-8.484371E0,8.038216E0,3.401528E1,6.178153E1,9.1267624E1,1.5647836E2,1.1706263E2,-1.3891625E0,-9.3996805E-1,-6.2247616E-1,-2.4937928E-1,1.6484012E-1,6.4598215E-1,2.0413957E0,4.9268985E-1,3.2265935E0,-1.5670331E-2,5.053949E0,3.3869598E0,8.214446E0,5.4017596E0,6.005904E0,-1.0455239E0],"categories":[],"categories_nodes":[],"categories_segments":[],"categories_sizes":[],"default_left":[0,0,0,0,0,0,0,0,0,0,0,0,0,0,0,0,0,0,0,0,0,0,0,0,0,0,0,0,0,0,0],"id":15,"left_children":[1,3,5,7,9,11,13,15,17,19,21,23,25,27,29,-1,-1,-1,-1,-1,-1,-1,-1,-1,-1,-1,-1,-1,-1,-1,-1],"loss_changes":[4.535564E6,9.7251075E5,3.63395E5,1.8642344E5,1.762124E5,5.3266E4,3.098675E4,4.0466625E4,2.4604258E4,2.749979E4,5.473978E4,2.01725E4,3.078075E4,1.5169E4,2.4854938E4,0E0,0E0,0E0,0E0,0E0,0E0,0E0,0E0,0E0,0E0,0E0,0E0,0E0,0E0,0E0,0E0],"parents":[2147483647,0,0,1,1,2,2,3,3,4,4,5,5,6,6,7,7,8,8,9,9,10,10,11,11,12,12,13,13,14,14],"right_children":[2,4,6,8,10,12,14,16,18,20,22,24,26,28,30,-1,-1,-1,-1,-1,-1,-1,-1,-1,-1,-1,-1,-1,-1,-1,-1],"split_conditions":[2.3142E2,1.1286E2,3.7392E2,7.752E1,1.6872E2,2.8044E2,9.5E0,5.928E1,9.12E1,1.3338E2,9.995E2,3.9E0,1E-1,1E-1,7E0,-1.3891625E0,-9.3996805E-1,-6.2247616E-1,-2.4937928E-1,1.6484012E-1,6.4598215E-1,2.0413957E0,4.9268985E-1,3.2265935E0,-1.5670331E-2,5.053949E0,3.3869598E0,8.214446E0,5.4017596E0,6.005904E0,-1.0455239E0],"split_indices":[0,0,0,0,0,0,7,0,0,0,4,6,2,2,6,0,0,0,0,0,0,0,0,0,0,0,0,0,0,0,0],"split_type":[0,0,0,0,0,0,0,0,0,0,0,0,0,0,0,0,0,0,0,0,0,0,0,0,0,0,0,0,0,0,0],"sum_hessian":[5.836E3,5.419E3,4.17E2,3.896E3,1.523E3,2.79E2,1.38E2,2.118E3,1.778E3,1.189E3,3.34E2,1.17E2,1.62E2,8.6E1,5.2E1,8.41E2,1.277E3,8.32E2,9.46E2,6.04E2,5.85E2,2.6E2,7.4E1,1.12E2,5E0,1.12E2,5E1,7.2E1,1.4E1,5.1E1,1E0],"tree_param":{"num_deleted":"0","num_feature":"9","num_nodes":"31","size_leaf_vector":"1"}},{"base_weights":[7.5610116E-2,-8.666145E0,8.039894E1,-1.7463892E1,5.84476E0,5.381391E1,1.1981133E2,-2.515562E1,-1.3383866E1,-2.0318894E-1,1.5513839E1,5.830947E1,1.4936974E1,1.01171455E2,1.4570337E2,-1.6538018E0,-1.1569545E0,-7.873109E-1,-4.5782787E-1,1.4373839E-1,-2.4982046E-1,5.311565E-1,1.155031E0,3.1542175E0,1.5225714E0,-3.838709E-2,1.7798699E0,5.3237457E0,3.131512E0,7.996778E0,6.3325987E0],"categories":[],"categories_nodes":[],"categories_segments":[],"categories_sizes":[],"default_left":[0,0,0,0,0,0,0,0,0,0,0,0,0,0,0,0,0,0,0,0,0,0,0,0,0,0,0,0,0,0,0],"id":16,"left_children":[1,3,5,7,9,11,13,15,17,19,21,23,25,27,29,-1,-1,-1,-1,-1,-1,-1,-1,-1,-1,-1,-1,-1,-1,-1,-1],"loss_changes":[4.099245E6,6.7224925E5,5.9393025E5,1.02535E5,1.162576E5,5.9251188E4,9.626275E4,1.7362625E4,2.1266625E4,1.8072432E4,2.8139719E4,3.9048812E4,1.2032573E4,2.13345E4,5.23125E3,0E0,0E0,0E0,0E0,0E0,0E0,0E0,0E0,0E0,0E0,0E0,0E0,0E0,0E0,0E0,0E0],"parents":[2147483647,0,0,1,1,2,2,3,3,4,4,5,5,6,6,7,7,8,8,9,9,10,10,11,11,12,12,13,13,14,14],"right_children":[2,4,6,8,10,12,14,16,18,20,22,24,26,28,30,-1,-1,-1,-1,-1,-1,-1,-1,-1,-1,-1,-1,-1,-1,-1,-1],"split_conditions":[1.9038E2,9.804E1,3.1236E2,6.384E1,1.3338E2,1.0075E3,4.0926E2,4.56E1,8.322E1,2E-1,1.5846E2,8E-1,3E-1,1.23E1,8.1E0,-1.6538018E0,-1.1569545E0,-7.873109E-1,-4.5782787E-1,1.4373839E-1,-2.4982046E-1,5.311565E-1,1.155031E0,3.1542175E0,1.5225714E0,-3.838709E-2,1.7798699E0,5.3237457E0,3.131512E0,7.996778E0,6.3325987E0],"split_indices":[0,0,0,0,0,4,0,0,0,6,0,2,2,3,3,0,0,0,0,0,0,0,0,0,0,0,0,0,0,0,0],"split_type":[0,0,0,0,0,0,0,0,0,0,0,0,0,0,0,0,0,0,0,0,0,0,0,0,0,0,0,0,0,0,0],"sum_hessian":[5.836E3,5.264E3,5.72E2,3.277E3,1.987E3,3.43E2,2.29E2,1.134E3,2.143E3,1.223E3,7.64E2,3.07E2,3.6E1,1.36E2,9.3E1,2.27E2,9.07E2,1.373E3,7.7E2,7.45E2,4.78E2,4.66E2,2.98E2,2.61E2,4.6E1,2.1E1,1.5E1,1.18E2,1.8E1,4.9E1,4.4E1],"tree_param":{"num_deleted":"0","num_feature":"9","num_nodes":"31","size_leaf_vector":"1"}},{"base_weights":[7.640659E-2,-6.934536E0,9.098366E1,-1.4998877E1,1.1245855E1,7.171519E1,1.291433E2,-2.2114918E1,-9.920275E0,5.284018E0,2.714996E1,7.428048E1,8.233492E0,1.4214343E2,1.0536679E2,-1.5118512E0,-1.0136098E0,-6.6132927E-1,-2.888182E-1,2.3634837E0,2.4125762E-1,1.6026335E0,4.6228862E-1,2.9308465E0,4.2540565E0,-5.9316164E-1,1.9370778E0,7.468703E0,4.8739085E0,5.4118724E0,-1.0976738E0],"categories":[],"categories_nodes":[],"categories_segments":[],"categories_sizes":[],"default_left":[0,0,0,0,0,0,0,0,0,0,0,0,0,0,0,0,0,0,0,0,0,0,0,0,0,0,0,0,0,0,0],"id":17,"left_children":[1,3,5,7,9,11,13,15,17,19,21,23,25,27,29,-1,-1,-1,-1,-1,-1,-1,-1,-1,-1,-1,-1,-1,-1,-1,-1],"loss_changes":[3.7208168E6,7.948103E5,2.98085E5,1.3548456E5,1.578228E5,4.498625E4,2.798725E4,2.2780188E4,2.9970031E4,2.3141297E4,3.9555312E4,4.052125E4,7.816946E3,1.35365E4,2.1747312E4,0E0,0E0,0E0,0E0,0E0,0E0,0E0,0E0,0E0,0E0,0E0,0E0,0E0,0E0,0E0,0E0],"parents":[2147483647,0,0,1,1,2,2,3,3,4,4,5,5,6,6,7,7,8,8,9,9,10,10,11,11,12,12,13,13,14,14],"right_children":[2,4,6,8,10,12,14,16,18,20,22,24,26,28,30,-1,-1,-1,-1,-1,-1,-1,-1,-1,-1,-1,-1,-1,-1,-1,-1],"split_conditions":[2.3142E2,1.0944E2,3.7392E2,6.954E1,1.5846E2,5.6E0,9.5E0,4.788E1,8.778E1,1.65E1,9.995E2,2.8044E2,2.76E1,1E-1,7E0,-1.5118512E0,-1.0136098E0,-6.6132927E-1,-2.888182E-1,2.3634837E0,2.4125762E-1,1.6026335E0,4.6228862E-1,2.9308465E0,4.2540565E0,-5.9316164E-1,1.9370778E0,7.468703E0,4.8739085E0,5.4118724E0,-1.0976738E0],"split_indices":[0,0,0,0,0,6,7,0,0,1,4,0,1,2,6,0,0,0,0,0,0,0,0,0,0,0,0,0,0,0,0],"split_type":[0,0,0,0,0,0,0,0,0,0,0,0,0,0,0,0,0,0,0,0,0,0,0,0,0,0,0,0,0,0,0],"sum_hessian":[5.836E3,5.419E3,4.17E2,3.754E3,1.665E3,2.79E2,1.38E2,1.562E3,2.192E3,1.212E3,4.53E2,2.68E2,1.1E1,8.6E1,5.2E1,2.86E2,1.276E3,1.218E3,9.74E2,1.2E1,1.2E3,3.55E2,9.8E1,1.12E2,1.56E2,7E0,4E0,7.2E1,1.4E1,5.1E1,1E0],"tree_param":{"num_deleted":"0","num_feature":"9","num_nodes":"31","size_leaf_vector":"1"}},{"base_weights":[7.710654E-2,-6.587588E0,8.649473E1,-1.3791959E1,1.1838935E1,6.815988E1,1.2280598E2,-1.9935492E1,-8.008522E0,6.9427824E0,2.9195896E1,7.652467E1,4.903984E1,1.3517815E2,1.00179855E2,-1.4365222E0,-9.1742057E-1,-5.6236875E-1,-2.1822397E-1,4.5709664E-1,-6.190146E-2,1.7606388E0,3.933936E-1,4.093841E0,2.0293188E0,4.6246605E0,2.0137339E0,7.1003838E0,4.64646E0,5.146482E0,-1.070232E0],"categories":[],"categories_nodes":[],"categories_segments":[],"categories_sizes":[],"default_left":[0,0,0,0,0,0,0,0,0,0,0,0,0,0,0,0,0,0,0,0,0,0,0,0,0,0,0,0,0,0,0],"id":18,"left_children":[1,3,5,7,9,11,13,15,17,19,21,23,25,27,29,-1,-1,-1,-1,-1,-1,-1,-1,-1,-1,-1,-1,-1,-1,-1,-1],"loss_changes":[3.3623728E6,7.196764E5,2.69918E5,1.3830362E5,1.29310375E5,4.1029125E4,2.5368625E4,2.584E4,2.3662164E4,2.1420402E4,4.2712906E4,3.3799875E4,2.9791953E4,1.190625E4,1.9922812E4,0E0,0E0,0E0,0E0,0E0,0E0,0E0,0E0,0E0,0E0,0E0,0E0,0E0,0E0,0E0,0E0],"parents":[2147483647,0,0,1,1,2,2,3,3,4,4,5,5,6,6,7,7,8,8,9,9,10,10,11,11,12,12,13,13,14,14],"right_children":[2,4,6,8,10,12,14,16,18,20,22,24,26,28,30,-1,-1,-1,-1,-1,-1,-1,-1,-1,-1,-1,-1,-1,-1,-1,-1],"split_conditions":[2.3142E2,1.1286E2,3.7392E2,7.41E1,1.6872E2,1E-1,9.5E0,4.788E1,9.12E1,1.3E0,9.995E2,1.34E1,9.734E2,1E-1,7E0,-1.4365222E0,-9.1742057E-1,-5.6236875E-1,-2.1822397E-1,4.5709664E-1,-6.190146E-2,1.7606388E0,3.933936E-1,4.093841E0,2.0293188E0,4.6246605E0,2.0137339E0,7.1003838E0,4.64646E0,5.146482E0,-1.070232E0],"split_indices":[0,0,0,0,0,2,7,0,0,6,4,7,8,2,6,0,0,0,0,0,0,0,0,0,0,0,0,0,0,0,0],"split_type":[0,0,0,0,0,0,0,0,0,0,0,0,0,0,0,0,0,0,0,0,0,0,0,0,0,0,0,0,0,0,0],"sum_hessian":[5.836E3,5.419E3,4.17E2,3.896E3,1.523E3,2.79E2,1.38E2,1.888E3,2.008E3,1.189E3,3.34E2,1.92E2,8.7E1,8.6E1,5.2E1,2.86E2,1.602E3,1.062E3,9.46E2,9.37E2,2.52E2,2.6E2,7.4E1,1.66E2,2.6E1,1.3E1,7.4E1,7.2E1,1.4E1,5.1E1,1E0],"tree_param":{"num_deleted":"0","num_feature":"9","num_nodes":"31","size_leaf_vector":"1"}},{"base_weights":[7.8048475E-2,-7.324098E0,7.053834E1,-1.4539885E1,6.05166E0,4.711387E1,1.0343329E2,-2.1714638E1,-1.0989891E1,1.404166E0,1.586762E1,5.2338787E1,1.857606E1,9.021364E1,1.3176726E2,-1.2740089E0,-9.0401167E-1,-6.645931E-1,-3.5626635E-1,8.8803196E-1,2.345581E-2,3.8654969E0,7.5023425E-1,1.0221618E0,2.7864428E0,-1.5849804E0,1.1713054E0,4.791075E0,2.881306E0,6.672143E0,2.4653032E0],"categories":[],"categories_nodes":[],"categories_segments":[],"categories_sizes":[],"default_left":[0,0,0,0,0,0,0,0,0,0,0,0,0,0,0,0,0,0,0,0,0,0,0,0,0,0,0,0,0,0,0],"id":19,"left_children":[1,3,5,7,9,11,13,15,17,19,21,23,25,27,29,-1,-1,-1,-1,-1,-1,-1,-1,-1,-1,-1,-1,-1,-1,-1,-1],"loss_changes":[3.044847E6,5.0998528E5,4.2278025E5,8.717556E4,8.446526E4,4.7636875E4,7.426275E4,1.50723125E4,2.0348562E4,1.9231668E4,3.0387344E4,2.8595938E4,1.3422248E4,2.37175E4,3.230625E3,0E0,0E0,0E0,0E0,0E0,0E0,0E0,0E0,0E0,0E0,0E0,0E0,0E0,0E0,0E0,0E0],"parents":[2147483647,0,0,1,1,2,2,3,3,4,4,5,5,6,6,7,7,8,8,9,9,10,10,11,11,12,12,13,13,14,14],"right_children":[2,4,6,8,10,12,14,16,18,20,22,24,26,28,30,-1,-1,-1,-1,-1,-1,-1,-1,-1,-1,-1,-1,-1,-1,-1,-1],"split_conditions":[1.938E2,1.0146E2,3.1236E2,6.384E1,1.4136E2,1.0023E3,4.3092E2,9.569E2,8.436E1,2.14E1,1.46E1,9.701E2,2.43E1,3.05E1,5.1E0,-1.2740089E0,-9.0401167E-1,-6.645931E-1,-3.5626635E-1,8.8803196E-1,2.345581E-2,3.8654969E0,7.5023425E-1,1.0221618E0,2.7864428E0,-1.5849804E0,1.1713054E0,4.791075E0,2.881306E0,6.672143E0,2.4653032E0],"split_indices":[0,0,0,0,0,4,0,4,0,1,1,4,1,5,2,0,0,0,0,0,0,0,0,0,0,0,0,0,0,0,0],"split_type":[0,0,0,0,0,0,0,0,0,0,0,0,0,0,0,0,0,0,0,0,0,0,0,0,0,0,0,0,0,0,0],"sum_hessian":[5.836E3,5.282E3,5.54E2,3.431E3,1.851E3,3.25E2,2.29E2,1.134E3,2.297E3,1.257E3,5.94E2,2.74E2,5.1E1,1.59E2,7E1,5.54E2,5.8E2,1.438E3,8.59E2,6.7E1,1.19E3,7E0,5.87E2,2.7E1,2.47E2,4E0,4.7E1,1.34E2,2.5E1,6.8E1,2E0],"tree_param":{"num_deleted":"0","num_feature":"9","num_nodes":"31","size_leaf_vector":"1"}},{"base_weights":[7.800955E-2,-5.9522552E0,7.8269295E1,-1.2280828E1,1.1237436E1,6.1619164E1,1.1124605E2,-1.7396667E1,-6.3953943E0,6.707834E0,2.6415245E1,6.400734E1,2.9492958E0,1.2288886E2,9.003528E1,-1.160582E0,-7.608042E-1,-1.34499E-1,-4.8548016E-1,3.8614032E-1,-4.012343E-1,1.5990973E0,3.345462E-1,2.4964035E0,3.686657E0,-7.595613E-1,1.5692136E0,6.4650164E0,4.1746907E0,4.633077E0,-1.1632531E0],"categories":[],"categories_nodes":[],"categories_segments":[],"categories_sizes":[],"default_left":[0,0,0,0,0,0,0,0,0,0,0,0,0,0,0,0,0,0,0,0,0,0,0,0,0,0,0,0,0,0,0],"id":20,"left_children":[1,3,5,7,9,11,13,15,17,19,21,23,25,27,29,-1,-1,-1,-1,-1,-1,-1,-1,-1,-1,-1,-1,-1,-1,-1,-1],"loss_changes":[2.752694E6,5.897594E5,2.226555E5,1.1918031E5,1.00128234E5,3.9043E4,2.3262E4,2.6515812E4,2.2619156E4,1.6884215E4,3.656878E4,3.3153375E4,6.6666685E3,1.117875E4,1.7926219E4,0E0,0E0,0E0,0E0,0E0,0E0,0E0,0E0,0E0,0E0,0E0,0E0,0E0,0E0,0E0,0E0],"parents":[2147483647,0,0,1,1,2,2,3,3,4,4,5,5,6,6,7,7,8,8,9,9,10,10,11,11,12,12,13,13,14,14],"right_children":[2,4,6,8,10,12,14,16,18,20,22,24,26,28,30,-1,-1,-1,-1,-1,-1,-1,-1,-1,-1,-1,-1,-1,-1,-1,-1],"split_conditions":[2.3142E2,1.1514E2,3.7392E2,7.752E1,1.6872E2,5.6E0,9.5E0,5.472E1,1E-1,9E0,9.995E2,2.8044E2,2.76E1,1E-1,7E0,-1.160582E0,-7.608042E-1,-1.34499E-1,-4.8548016E-1,3.8614032E-1,-4.012343E-1,1.5990973E0,3.345462E-1,2.4964035E0,3.686657E0,-7.595613E-1,1.5692136E0,6.4650164E0,4.1746907E0,4.633077E0,-1.1632531E0],"split_indices":[0,0,0,0,0,6,7,0,6,6,4,0,1,2,6,0,0,0,0,0,0,0,0,0,0,0,0,0,0,0,0],"split_type":[0,0,0,0,0,0,0,0,0,0,0,0,0,0,0,0,0,0,0,0,0,0,0,0,0,0,0,0,0,0,0],"sum_hessian":[5.836E3,5.419E3,4.17E2,3.961E3,1.458E3,2.79E2,1.38E2,2.118E3,1.843E3,1.124E3,3.34E2,2.68E2,1.1E1,8.6E1,5.2E1,5.75E2,1.543E3,8.71E2,9.72E2,1.052E3,7.2E1,2.6E2,7.4E1,1.12E2,1.56E2,7E0,4E0,7.2E1,1.4E1,5.1E1,1E0],"tree_param":{"num_deleted":"0","num_feature":"9","num_nodes":"31","size_leaf_vector":"1"}},{"base_weights":[7.76181E-2,-6.618188E0,6.3814312E1,-1.3574081E1,4.7517204E0,4.4123177E1,9.595393E1,-1.9668158E1,-1.0341641E1,-2.953655E-1,1.2635349E1,4.882864E1,1.658019E1,8.319255E1,1.19765755E2,-1.1607102E0,-8.1234735E-1,-3.8838196E-1,-6.598546E-1,7.275584E-1,-5.5676233E-2,3.1139555E0,5.8909535E-1,8.9257556E-1,2.594143E0,-7.6964664E-1,1.1815108E0,6.534758E0,3.926658E0,6.2307816E0,4.0991592E0],"categories":[],"categories_nodes":[],"categories_segments":[],"categories_sizes":[],"default_left":[0,0,0,0,0,0,0,0,0,0,0,0,0,0,0,0,0,0,0,0,0,0,0,0,0,0,0,0,0,0,0],"id":21,"left_children":[1,3,5,7,9,11,13,15,17,19,21,23,25,27,29,-1,-1,-1,-1,-1,-1,-1,-1,-1,-1,-1,-1,-1,-1,-1,-1],"loss_changes":[2.4914702E6,4.1788575E5,3.470065E5,6.4369062E4,7.982117E4,4.4032938E4,5.3849625E4,1.3392406E4,1.565575E4,1.4883919E4,3.2440453E4,2.6984062E4,1.2085126E4,2.072275E4,2.7936875E3,0E0,0E0,0E0,0E0,0E0,0E0,0E0,0E0,0E0,0E0,0E0,0E0,0E0,0E0,0E0,0E0],"parents":[2147483647,0,0,1,1,2,2,3,3,4,4,5,5,6,6,7,7,8,8,9,9,10,10,11,11,12,12,13,13,14,14],"right_children":[2,4,6,8,10,12,14,16,18,20,22,24,26,28,30,-1,-1,-1,-1,-1,-1,-1,-1,-1,-1,-1,-1,-1,-1,-1,-1],"split_conditions":[1.938E2,9.804E1,3.249E2,6.384E1,1.3338E2,1.0023E3,4.3092E2,9.569E2,6E-1,2.16E1,1.65E1,9.701E2,2.47E1,1.22E1,9E-1,-1.1607102E0,-8.1234735E-1,-3.8838196E-1,-6.598546E-1,7.275584E-1,-5.5676233E-2,3.1139555E0,5.8909535E-1,8.9257556E-1,2.594143E0,-7.6964664E-1,1.1815108E0,6.534758E0,3.926658E0,6.2307816E0,4.0991592E0],"split_indices":[0,0,0,0,0,4,0,4,6,1,1,4,1,1,2,0,0,0,0,0,0,0,0,0,0,0,0,0,0,0,0],"split_type":[0,0,0,0,0,0,0,0,0,0,0,0,0,0,0,0,0,0,0,0,0,0,0,0,0,0,0,0,0,0,0],"sum_hessian":[5.836E3,5.282E3,5.54E2,3.277E3,2.005E3,3.45E2,2.09E2,1.134E3,2.143E3,1.223E3,7.82E2,2.94E2,5.1E1,1.39E2,7E1,5.54E2,5.8E2,1.129E3,1.014E3,6.3E1,1.16E3,1.2E1,7.7E2,2.7E1,2.67E2,9E0,4.2E1,1E1,1.29E2,6E1,1E1],"tree_param":{"num_deleted":"0","num_feature":"9","num_nodes":"31","size_leaf_vector":"1"}},{"base_weights":[7.8199014E-2,-5.378986E0,7.083864E1,-1.1278254E1,9.70948E0,5.572822E1,1.00767265E2,-1.6337036E1,-6.5160246E0,4.7590375E0,2.1366343E1,6.3516964E1,3.8012817E1,1.11768E2,8.080819E1,-1.2548625E0,-7.562722E-1,-2.071511E-1,-5.055984E-1,4.5806047E-1,3.4773123E-2,6.16603E-1,1.4184132E0,3.4206874E0,1.5438493E0,3.9836724E0,1.4864664E0,5.8820696E0,3.7866476E0,3.3598206E0,5.8760815E0],"categories":[],"categories_nodes":[],"categories_segments":[],"categories_sizes":[],"default_left":[0,0,0,0,0,0,0,0,0,0,0,0,0,0,0,0,0,0,0,0,0,0,0,0,0,0,0,0,0,0,0],"id":22,"left_children":[1,3,5,7,9,11,13,15,17,19,21,23,25,27,29,-1,-1,-1,-1,-1,-1,-1,-1,-1,-1,-1,-1,-1,-1,-1,-1],"loss_changes":[2.254355E6,4.8254862E5,1.8341825E5,9.377644E4,8.784322E4,3.622025E4,2.148775E4,1.9669906E4,1.7101266E4,1.915227E4,2.8369E4,2.8734938E4,2.7999773E4,9.504125E3,1.8588938E4,0E0,0E0,0E0,0E0,0E0,0E0,0E0,0E0,0E0,0E0,0E0,0E0,0E0,0E0,0E0,0E0],"parents":[2147483647,0,0,1,1,2,2,3,3,4,4,5,5,6,6,7,7,8,8,9,9,10,10,11,11,12,12,13,13,14,14],"right_children":[2,4,6,8,10,12,14,16,18,20,22,24,26,28,30,-1,-1,-1,-1,-1,-1,-1,-1,-1,-1,-1,-1,-1,-1,-1,-1],"split_conditions":[2.3142E2,1.1286E2,3.7392E2,7.41E1,1.5846E2,1E-1,9.5E0,4.56E1,6E-1,8.9E0,9.581E2,1.34E1,9.734E2,1E-1,4.788E2,-1.2548625E0,-7.562722E-1,-2.071511E-1,-5.055984E-1,4.5806047E-1,3.4773123E-2,6.16603E-1,1.4184132E0,3.4206874E0,1.5438493E0,3.9836724E0,1.4864664E0,5.8820696E0,3.7866476E0,3.3598206E0,5.8760815E0],"split_indices":[0,0,0,0,0,2,7,0,6,7,8,7,8,2,0,0,0,0,0,0,0,0,0,0,0,0,0,0,0,0,0],"split_type":[0,0,0,0,0,0,0,0,0,0,0,0,0,0,0,0,0,0,0,0,0,0,0,0,0,0,0,0,0,0,0],"sum_hessian":[5.836E3,5.419E3,4.17E2,3.896E3,1.523E3,2.79E2,1.38E2,1.888E3,2.008E3,1.07E3,4.53E2,1.92E2,8.7E1,8.6E1,5.2E1,2.27E2,1.661E3,1.211E3,7.97E2,5.13E2,5.57E2,1.99E2,2.54E2,1.66E2,2.6E1,1.3E1,7.4E1,7.2E1,1.4E1,4E1,1.2E1],"tree_param":{"num_deleted":"0","num_feature":"9","num_nodes":"31","size_leaf_vector":"1"}},{"base_weights":[7.928199E-2,-6.088457E0,5.6751305E1,-1.2283785E1,4.130039E0,3.7692986E1,8.500917E1,-1.7831163E1,-9.341359E0,-2.343238E-1,1.1107621E1,4.119249E1,7.543242E0,7.393415E1,1.0876965E2,-1.0574425E0,-7.3156273E-1,-3.8830364E-1,-6.7290235E-1,1.1985772E-1,-2.1660641E-1,6.9657797E-1,1.1522923E-1,1.7058992E0,2.9825835E0,-7.980731E-1,1.1272215E0,5.9687023E0,3.488918E0,6.0765266E0,4.6085944E0],"categories":[],"categories_nodes":[],"categories_segments":[],"categories_sizes":[],"default_left":[0,0,0,0,0,0,0,0,0,0,0,0,0,0,0,0,0,0,0,0,0,0,0,0,0,0,0,0,0,0,0],"id":23,"left_children":[1,3,5,7,9,11,13,15,17,19,21,23,25,27,29,-1,-1,-1,-1,-1,-1,-1,-1,-1,-1,-1,-1,-1,-1,-1,-1],"loss_changes":[2.0406001E6,3.333617E5,3.053835E5,5.3339375E4,6.0542574E4,3.5984438E4,5.248225E4,1.1740094E4,1.379925E4,1.3209123E4,1.898521E4,3.8186375E4,1.3405986E4,2.18845E4,3.83625E3,0E0,0E0,0E0,0E0,0E0,0E0,0E0,0E0,0E0,0E0,0E0,0E0,0E0,0E0,0E0,0E0],"parents":[2147483647,0,0,1,1,2,2,3,3,4,4,5,5,6,6,7,7,8,8,9,9,10,10,11,11,12,12,13,13,14,14],"right_children":[2,4,6,8,10,12,14,16,18,20,22,24,26,28,30,-1,-1,-1,-1,-1,-1,-1,-1,-1,-1,-1,-1,-1,-1,-1,-1],"split_conditions":[1.9038E2,9.804E1,3.1236E2,6.384E1,1.3338E2,1.7E0,4.3092E2,9.569E2,2.6E0,2E-1,1.0023E3,2.7132E2,1.3E0,1.22E1,8.1E0,-1.0574425E0,-7.3156273E-1,-3.8830364E-1,-6.7290235E-1,1.1985772E-1,-2.1660641E-1,6.9657797E-1,1.1522923E-1,1.7058992E0,2.9825835E0,-7.980731E-1,1.1272215E0,5.9687023E0,3.488918E0,6.0765266E0,4.6085944E0],"split_indices":[0,0,0,0,0,2,0,4,6,6,4,0,6,1,3,0,0,0,0,0,0,0,0,0,0,0,0,0,0,0,0],"split_type":[0,0,0,0,0,0,0,0,0,0,0,0,0,0,0,0,0,0,0,0,0,0,0,0,0,0,0,0,0,0,0],"sum_hessian":[5.836E3,5.264E3,5.72E2,3.277E3,1.987E3,3.43E2,2.29E2,1.134E3,2.143E3,1.223E3,7.64E2,3.07E2,3.6E1,1.59E2,7E1,5.54E2,5.8E2,1.552E3,5.91E2,7.45E2,4.78E2,5.78E2,1.86E2,2.24E2,8.3E1,1.4E1,2.2E1,1.1E1,1.48E2,3.6E1,3.4E1],"tree_param":{"num_deleted":"0","num_feature":"9","num_nodes":"31","size_leaf_vector":"1"}},{"base_weights":[7.9262525E-2,-4.8599434E0,6.412332E1,-1.0042056E1,9.215718E0,5.0378212E1,9.134999E1,-1.429017E1,-5.1549644E0,5.4663806E0,2.1779266E1,5.2578316E1,-3.1390247E0,1.0164381E2,7.272901E1,-1.0427712E0,-6.444685E-1,1.4871612E0,-2.7190992E-1,3.203161E-1,-4.0834174E-1,1.3422389E0,1.624561E-2,2.035896E0,3.0389946E0,-1.2723135E0,8.214952E-1,5.353384E0,3.4235668E0,2.994644E0,5.3808827E0],"categories":[],"categories_nodes":[],"categories_segments":[],"categories_sizes":[],"default_left":[0,0,0,0,0,0,0,0,0,0,0,0,0,0,0,0,0,0,0,0,0,0,0,0,0,0,0,0,0,0,0],"id":24,"left_children":[1,3,5,7,9,11,13,15,17,19,21,23,25,27,29,-1,-1,-1,-1,-1,-1,-1,-1,-1,-1,-1,-1,-1,-1,-1,-1],"loss_changes":[1.846711E6,3.954363E5,1.5182762E5,8.2181125E4,6.860712E4,3.313325E4,1.925125E4,1.9218781E4,1.8388484E4,1.4468543E4,3.639817E4,2.3691875E4,5.6564263E3,8.3223125E3,1.7289719E4,0E0,0E0,0E0,0E0,0E0,0E0,0E0,0E0,0E0,0E0,0E0,0E0,0E0,0E0,0E0,0E0],"parents":[2147483647,0,0,1,1,2,2,3,3,4,4,5,5,6,6,7,7,8,8,9,9,10,10,11,11,12,12,13,13,14,14],"right_children":[2,4,6,8,10,12,14,16,18,20,22,24,26,28,30,-1,-1,-1,-1,-1,-1,-1,-1,-1,-1,-1,-1,-1,-1,-1,-1],"split_conditions":[2.3142E2,1.1514E2,3.7392E2,7.752E1,1.6872E2,5.6E0,9.5E0,9.493E2,1.94E1,9E0,1.24E1,2.8044E2,2.71E1,1E-1,4.788E2,-1.0427712E0,-6.444685E-1,1.4871612E0,-2.7190992E-1,3.203161E-1,-4.0834174E-1,1.3422389E0,1.624561E-2,2.035896E0,3.0389946E0,-1.2723135E0,8.214952E-1,5.353384E0,3.4235668E0,2.994644E0,5.3808827E0],"split_indices":[0,0,0,0,0,6,7,4,5,6,7,0,1,2,0,0,0,0,0,0,0,0,0,0,0,0,0,0,0,0,0],"split_type":[0,0,0,0,0,0,0,0,0,0,0,0,0,0,0,0,0,0,0,0,0,0,0,0,0,0,0,0,0,0,0],"sum_hessian":[5.836E3,5.419E3,4.17E2,3.961E3,1.458E3,2.79E2,1.38E2,2.118E3,1.843E3,1.124E3,3.34E2,2.68E2,1.1E1,8.6E1,5.2E1,3.7E2,1.748E3,1.4E1,1.829E3,1.052E3,7.2E1,2.7E2,6.4E1,1.12E2,1.56E2,5E0,6E0,7.2E1,1.4E1,4E1,1.2E1],"tree_param":{"num_deleted":"0","num_feature":"9","num_nodes":"31","size_leaf_vector":"1"}},{"base_weights":[7.9168454E-2,-5.503435E0,5.137468E1,-1.1905741E1,2.6601534E0,3.410115E1,7.69865E1,-1.6422579E1,-9.346433E0,-1.5915201E0,9.167186E0,3.7397984E1,5.735594E0,6.6825584E1,9.880004E1,-1.2424054E0,-7.59744E-1,-3.7522E-1,-6.11041E-1,6.4998937E-1,-1.2425065E-1,2.206714E0,4.2874366E-1,2.150435E0,8.8535684E-1,1.7095337E0,-3.0348232E-1,3.7973669E0,2.4737225E0,5.538947E0,4.165689E0],"categories":[],"categories_nodes":[],"categories_segments":[],"categories_sizes":[],"default_left":[0,0,0,0,0,0,0,0,0,0,0,0,0,0,0,0,0,0,0,0,0,0,0,0,0,0,0,0,0,0,0],"id":25,"left_children":[1,3,5,7,9,11,13,15,17,19,21,23,25,27,29,-1,-1,-1,-1,-1,-1,-1,-1,-1,-1,-1,-1,-1,-1,-1,-1],"loss_changes":[1.6717806E6,2.7521106E5,2.5087375E5,3.395997E4,6.406085E4,3.1955188E4,4.4376125E4,1.06491875E4,9.894125E3,1.8297469E4,1.8572531E4,3.3266188E4,1.263653E4,2.156625E4,3.9416875E3,0E0,0E0,0E0,0E0,0E0,0E0,0E0,0E0,0E0,0E0,0E0,0E0,0E0,0E0,0E0,0E0],"parents":[2147483647,0,0,1,1,2,2,3,3,4,4,5,5,6,6,7,7,8,8,9,9,10,10,11,11,12,12,13,13,14,14],"right_children":[2,4,6,8,10,12,14,16,18,20,22,24,26,28,30,-1,-1,-1,-1,-1,-1,-1,-1,-1,-1,-1,-1,-1,-1,-1,-1],"split_conditions":[1.9038E2,9.12E1,3.1236E2,6.27E1,1.2768E2,1.7E0,4.3092E2,4.104E1,1.3E0,2.2E1,1.65E1,1.25E1,9.72E2,9.6E0,8.1E0,-1.2424054E0,-7.59744E-1,-3.7522E-1,-6.11041E-1,6.4998937E-1,-1.2425065E-1,2.206714E0,4.2874366E-1,2.150435E0,8.8535684E-1,1.7095337E0,-3.0348232E-1,3.7973669E0,2.4737225E0,5.538947E0,4.165689E0],"split_indices":[0,0,0,0,0,2,0,0,6,1,1,7,8,3,3,0,0,0,0,0,0,0,0,0,0,0,0,0,0,0,0],"split_type":[0,0,0,0,0,0,0,0,0,0,0,0,0,0,0,0,0,0,0,0,0,0,0,0,0,0,0,0,0,0,0],"sum_hessian":[5.836E3,5.264E3,5.72E2,2.95E3,2.314E3,3.43E2,2.29E2,1.065E3,1.885E3,1.4E3,9.14E2,3.07E2,3.6E1,1.59E2,7E1,1.33E2,9.32E2,1.151E3,7.34E2,8E1,1.32E3,1.4E1,9E2,2.38E2,6.9E1,1E1,2.6E1,1.02E2,5.7E1,3.6E1,3.4E1],"tree_param":{"num_deleted":"0","num_feature":"9","num_nodes":"31","size_leaf_vector":"1"}},{"base_weights":[7.873809E-2,-4.398256E0,5.8129524E1,-9.751476E0,6.7583103E0,4.564907E1,8.285181E1,-1.4216294E1,-6.425316E0,2.4688776E0,1.6454693E1,5.2715973E1,2.9631336E1,1.0270996E2,7.379083E1,-8.7694806E-1,-5.739907E-1,-2.7696633E-1,-6.718438E-1,2.01393E0,1.0457765E-1,2.6900594E0,7.64147E-1,2.855944E0,1.1765373E0,3.4613597E0,1.0922512E0,1.0823761E0,5.209767E0,3.8103397E0,6.5646666E-1],"categories":[],"categories_nodes":[],"categories_segments":[],"categories_sizes":[],"default_left":[0,0,0,0,0,0,0,0,0,0,0,0,0,0,0,0,0,0,0,0,0,0,0,0,0,0,0,0,0,0,0],"id":26,"left_children":[1,3,5,7,9,11,13,15,17,19,21,23,25,27,29,-1,-1,-1,-1,-1,-1,-1,-1,-1,-1,-1,-1,-1,-1,-1,-1],"loss_changes":[1.5172511E6,3.2376756E5,1.2518975E5,5.430678E4,7.3078055E4,3.0132812E4,1.7431812E4,1.4010094E4,1.2977328E4,1.7320934E4,2.276489E4,2.3456375E4,2.5618625E4,2.6811875E3,1.35085E4,0E0,0E0,0E0,0E0,0E0,0E0,0E0,0E0,0E0,0E0,0E0,0E0,0E0,0E0,0E0,0E0],"parents":[2147483647,0,0,1,1,2,2,3,3,4,4,5,5,6,6,7,7,8,8,9,9,10,10,11,11,12,12,13,13,14,14],"right_children":[2,4,6,8,10,12,14,16,18,20,22,24,26,28,30,-1,-1,-1,-1,-1,-1,-1,-1,-1,-1,-1,-1,-1,-1,-1,-1],"split_conditions":[2.3142E2,1.0716E2,3.7392E2,6.954E1,1.5276E2,1E-1,6.9E0,9.57E2,8.3E0,1.65E1,1.46E1,1.34E1,9.734E2,4.1E0,5.2E0,-8.7694806E-1,-5.739907E-1,-2.7696633E-1,-6.718438E-1,2.01393E0,1.0457765E-1,2.6900594E0,7.64147E-1,2.855944E0,1.1765373E0,3.4613597E0,1.0922512E0,1.0823761E0,5.209767E0,3.8103397E0,6.5646666E-1],"split_indices":[0,0,0,0,0,2,3,4,2,1,5,7,8,7,2,0,0,0,0,0,0,0,0,0,0,0,0,0,0,0,0],"split_type":[0,0,0,0,0,0,0,0,0,0,0,0,0,0,0,0,0,0,0,0,0,0,0,0,0,0,0,0,0,0,0],"sum_hessian":[5.836E3,5.419E3,4.17E2,3.662E3,1.757E3,2.79E2,1.38E2,1.562E3,2.1E3,1.219E3,5.38E2,1.92E2,8.7E1,4E1,9.8E1,7.03E2,8.59E2,1.866E3,2.34E2,1.1E1,1.208E3,1.5E1,5.23E2,1.66E2,2.6E1,1.3E1,7.4E1,1E0,3.9E1,9.4E1,4E0],"tree_param":{"num_deleted":"0","num_feature":"9","num_nodes":"31","size_leaf_vector":"1"}},{"base_weights":[7.865993E-2,-4.1777563E0,5.5269325E1,-8.404912E0,8.6103735E0,4.0104176E1,7.3788284E1,-1.2318628E1,-4.160757E0,5.608199E0,2.0346596E1,4.2574493E1,-1.3397111E1,6.3371933E1,8.991399E1,-8.7545234E-1,-5.4203814E-1,-5.921448E-2,-3.4232664E-1,3.9616138E-1,-3.687055E-2,1.1566036E0,-8.092767E-1,2.5037582E0,1.7096732E0,-1.3378481E0,1.0977949E-1,3.2535293E0,-1.1433498E0,5.0443077E0,3.7872932E0],"categories":[],"categories_nodes":[],"categories_segments":[],"categories_sizes":[],"default_left":[0,0,0,0,0,0,0,0,0,0,0,0,0,0,0,0,0,0,0,0,0,0,0,0,0,0,0,0,0,0,0],"id":27,"left_children":[1,3,5,7,9,11,13,15,17,19,21,23,25,27,29,-1,-1,-1,-1,-1,-1,-1,-1,-1,-1,-1,-1,-1,-1,-1,-1],"loss_changes":[1.3714265E6,2.9306356E5,1.14433125E5,6.761959E4,4.7346336E4,3.1232656E4,2.5712625E4,1.60645E4,1.5628398E4,1.57831875E4,2.8256453E4,1.2243406E4,2.350225E3,1.862725E4,3.3955625E3,0E0,0E0,0E0,0E0,0E0,0E0,0E0,0E0,0E0,0E0,0E0,0E0,0E0,0E0,0E0,0E0],"parents":[2147483647,0,0,1,1,2,2,3,3,4,4,5,5,6,6,7,7,8,8,9,9,10,10,11,11,12,12,13,13,14,14],"right_children":[2,4,6,8,10,12,14,16,18,20,22,24,26,28,30,-1,-1,-1,-1,-1,-1,-1,-1,-1,-1,-1,-1,-1,-1,-1,-1],"split_conditions":[2.3142E2,1.1856E2,3.3744E2,7.752E1,1.7328E2,5.6E0,4.3092E2,5.244E1,1E-1,5E-1,1.0111E3,9.6E0,2.71E1,1.54E1,8.1E0,-8.7545234E-1,-5.4203814E-1,-5.921448E-2,-3.4232664E-1,3.9616138E-1,-3.687055E-2,1.1566036E0,-8.092767E-1,2.5037582E0,1.7096732E0,-1.3378481E0,1.0977949E-1,3.2535293E0,-1.1433498E0,5.0443077E0,3.7872932E0],"split_indices":[0,0,0,0,0,6,0,0,6,6,4,7,1,3,3,0,0,0,0,0,0,0,0,0,0,0,0,0,0,0,0],"split_type":[0,0,0,0,0,0,0,0,0,0,0,0,0,0,0,0,0,0,0,0,0,0,0,0,0,0,0,0,0,0,0],"sum_hessian":[5.836E3,5.419E3,4.17E2,4.073E3,1.346E3,2.31E2,1.86E2,2.118E3,1.955E3,1.073E3,2.73E2,2.21E2,1E1,1.16E2,7E1,4.67E2,1.651E3,9.28E2,1.027E3,7.86E2,2.87E2,2.54E2,1.9E1,1.14E2,1.07E2,5E0,5E0,1.14E2,2E0,3.6E1,3.4E1],"tree_param":{"num_deleted":"0","num_feature":"9","num_nodes":"31","size_leaf_vector":"1"}},{"base_weights":[7.692087E-2,-4.729944E0,4.424458E1,-1.0277569E1,2.343823E0,2.9248592E1,6.648099E1,-1.4192226E1,-8.059487E0,-1.309995E0,7.9357953E0,3.2314003E1,2.9406273E0,5.760686E1,8.554267E1,-1.0962695E0,-6.5331787E-1,-3.3517423E-1,-5.6918496E-1,6.100616E-1,-1.0687368E-1,5.127334E-1,1.9209612E-2,1.7254183E0,-4.9449596E-1,-9.904105E-1,8.824486E-1,5.0441504E0,2.6867456E0,4.4720416E0,2.8074505E0],"categories":[],"categories_nodes":[],"categories_segments":[],"categories_sizes":[],"default_left":[0,0,0,0,0,0,0,0,0,0,0,0,0,0,0,0,0,0,0,0,0,0,0,0,0,0,0,0,0,0,0],"id":28,"left_children":[1,3,5,7,9,11,13,15,17,19,21,23,25,27,29,-1,-1,-1,-1,-1,-1,-1,-1,-1,-1,-1,-1,-1,-1,-1,-1],"loss_changes":[1.239451E6,2.0663642E5,1.8912625E5,2.5509219E4,4.731059E4,2.7646719E4,3.3978062E4,8.9946875E3,8.425102E3,1.5689611E4,1.6018816E4,2.8865406E4,1.2729711E4,2.1389125E4,3.11325E3,0E0,0E0,0E0,0E0,0E0,0E0,0E0,0E0,0E0,0E0,0E0,0E0,0E0,0E0,0E0,0E0],"parents":[2147483647,0,0,1,1,2,2,3,3,4,4,5,5,6,6,7,7,8,8,9,9,10,10,11,11,12,12,13,13,14,14],"right_children":[2,4,6,8,10,12,14,16,18,20,22,24,26,28,30,-1,-1,-1,-1,-1,-1,-1,-1,-1,-1,-1,-1,-1,-1,-1,-1],"split_conditions":[1.9038E2,9.12E1,3.1236E2,6.27E1,1.2768E2,1.7E0,4.3092E2,4.104E1,2.6E0,2.2E1,1.0023E3,1.0109E3,1.3E0,1.22E1,9E-1,-1.0962695E0,-6.5331787E-1,-3.3517423E-1,-5.6918496E-1,6.100616E-1,-1.0687368E-1,5.127334E-1,1.9209612E-2,1.7254183E0,-4.9449596E-1,-9.904105E-1,8.824486E-1,5.0441504E0,2.6867456E0,4.4720416E0,2.8074505E0],"split_indices":[0,0,0,0,0,2,0,0,6,1,4,4,6,1,2,0,0,0,0,0,0,0,0,0,0,0,0,0,0,0,0],"split_type":[0,0,0,0,0,0,0,0,0,0,0,0,0,0,0,0,0,0,0,0,0,0,0,0,0,0,0,0,0,0,0],"sum_hessian":[5.836E3,5.264E3,5.72E2,2.95E3,2.314E3,3.43E2,2.29E2,1.065E3,1.885E3,1.4E3,9.14E2,3.07E2,3.6E1,1.59E2,7E1,1.33E2,9.32E2,1.341E3,5.44E2,8E1,1.32E3,6.99E2,2.15E2,2.92E2,1.5E1,1.4E1,2.2E1,1.1E1,1.48E2,6E1,1E1],"tree_param":{"num_deleted":"0","num_feature":"9","num_nodes":"31","size_leaf_vector":"1"}},{"base_weights":[7.5562134E-2,-3.7801056E0,5.0069923E1,-8.389036E0,5.825295E0,3.926407E1,7.1476906E1,-1.22518635E1,-5.511365E0,2.0859468E0,1.4278318E1,4.574592E1,2.460201E1,8.059677E1,5.515794E1,-7.66426E-1,-4.8595262E-1,-2.361095E-1,-6.1186737E-1,1.8858044E0,8.652862E-2,3.9059392E-1,1.0205938E0,3.0084898E0,1.852401E0,3.1228411E0,8.603876E-1,4.2694592E0,2.595029E0,2.173474E0,4.3889313E0],"categories":[],"categories_nodes":[],"categories_segments":[],"categories_sizes":[],"default_left":[0,0,0,0,0,0,0,0,0,0,0,0,0,0,0,0,0,0,0,0,0,0,0,0,0,0,0,0,0,0,0],"id":29,"left_children":[1,3,5,7,9,11,13,15,17,19,21,23,25,27,29,-1,-1,-1,-1,-1,-1,-1,-1,-1,-1,-1,-1,-1,-1,-1,-1],"loss_changes":[1.125339E6,2.399957E5,9.3885625E4,4.0650188E4,5.553848E4,2.5485E4,1.6241375E4,1.2030828E4,1.109427E4,1.5382417E4,2.1218508E4,2.1984094E4,2.3557184E4,7.532875E3,1.6392453E4,0E0,0E0,0E0,0E0,0E0,0E0,0E0,0E0,0E0,0E0,0E0,0E0,0E0,0E0,0E0,0E0],"parents":[2147483647,0,0,1,1,2,2,3,3,4,4,5,5,6,6,7,7,8,8,9,9,10,10,11,11,12,12,13,13,14,14],"right_children":[2,4,6,8,10,12,14,16,18,20,22,24,26,28,30,-1,-1,-1,-1,-1,-1,-1,-1,-1,-1,-1,-1,-1,-1,-1,-1],"split_conditions":[2.3142E2,1.0716E2,3.7392E2,6.954E1,1.5276E2,1E-1,9.5E0,9.57E2,9E0,1.65E1,9.701E2,2.04E1,9.734E2,1E-1,4.788E2,-7.66426E-1,-4.8595262E-1,-2.361095E-1,-6.1186737E-1,1.8858044E0,8.652862E-2,3.9059392E-1,1.0205938E0,3.0084898E0,1.852401E0,3.1228411E0,8.603876E-1,4.2694592E0,2.595029E0,2.173474E0,4.3889313E0],"split_indices":[0,0,0,0,0,2,7,4,2,1,4,1,8,2,0,0,0,0,0,0,0,0,0,0,0,0,0,0,0,0,0],"split_type":[0,0,0,0,0,0,0,0,0,0,0,0,0,0,0,0,0,0,0,0,0,0,0,0,0,0,0,0,0,0,0],"sum_hessian":[5.836E3,5.419E3,4.17E2,3.662E3,1.757E3,2.79E2,1.38E2,1.562E3,2.1E3,1.219E3,5.38E2,1.92E2,8.7E1,8.6E1,5.2E1,7.03E2,8.59E2,1.881E3,2.19E2,1.1E1,1.208E3,2.63E2,2.75E2,7E1,1.22E2,1.3E1,7.4E1,7.2E1,1.4E1,4E1,1.2E1],"tree_param":{"num_deleted":"0","num_feature":"9","num_nodes":"31","size_leaf_vector":"1"}},{"base_weights":[7.581917E-2,-3.45877E0,4.945112E1,-6.9630656E0,8.58935E0,4.1473045E1,7.413235E1,-1.0045597E1,-2.448509E0,5.518803E0,1.7986063E1,8.118604E1,3.907276E1,8.39347E1,6.1593456E1,-7.2944903E-1,-4.3432757E-1,4.4729763E-1,-1.6291639E-1,4.427888E-1,8.206444E-2,1.155618E0,-1.759525E-1,4.2734966E0,4.2319146E-1,2.9262903E0,1.6887267E0,4.435043E0,1.1649582E0,1.8039492E0,3.94255E0],"categories":[],"categories_nodes":[],"categories_segments":[],"categories_sizes":[],"default_left":[0,0,0,0,0,0,0,0,0,0,0,0,0,0,0,0,0,0,0,0,0,0,0,0,0,0,0,0,0,0,0],"id":30,"left_children":[1,3,5,7,9,11,13,15,17,19,21,23,25,27,29,-1,-1,-1,-1,-1,-1,-1,-1,-1,-1,-1,-1,-1,-1,-1,-1],"loss_changes":[1.0188524E6,2.3007534E5,7.3719875E4,5.8715953E4,3.533228E4,2.5138625E4,6.3838125E3,1.5359344E4,1.5844995E4,1.1980068E4,3.3374273E4,4.2611406E3,2.7088125E4,1.2383219E4,1.6969406E4,0E0,0E0,0E0,0E0,0E0,0E0,0E0,0E0,0E0,0E0,0E0,0E0,0E0,0E0,0E0,0E0],"parents":[2147483647,0,0,1,1,2,2,3,3,4,4,5,5,6,6,7,7,8,8,9,9,10,10,11,11,12,12,13,13,14,14],"right_children":[2,4,6,8,10,12,14,16,18,20,22,24,26,28,30,-1,-1,-1,-1,-1,-1,-1,-1,-1,-1,-1,-1,-1,-1,-1,-1],"split_conditions":[2.4282E2,1.2312E2,4.0926E2,8.322E1,1.7328E2,1.22E1,8.1E0,5.472E1,2.24E1,9.1E0,1.26E1,1.33E1,7.1E0,1E-1,1.94E1,-7.2944903E-1,-4.3432757E-1,4.4729763E-1,-1.6291639E-1,4.427888E-1,8.206444E-2,1.155618E0,-1.759525E-1,4.2734966E0,4.2319146E-1,2.9262903E0,1.6887267E0,4.435043E0,1.1649582E0,1.8039492E0,3.94255E0],"split_indices":[0,0,0,0,0,1,3,0,5,7,7,3,3,2,1,0,0,0,0,0,0,0,0,0,0,0,0,0,0,0,0],"split_type":[0,0,0,0,0,0,0,0,0,0,0,0,0,0,0,0,0,0,0,0,0,0,0,0,0,0,0,0,0,0,0],"sum_hessian":[5.836E3,5.447E3,3.89E2,4.22E3,1.227E3,2.96E2,9.3E1,2.507E3,1.713E3,9.26E2,3.01E2,1.5E1,2.81E2,4.9E1,4.4E1,5.75E2,1.932E3,1.13E2,1.6E3,4.97E2,4.29E2,2.43E2,5.8E1,1.4E1,1E0,5.8E1,2.23E2,4.5E1,4E0,1.9E1,2.5E1],"tree_param":{"num_deleted":"0","num_feature":"9","num_nodes":"31","size_leaf_vector":"1"}},{"base_weights":[7.5674444E-2,-3.2857172E0,4.7031536E1,-6.615121E0,8.161106E0,3.823754E1,6.747393E1,-9.349547E0,-2.010688E0,3.553015E1,7.185823E0,4.0077682E1,-5.4320774E0,7.694722E1,4.9601887E1,-6.444991E-1,-3.8473263E-1,5.499255E-1,-1.3527438E-1,1.3076918E0,2.9788349E0,2.5388697E-1,7.9676044E-1,2.8411312E0,1.7699622E0,-9.6077424E-1,2.1161652E0,4.048484E0,2.4708543E0,1.752106E0,4.0252905E0],"categories":[],"categories_nodes":[],"categories_segments":[],"categories_sizes":[],"default_left":[0,0,0,0,0,0,0,0,0,0,0,0,0,0,0,0,0,0,0,0,0,0,0,0,0,0,0,0,0,0,0],"id":31,"left_children":[1,3,5,7,9,11,13,15,17,19,21,23,25,27,29,-1,-1,-1,-1,-1,-1,-1,-1,-1,-1,-1,-1,-1,-1,-1,-1],"loss_changes":[9.214493E5,2.0768323E5,6.753044E4,5.312564E4,3.2523172E4,2.231625E4,1.58228125E4,1.5415578E4,1.4256801E4,7.9115E3,2.1812637E4,1.8670344E4,8.712045E3,4.1934062E3,1.652693E4,0E0,0E0,0E0,0E0,0E0,0E0,0E0,0E0,0E0,0E0,0E0,0E0,0E0,0E0,0E0,0E0],"parents":[2147483647,0,0,1,1,2,2,3,3,4,4,5,5,6,6,7,7,8,8,9,9,10,10,11,11,12,12,13,13,14,14],"right_children":[2,4,6,8,10,12,14,16,18,20,22,24,26,28,30,-1,-1,-1,-1,-1,-1,-1,-1,-1,-1,-1,-1,-1,-1,-1,-1],"split_conditions":[2.4282E2,1.2312E2,3.9444E2,8.55E1,1.75E1,5.6E0,9.5E0,5.928E1,2.2E1,1E-1,1.7898E2,7.2E0,3.249E2,1E-1,4.788E2,-6.444991E-1,-3.8473263E-1,5.499255E-1,-1.3527438E-1,1.3076918E0,2.9788349E0,2.5388697E-1,7.9676044E-1,2.8411312E0,1.7699622E0,-9.6077424E-1,2.1161652E0,4.048484E0,2.4708543E0,1.752106E0,4.0252905E0],"split_indices":[0,0,0,0,5,6,7,0,1,6,0,3,0,2,0,0,0,0,0,0,0,0,0,0,0,0,0,0,0,0,0],"split_type":[0,0,0,0,0,0,0,0,0,0,0,0,0,0,0,0,0,0,0,0,0,0,0,0,0,0,0,0,0,0,0],"sum_hessian":[5.836E3,5.447E3,3.89E2,4.22E3,1.227E3,2.74E2,1.15E2,2.647E3,1.573E3,4.1E1,1.186E3,2.63E2,1.1E1,7.3E1,4.2E1,8.41E2,1.806E3,7.9E1,1.494E3,3.1E1,1E1,9.57E2,2.29E2,5.5E1,2.08E2,9E0,2E0,6.2E1,1.1E1,3E1,1.2E1],"tree_param":{"num_deleted":"0","num_feature":"9","num_nodes":"31","size_leaf_vector":"1"}},{"base_weights":[7.579614E-2,-3.1205626E0,4.4726276E1,-6.7199326E0,6.471787E0,3.232562E1,5.8015087E1,-9.85351E0,-3.6191463E0,2.9835615E0,1.3738764E1,3.4758636E1,-1.8350792E1,5.3718517E1,8.370812E1,-7.470769E-1,-4.3416053E-1,1.2672523E0,-1.9258037E-1,3.196139E-1,-1.1365001E-2,8.2676834E-1,-2.7363318E-1,1.6235892E0,3.3463585E0,-1.4596907E0,-8.345032E-2,3.0514817E0,1.7731742E0,4.5031085E0,-1.7197266E0],"categories":[],"categories_nodes":[],"categories_segments":[],"categories_sizes":[],"default_left":[0,0,0,0,0,0,0,0,0,0,0,0,0,0,0,0,0,0,0,0,0,0,0,0,0,0,0,0,0,0,0],"id":32,"left_children":[1,3,5,7,9,11,13,15,17,19,21,23,25,27,29,-1,-1,-1,-1,-1,-1,-1,-1,-1,-1,-1,-1,-1,-1,-1,-1],"loss_changes":[8.3319006E5,1.8814339E5,6.239275E4,3.8461312E4,3.7652754E4,2.579036E4,1.6146625E4,1.1600672E4,1.351658E4,1.1012039E4,2.598679E4,1.2171875E4,1.760085E3,1.9590406E4,2.1858422E4,0E0,0E0,0E0,0E0,0E0,0E0,0E0,0E0,0E0,0E0,0E0,0E0,0E0,0E0,0E0,0E0],"parents":[2147483647,0,0,1,1,2,2,3,3,4,4,5,5,6,6,7,7,8,8,9,9,10,10,11,11,12,12,13,13,14,14],"right_children":[2,4,6,8,10,12,14,16,18,20,22,24,26,28,30,-1,-1,-1,-1,-1,-1,-1,-1,-1,-1,-1,-1,-1,-1,-1,-1],"split_conditions":[2.4282E2,1.1514E2,3.3744E2,7.524E1,1.5846E2,5.6E0,4.788E2,9.493E2,1.94E1,8.9E0,1.38E1,2.1E0,2.71E1,9.9E0,2E0,-7.470769E-1,-4.3416053E-1,1.2672523E0,-1.9258037E-1,3.196139E-1,-1.1365001E-2,8.2676834E-1,-2.7363318E-1,1.6235892E0,3.3463585E0,-1.4596907E0,-8.345032E-2,3.0514817E0,1.7731742E0,4.5031085E0,-1.7197266E0],"split_indices":[0,0,0,0,0,6,0,4,5,7,3,6,1,7,2,0,0,0,0,0,0,0,0,0,0,0,0,0,0,0,0],"split_type":[0,0,0,0,0,0,0,0,0,0,0,0,0,0,0,0,0,0,0,0,0,0,0,0,0,0,0,0,0,0,0],"sum_hessian":[5.836E3,5.447E3,3.89E2,3.961E3,1.486E3,2.03E2,1.86E2,1.969E3,1.992E3,1.005E3,4.81E2,1.94E2,9E0,1.62E2,2.4E1,3.66E2,1.603E3,1.5E1,1.977E3,4.87E2,5.18E2,4.2E2,6.1E1,1.83E2,1.1E1,5E0,4E0,1.14E2,4.8E1,2.3E1,1E0],"tree_param":{"num_deleted":"0","num_feature":"9","num_nodes":"31","size_leaf_vector":"1"}},{"base_weights":[7.4026465E-2,-3.6115694E0,3.515678E1,-8.040353E0,1.9919252E0,2.2962898E1,5.228743E1,-1.1011235E1,-6.180149E0,-2.290348E-1,8.196541E0,2.4895918E1,-1.3637049E1,6.602542E1,4.452033E1,-9.083447E-1,-5.021651E-1,-2.4425475E-1,-4.70481E-1,1.1426107E0,-2.984999E-2,2.9330297E0,3.7595293E-1,1.5059332E0,4.3504372E-1,-1.755784E0,2.4547811E-1,3.4064224E0,4.2550525E-1,3.6190228E0,1.95832E0],"categories":[],"categories_nodes":[],"categories_segments":[],"categories_sizes":[],"default_left":[0,0,0,0,0,0,0,0,0,0,0,0,0,0,0,0,0,0,0,0,0,0,0,0,0,0,0,0,0,0,0],"id":33,"left_children":[1,3,5,7,9,11,13,15,17,19,21,23,25,27,29,-1,-1,-1,-1,-1,-1,-1,-1,-1,-1,-1,-1,-1,-1,-1,-1],"loss_changes":[7.54856E5,1.3112247E5,1.1473281E5,1.6240484E4,3.215109E4,2.3403484E4,2.1602562E4,7.678797E3,7.5533438E3,1.4613264E4,2.058484E4,2.5958531E4,6.944452E3,9.217656E3,1.9539281E4,0E0,0E0,0E0,0E0,0E0,0E0,0E0,0E0,0E0,0E0,0E0,0E0,0E0,0E0,0E0,0E0],"parents":[2147483647,0,0,1,1,2,2,3,3,4,4,5,5,6,6,7,7,8,8,9,9,10,10,11,11,12,12,13,13,14,14],"right_children":[2,4,6,8,10,12,14,16,18,20,22,24,26,28,30,-1,-1,-1,-1,-1,-1,-1,-1,-1,-1,-1,-1,-1,-1,-1,-1],"split_conditions":[1.938E2,9.12E1,3.1236E2,6.384E1,1.4022E2,1.0109E3,7.3E0,4.104E1,2.6E0,1.94E1,1.46E1,1.22E1,2.0862E2,6.1E0,1.28E1,-9.083447E-1,-5.021651E-1,-2.4425475E-1,-4.70481E-1,1.1426107E0,-2.984999E-2,2.9330297E0,3.7595293E-1,1.5059332E0,4.3504372E-1,-1.755784E0,2.4547811E-1,3.4064224E0,4.2550525E-1,3.6190228E0,1.95832E0],"split_indices":[0,0,0,0,0,4,3,0,6,5,1,7,0,6,1,0,0,0,0,0,0,0,0,0,0,0,0,0,0,0,0],"split_type":[0,0,0,0,0,0,0,0,0,0,0,0,0,0,0,0,0,0,0,0,0,0,0,0,0,0,0,0,0,0,0],"sum_hessian":[5.836E3,5.282E3,5.54E2,2.95E3,2.332E3,3.25E2,2.29E2,1.134E3,1.816E3,1.718E3,6.14E2,3.09E2,1.6E1,8E1,1.49E2,1.33E2,1.001E3,1.298E3,5.18E2,2.6E1,1.692E3,7E0,6.07E2,2.33E2,7.6E1,7E0,9E0,7.7E1,3E0,2.2E1,1.27E2],"tree_param":{"num_deleted":"0","num_feature":"9","num_nodes":"31","size_leaf_vector":"1"}},{"base_weights":[7.240444E-2,-2.7385705E0,4.1734055E1,-5.6926656E0,7.246997E0,3.48769E1,6.1423847E1,-8.148152E0,-1.8578197E0,4.7746286E0,1.5945691E1,4.3064686E1,2.2503136E1,7.0007385E1,5.052161E1,-6.211198E-1,-3.5046956E-1,4.90892E-2,-2.3894821E-1,3.3934066E-1,-3.5975162E-2,1.0899508E0,-1.6952328E-1,2.6503065E0,1.2391866E0,2.5565916E-1,1.9302813E0,3.7128537E0,8.454413E-1,1.3011072E0,3.3712108E0],"categories":[],"categories_nodes":[],"categories_segments":[],"categories_sizes":[],"default_left":[0,0,0,0,0,0,0,0,0,0,0,0,0,0,0,0,0,0,0,0,0,0,0,0,0,0,0,0,0,0,0],"id":34,"left_children":[1,3,5,7,9,11,13,15,17,19,21,23,25,27,29,-1,-1,-1,-1,-1,-1,-1,-1,-1,-1,-1,-1,-1,-1,-1,-1],"loss_changes":[6.836845E5,1.6136752E5,4.7678625E4,3.9731547E4,2.6785328E4,2.69935E4,5.2595938E3,1.2436609E4,1.3682969E4,1.0772658E4,3.1311805E4,2.867325E4,3.1165004E4,1.0027016E4,1.6880195E4,0E0,0E0,0E0,0E0,0E0,0E0,0E0,0E0,0E0,0E0,0E0,0E0,0E0,0E0,0E0,0E0],"parents":[2147483647,0,0,1,1,2,2,3,3,4,4,5,5,6,6,7,7,8,8,9,9,10,10,11,11,12,12,13,13,14,14],"right_children":[2,4,6,8,10,12,14,16,18,20,22,24,26,28,30,-1,-1,-1,-1,-1,-1,-1,-1,-1,-1,-1,-1,-1,-1,-1,-1],"split_conditions":[2.4852E2,1.2312E2,4.0926E2,8.436E1,1.7898E2,9.9E0,8.1E0,9.502E2,1E-1,5E-1,9.922E2,2.56E1,2.77E1,1E-1,1.94E1,-6.211198E-1,-3.5046956E-1,4.90892E-2,-2.3894821E-1,3.3934066E-1,-3.5975162E-2,1.0899508E0,-1.6952328E-1,2.6503065E0,1.2391866E0,2.5565916E-1,1.9302813E0,3.7128537E0,8.454413E-1,1.3011072E0,3.3712108E0],"split_indices":[0,0,0,0,0,7,3,4,6,6,8,1,1,2,1,0,0,0,0,0,0,0,0,0,0,0,0,0,0,0,0],"split_type":[0,0,0,0,0,0,0,0,0,0,0,0,0,0,0,0,0,0,0,0,0,0,0,0,0,0,0,0,0,0,0],"sum_hessian":[5.836E3,5.468E3,3.68E2,4.22E3,1.248E3,2.75E2,9.3E1,2.572E3,1.648E3,9.73E2,2.75E2,1.64E2,1.11E2,4.9E1,4.4E1,5.39E2,2.033E3,8.36E2,8.12E2,7.12E2,2.61E2,2.11E2,6.4E1,1.05E2,5.9E1,5.4E1,5.7E1,4.5E1,4E0,1.9E1,2.5E1],"tree_param":{"num_deleted":"0","num_feature":"9","num_nodes":"31","size_leaf_vector":"1"}},{"base_weights":[7.141754E-2,-2.6016302E0,3.9688835E1,-6.0913177E0,5.0405726E0,3.315507E1,5.8450848E1,-9.69265E0,-4.19379E0,1.9193926E0,1.1719584E1,4.0935028E1,2.1397503E1,5.206946E1,7.39807E1,-6.174863E-1,-3.6054704E-1,-1.758728E-1,-4.9776044E-1,1.6373055E0,7.858333E-2,7.454712E-1,-5.1962174E-3,2.5190418E0,1.1782597E0,2.4310891E-1,1.8354315E0,3.2516937E0,1.9374466E0,3.9996796E0,-1.7582191E0],"categories":[],"categories_nodes":[],"categories_segments":[],"categories_sizes":[],"default_left":[0,0,0,0,0,0,0,0,0,0,0,0,0,0,0,0,0,0,0,0,0,0,0,0,0,0,0,0,0,0,0],"id":35,"left_children":[1,3,5,7,9,11,13,15,17,19,21,23,25,27,29,-1,-1,-1,-1,-1,-1,-1,-1,-1,-1,-1,-1,-1,-1,-1,-1],"loss_changes":[6.182372E5,1.4588292E5,4.32965E4,2.561961E4,3.5729082E4,2.437075E4,5.4634688E3,8.450297E3,9.554621E3,1.2490057E4,2.0593984E4,2.5884656E4,2.817705E4,9.5685E3,1.9219875E4,0E0,0E0,0E0,0E0,0E0,0E0,0E0,0E0,0E0,0E0,0E0,0E0,0E0,0E0,0E0,0E0],"parents":[2147483647,0,0,1,1,2,2,3,3,4,4,5,5,6,6,7,7,8,8,9,9,10,10,11,11,12,12,13,13,14,14],"right_children":[2,4,6,8,10,12,14,16,18,20,22,24,26,28,30,-1,-1,-1,-1,-1,-1,-1,-1,-1,-1,-1,-1,-1,-1,-1,-1],"split_conditions":[2.4852E2,1.0944E2,4.0926E2,6.612E1,1.5504E2,9.9E0,4.788E2,9.577E2,9E0,1.65E1,9.944E2,2.56E1,2.77E1,9.88E2,2E0,-6.174863E-1,-3.6054704E-1,-1.758728E-1,-4.9776044E-1,1.6373055E0,7.858333E-2,7.454712E-1,-5.1962174E-3,2.5190418E0,1.1782597E0,2.4310891E-1,1.8354315E0,3.2516937E0,1.9374466E0,3.9996796E0,-1.7582191E0],"split_indices":[0,0,0,0,0,7,0,4,2,1,4,1,1,4,2,0,0,0,0,0,0,0,0,0,0,0,0,0,0,0,0],"split_type":[0,0,0,0,0,0,0,0,0,0,0,0,0,0,0,0,0,0,0,0,0,0,0,0,0,0,0,0,0,0,0],"sum_hessian":[5.836E3,5.468E3,3.68E2,3.754E3,1.714E3,2.75E2,9.3E1,1.294E3,2.46E3,1.169E3,5.45E2,1.64E2,1.11E2,6.9E1,2.4E1,6.23E2,6.71E2,2.203E3,2.57E2,1.2E1,1.157E3,4.29E2,1.16E2,1.05E2,5.9E1,5.4E1,5.7E1,3.3E1,3.6E1,2.3E1,1E0],"tree_param":{"num_deleted":"0","num_feature":"9","num_nodes":"31","size_leaf_vector":"1"}},{"base_weights":[7.024767E-2,-3.1051533E0,3.0296505E1,-6.937313E0,1.7434577E0,2.0470161E1,4.6342308E1,-1.0226228E1,-5.621577E0,2.8543299E1,1.346528E0,2.4519436E1,5.7619596E0,6.0648422E1,3.859855E1,-8.0956805E-1,-4.5422015E-1,-2.835688E-1,2.4851084E0,1.0733571E0,3.8123848E0,-2.2556933E-2,3.2088864E-1,1.338138E0,-7.775393E-1,1.9650215E0,4.2455965E-3,3.2176197E0,1.148631E0,3.7220237E0,1.7312882E0],"categories":[],"categories_nodes":[],"categories_segments":[],"categories_sizes":[],"default_left":[0,0,0,0,0,0,0,0,0,0,0,0,0,0,0,0,0,0,0,0,0,0,0,0,0,0,0,0,0,0,0],"id":36,"left_children":[1,3,5,7,9,11,13,15,17,19,21,23,25,27,29,-1,-1,-1,-1,-1,-1,-1,-1,-1,-1,-1,-1,-1,-1,-1,-1],"loss_changes":[5.603322E5,9.817369E4,8.655909E4,1.27125E4,2.4779205E4,2.046564E4,2.09235E4,5.587883E3,6.0950547E3,9.84035E3,2.0970633E4,2.4776484E4,1.4467025E4,8.569281E3,1.7214969E4,0E0,0E0,0E0,0E0,0E0,0E0,0E0,0E0,0E0,0E0,0E0,0E0,0E0,0E0,0E0,0E0],"parents":[2147483647,0,0,1,1,2,2,3,3,4,4,5,5,6,6,7,7,8,8,9,9,10,10,11,11,12,12,13,13,14,14],"right_children":[2,4,6,8,10,12,14,16,18,20,22,24,26,28,30,-1,-1,-1,-1,-1,-1,-1,-1,-1,-1,-1,-1,-1,-1,-1,-1],"split_conditions":[1.938E2,9.12E1,3.249E2,5.928E1,1.75E1,1.26E1,7.3E0,4.104E1,1.0162E3,1.7556E2,1.4022E2,1.0109E3,2.04E1,9.9E0,9.72E2,-8.0956805E-1,-4.5422015E-1,-2.835688E-1,2.4851084E0,1.0733571E0,3.8123848E0,-2.2556933E-2,3.2088864E-1,1.338138E0,-7.775393E-1,1.9650215E0,4.2455965E-3,3.2176197E0,1.148631E0,3.7220237E0,1.7312882E0],"split_indices":[0,0,0,0,5,7,3,0,4,0,0,4,1,7,4,0,0,0,0,0,0,0,0,0,0,0,0,0,0,0,0],"split_type":[0,0,0,0,0,0,0,0,0,0,0,0,0,0,0,0,0,0,0,0,0,0,0,0,0,0,0,0,0,0,0],"sum_hessian":[5.836E3,5.282E3,5.54E2,2.95E3,2.332E3,3.45E2,2.09E2,8.41E2,2.109E3,3.3E1,2.299E3,2.7E2,7.5E1,7.1E1,1.38E2,1.33E2,7.08E2,2.108E3,1E0,3E1,3E0,1.698E3,6.01E2,2.56E2,1.4E1,1E1,6.5E1,6.4E1,7E0,1.2E1,1.26E2],"tree_param":{"num_deleted":"0","num_feature":"9","num_nodes":"31","size_leaf_vector":"1"}},{"base_weights":[6.990073E-2,-2.3527198E0,3.5975704E1,-4.90303E0,6.267946E0,2.9943981E1,5.3303154E1,-6.82174E0,-1.19669E0,3.8936465E0,1.3062705E1,6.67068E1,2.7575594E1,4.7286354E1,6.801807E1,-6.299893E-1,-3.0771786E-1,4.381844E-1,-9.8098956E-2,2.3246503E-1,-4.8706624E-1,7.255309E-1,-1.6854022E0,3.5251358E0,2.442032E-1,1.7263787E0,8.5421175E-1,2.9829013E0,1.7319891E0,3.6890702E0,-1.7575463E0],"categories":[],"categories_nodes":[],"categories_segments":[],"categories_sizes":[],"default_left":[0,0,0,0,0,0,0,0,0,0,0,0,0,0,0,0,0,0,0,0,0,0,0,0,0,0,0,0,0,0,0],"id":37,"left_children":[1,3,5,7,9,11,13,15,17,19,21,23,25,27,29,-1,-1,-1,-1,-1,-1,-1,-1,-1,-1,-1,-1,-1,-1,-1,-1],"loss_changes":[5.0782272E5,1.2026871E5,3.696975E4,3.0009023E4,2.0098992E4,2.2191438E4,5.1060938E3,1.0646453E4,1.1001317E4,9.59647E3,2.236268E4,3.4104375E3,1.8446344E4,8.885609E3,1.7458406E4,0E0,0E0,0E0,0E0,0E0,0E0,0E0,0E0,0E0,0E0,0E0,0E0,0E0,0E0,0E0,0E0],"parents":[2147483647,0,0,1,1,2,2,3,3,4,4,5,5,6,6,7,7,8,8,9,9,10,10,11,11,12,12,13,13,14,14],"right_children":[2,4,6,8,10,12,14,16,18,20,22,24,26,28,30,-1,-1,-1,-1,-1,-1,-1,-1,-1,-1,-1,-1,-1,-1,-1,-1],"split_conditions":[2.4852E2,1.2312E2,4.0926E2,8.778E1,1.7328E2,1.22E1,4.788E2,4.788E1,2.24E1,8.6E0,1.23E1,1.33E1,9.9E0,9.88E2,2E0,-6.299893E-1,-3.0771786E-1,4.381844E-1,-9.8098956E-2,2.3246503E-1,-4.8706624E-1,7.255309E-1,-1.6854022E0,3.5251358E0,2.442032E-1,1.7263787E0,8.5421175E-1,2.9829013E0,1.7319891E0,3.6890702E0,-1.7575463E0],"split_indices":[0,0,0,0,0,1,0,0,5,2,6,3,7,4,2,0,0,0,0,0,0,0,0,0,0,0,0,0,0,0,0],"split_type":[0,0,0,0,0,0,0,0,0,0,0,0,0,0,0,0,0,0,0,0,0,0,0,0,0,0,0,0,0,0,0],"sum_hessian":[5.836E3,5.468E3,3.68E2,4.22E3,1.248E3,2.75E2,9.3E1,2.78E3,1.44E3,9.26E2,3.22E2,1.5E1,2.6E2,6.9E1,2.4E1,2.86E2,2.494E3,1.02E2,1.338E3,8.78E2,4.8E1,3.13E2,9E0,1.4E1,1E0,1.55E2,1.05E2,3.3E1,3.6E1,2.3E1,1E0],"tree_param":{"num_deleted":"0","num_feature":"9","num_nodes":"31","size_leaf_vector":"1"}},{"base_weights":[6.832084E-2,-2.0796459E0,3.6743145E1,-4.658021E0,6.3260694E0,5.577509E1,3.1449232E1,-6.9078417E0,-1.7708677E0,3.9063115E0,1.3625814E1,5.883225E1,4.877008E0,6.644096E1,2.867066E1,-5.337495E-1,-2.9221737E-1,3.5355154E-2,-2.362653E-1,2.8442848E-1,-6.955683E-2,8.9100933E-1,-2.3063636E-1,2.5221665E0,3.43853E0,-1.3017457E0,9.556858E-1,4.607188E0,2.2955458E0,1.7928879E0,5.630377E-1],"categories":[],"categories_nodes":[],"categories_segments":[],"categories_sizes":[],"default_left":[0,0,0,0,0,0,0,0,0,0,0,0,0,0,0,0,0,0,0,0,0,0,0,0,0,0,0,0,0,0,0],"id":38,"left_children":[1,3,5,7,9,11,13,15,17,19,21,23,25,27,29,-1,-1,-1,-1,-1,-1,-1,-1,-1,-1,-1,-1,-1,-1,-1,-1],"loss_changes":[4.5989362E5,1.1955653E5,3.0789281E4,2.740561E4,2.2821156E4,1.0449719E4,2.2888E4,9.440648E3,1.3547213E4,9.203856E3,2.4714953E4,1.9501719E3,2.6980437E3,5.267828E3,2.937636E4,0E0,0E0,0E0,0E0,0E0,0E0,0E0,0E0,0E0,0E0,0E0,0E0,0E0,0E0,0E0,0E0],"parents":[2147483647,0,0,1,1,2,2,3,3,4,4,5,5,6,6,7,7,8,8,9,9,10,10,11,11,12,12,13,13,14,14],"right_children":[2,4,6,8,10,12,14,16,18,20,22,24,26,28,30,-1,-1,-1,-1,-1,-1,-1,-1,-1,-1,-1,-1,-1,-1,-1,-1],"split_conditions":[2.7132E2,1.2312E2,6.7E0,8.094E1,1.7898E2,6.1E0,9.72E2,9.503E2,2E-1,7E-1,1.26E1,9.892E2,4.4E0,3.13E1,1E-1,-5.337495E-1,-2.9221737E-1,3.5355154E-2,-2.362653E-1,2.8442848E-1,-6.955683E-2,8.9100933E-1,-2.3063636E-1,2.5221665E0,3.43853E0,-1.3017457E0,9.556858E-1,4.607188E0,2.2955458E0,1.7928879E0,5.630377E-1],"split_indices":[0,0,3,0,0,6,4,4,6,6,7,8,3,1,2,0,0,0,0,0,0,0,0,0,0,0,0,0,0,0,0],"split_type":[0,0,0,0,0,0,0,0,0,0,0,0,0,0,0,0,0,0,0,0,0,0,0,0,0,0,0,0,0,0,0],"sum_hessian":[5.836E3,5.514E3,3.22E2,4.22E3,1.294E3,6.8E1,2.54E2,2.371E3,1.849E3,9.73E2,3.21E2,6.4E1,4E0,1.7E1,2.37E2,5.2E2,1.851E3,1.006E3,8.43E2,7.28E2,2.45E2,2.61E2,6E1,3.8E1,2.6E1,1E0,3E0,6E0,1.1E1,1.67E2,7E1],"tree_param":{"num_deleted":"0","num_feature":"9","num_nodes":"31","size_leaf_vector":"1"}},{"base_weights":[6.7429006E-2,-1.975689E0,3.4952038E1,-4.425361E0,6.0104427E0,5.306771E1,2.9913084E1,-7.59493E0,-2.5605764E0,3.7112174E0,1.2946577E1,5.598234E1,4.5639434E0,6.350241E1,2.724703E1,-4.9881315E-1,-2.8183648E-1,-6.530779E-2,-3.213906E-1,3.3841732E-1,3.7569337E-2,8.466291E-1,-2.1929358E-1,3.6572526E0,2.5358176E0,-1.2692021E0,9.198475E-1,4.4097376E0,2.190334E0,1.7037776E0,5.352821E-1],"categories":[],"categories_nodes":[],"categories_segments":[],"categories_sizes":[],"default_left":[0,0,0,0,0,0,0,0,0,0,0,0,0,0,0,0,0,0,0,0,0,0,0,0,0,0,0,0,0,0,0],"id":39,"left_children":[1,3,5,7,9,11,13,15,17,19,21,23,25,27,29,-1,-1,-1,-1,-1,-1,-1,-1,-1,-1,-1,-1,-1,-1,-1,-1],"loss_changes":[4.1609178E5,1.0791876E5,2.7897281E4,2.4929047E4,2.060427E4,9.499078E3,2.110525E4,7.232242E3,1.2890785E4,8.808236E3,2.2320344E4,2.1649688E3,2.5383423E3,4.8904844E3,2.6518078E4,0E0,0E0,0E0,0E0,0E0,0E0,0E0,0E0,0E0,0E0,0E0,0E0,0E0,0E0,0E0,0E0],"parents":[2147483647,0,0,1,1,2,2,3,3,4,4,5,5,6,6,7,7,8,8,9,9,10,10,11,11,12,12,13,13,14,14],"right_children":[2,4,6,8,10,12,14,16,18,20,22,24,26,28,30,-1,-1,-1,-1,-1,-1,-1,-1,-1,-1,-1,-1,-1,-1,-1,-1],"split_conditions":[2.7132E2,1.2312E2,6.7E0,6.954E1,1.7898E2,6.1E0,9.72E2,9.57E2,2.4E0,8.8E0,1.26E1,5.8E0,4.4E0,3.13E1,1E-1,-4.9881315E-1,-2.8183648E-1,-6.530779E-2,-3.213906E-1,3.3841732E-1,3.7569337E-2,8.466291E-1,-2.1929358E-1,3.6572526E0,2.5358176E0,-1.2692021E0,9.198475E-1,4.4097376E0,2.190334E0,1.7037776E0,5.352821E-1],"split_indices":[0,0,3,0,0,6,4,4,6,7,7,7,3,1,2,0,0,0,0,0,0,0,0,0,0,0,0,0,0,0,0],"split_type":[0,0,0,0,0,0,0,0,0,0,0,0,0,0,0,0,0,0,0,0,0,0,0,0,0,0,0,0,0,0,0],"sum_hessian":[5.836E3,5.514E3,3.22E2,4.22E3,1.294E3,6.8E1,2.54E2,1.562E3,2.658E3,9.73E2,3.21E2,6.4E1,4E0,1.7E1,2.37E2,7.03E2,8.59E2,2.008E3,6.5E2,4.78E2,4.95E2,2.61E2,6E1,1.2E1,5.2E1,1E0,3E0,6E0,1.1E1,1.67E2,7E1],"tree_param":{"num_deleted":"0","num_feature":"9","num_nodes":"31","size_leaf_vector":"1"}},{"base_weights":[6.654436E-2,-2.1651115E0,2.9003166E1,-5.15037E0,2.9870112E0,2.2025316E1,4.2850613E1,-7.9479923E0,-3.7663612E0,5.4009085E0,-2.3768296E0,2.7507465E1,9.751681E0,4.9424183E1,3.1251528E1,-7.843031E-1,-3.6652556E-1,-1.1081451E-1,-2.7654296E-1,1.0807816E-1,1.1915464E0,1.8107975E-1,-3.0333906E-1,1.9735485E0,1.026602E0,2.2139475E0,1.5882842E-1,2.6315594E0,1.3560191E0,1.1116228E0,2.8646164E0],"categories":[],"categories_nodes":[],"categories_segments":[],"categories_sizes":[],"default_left":[0,0,0,0,0,0,0,0,0,0,0,0,0,0,0,0,0,0,0,0,0,0,0,0,0,0,0,0,0,0,0],"id":40,"left_children":[1,3,5,7,9,11,13,15,17,19,21,23,25,27,29,-1,-1,-1,-1,-1,-1,-1,-1,-1,-1,-1,-1,-1,-1,-1,-1],"loss_changes":[3.769963E5,8.337725E4,3.9445594E4,1.3258539E4,2.576593E4,1.8571812E4,9.053781E3,5.308172E3,6.272994E3,8.185853E4,1.3700717E4,1.5295531E4,1.9837166E4,4.7956094E3,1.1174035E4,0E0,0E0,0E0,0E0,0E0,0E0,0E0,0E0,0E0,0E0,0E0,0E0,0E0,0E0,0E0,0E0],"parents":[2147483647,0,0,1,1,2,2,3,3,4,4,5,5,6,6,7,7,8,8,9,9,10,10,11,11,12,12,13,13,14,14],"right_children":[2,4,6,8,10,12,14,16,18,20,22,24,26,28,30,-1,-1,-1,-1,-1,-1,-1,-1,-1,-1,-1,-1,-1,-1,-1,-1],"split_conditions":[2.3142E2,1.0146E2,3.7392E2,6.384E1,9.944E2,1E-1,9.5E0,3.762E1,6E-1,9.74E2,2.6E1,2E1,9.734E2,9E-1,4.788E2,-7.843031E-1,-3.6652556E-1,-1.1081451E-1,-2.7654296E-1,1.0807816E-1,1.1915464E0,1.8107975E-1,-3.0333906E-1,1.9735485E0,1.026602E0,2.2139475E0,1.5882842E-1,2.6315594E0,1.3560191E0,1.1116228E0,2.8646164E0],"split_indices":[0,0,0,0,4,2,7,0,6,4,5,5,8,2,0,0,0,0,0,0,0,0,0,0,0,0,0,0,0,0,0],"split_type":[0,0,0,0,0,0,0,0,0,0,0,0,0,0,0,0,0,0,0,0,0,0,0,0,0,0,0,0,0,0,0],"sum_hessian":[5.836E3,5.419E3,4.17E2,3.431E3,1.988E3,2.79E2,1.38E2,1.134E3,2.297E3,1.371E3,6.17E2,1.92E2,8.7E1,8.6E1,5.2E1,8.2E1,1.052E3,1.224E3,1.073E3,1.167E3,2.04E2,2.35E2,3.82E2,6.9E1,1.23E2,1.3E1,7.4E1,7.4E1,1.2E1,4E1,1.2E1],"tree_param":{"num_deleted":"0","num_feature":"9","num_nodes":"31","size_leaf_vector":"1"}},{"base_weights":[6.544056E-2,-1.7887399E0,3.172408E1,-3.8636296E0,5.962018E0,4.868635E1,2.700988E1,-5.620156E0,-7.5174975E-1,8.204573E0,-1.7226269E0,5.142876E1,3.2977843E0,5.9048893E1,2.4473274E1,-4.8734704E-1,-2.446096E-1,6.310751E-2,-1.6962035E-1,1.359408E-1,1.1171776E0,1.8253824E-1,-5.3575784E-1,3.39963E0,2.319779E0,-1.2414429E0,8.2683295E-1,1.0682431E0,3.4144847E0,1.44302E0,1.344878E-1],"categories":[],"categories_nodes":[],"categories_segments":[],"categories_sizes":[],"default_left":[0,0,0,0,0,0,0,0,0,0,0,0,0,0,0,0,0,0,0,0,0,0,0,0,0,0,0,0,0,0,0],"id":41,"left_children":[1,3,5,7,9,11,13,15,17,19,21,23,25,27,29,-1,-1,-1,-1,-1,-1,-1,-1,-1,-1,-1,-1,-1,-1,-1,-1],"loss_changes":[3.426935E5,8.871508E4,2.4513219E4,2.3778762E4,2.0090852E4,8.419078E3,1.9278812E4,8.306859E3,8.358891E3,6.990108E4,1.2795699E4,2.2644375E3,2.2724116E3,4.8091562E3,2.2667328E4,0E0,0E0,0E0,0E0,0E0,0E0,0E0,0E0,0E0,0E0,0E0,0E0,0E0,0E0,0E0,0E0],"parents":[2147483647,0,0,1,1,2,2,3,3,4,4,5,5,6,6,7,7,8,8,9,9,10,10,11,11,12,12,13,13,14,14],"right_children":[2,4,6,8,10,12,14,16,18,20,22,24,26,28,30,-1,-1,-1,-1,-1,-1,-1,-1,-1,-1,-1,-1,-1,-1,-1,-1],"split_conditions":[2.7132E2,1.2768E2,6.7E0,8.778E1,1.0023E3,6.1E0,9.72E2,9.493E2,2E-1,9.74E2,1.31E1,5.8E0,4.4E0,9E0,9E-1,-4.8734704E-1,-2.446096E-1,6.310751E-2,-1.6962035E-1,1.359408E-1,1.1171776E0,1.8253824E-1,-5.3575784E-1,3.39963E0,2.319779E0,-1.2414429E0,8.2683295E-1,1.0682431E0,3.4144847E0,1.44302E0,1.344878E-1],"split_indices":[0,0,3,0,4,6,4,4,6,4,3,7,3,3,2,0,0,0,0,0,0,0,0,0,0,0,0,0,0,0,0],"split_type":[0,0,0,0,0,0,0,0,0,0,0,0,0,0,0,0,0,0,0,0,0,0,0,0,0,0,0,0,0,0,0],"sum_hessian":[5.836E3,5.514E3,3.22E2,4.35E3,1.164E3,6.8E1,2.54E2,2.78E3,1.57E3,9.01E2,2.63E2,6.4E1,4E0,1.7E1,2.37E2,4.15E2,2.365E3,8.91E2,6.79E2,6.5E2,2.51E2,1.65E2,9.8E1,1.2E1,5.2E1,1E0,3E0,4E0,1.3E1,1.97E2,4E1],"tree_param":{"num_deleted":"0","num_feature":"9","num_nodes":"31","size_leaf_vector":"1"}},{"base_weights":[6.412392E-2,-1.6992939E0,3.0173056E1,-3.6706433E0,5.66469E0,4.6328903E1,2.5683147E1,-5.403444E0,-8.224982E-1,7.795735E0,-1.6378366E0,4.89453E1,3.0499694E0,4.2229664E1,2.1236603E1,-5.985382E-1,-2.477771E-1,5.882891E-2,-1.6989717E-1,1.2915422E-1,1.0615406E0,1.7346618E-1,-5.092407E-1,2.0598872E0,2.9161716E0,-1.2104069E0,7.9582655E-1,2.4595063E0,1.3675903E-1,2.8377457E0,9.2538464E-1],"categories":[],"categories_nodes":[],"categories_segments":[],"categories_sizes":[],"default_left":[0,0,0,0,0,0,0,0,0,0,0,0,0,0,0,0,0,0,0,0,0,0,0,0,0,0,0,0,0,0,0],"id":42,"left_children":[1,3,5,7,9,11,13,15,17,19,21,23,25,27,29,-1,-1,-1,-1,-1,-1,-1,-1,-1,-1,-1,-1,-1,-1,-1,-1],"loss_changes":[3.0996462E5,8.008198E4,2.224E4,2.1468906E4,1.8142512E4,7.663922E3,1.7864766E4,7.8974688E3,8.483596E3,6.311435E4,1.1559139E4,2.3199688E3,2.1389001E3,1.4435141E4,1.8625625E4,0E0,0E0,0E0,0E0,0E0,0E0,0E0,0E0,0E0,0E0,0E0,0E0,0E0,0E0,0E0,0E0],"parents":[2147483647,0,0,1,1,2,2,3,3,4,4,5,5,6,6,7,7,8,8,9,9,10,10,11,11,12,12,13,13,14,14],"right_children":[2,4,6,8,10,12,14,16,18,20,22,24,26,28,30,-1,-1,-1,-1,-1,-1,-1,-1,-1,-1,-1,-1,-1,-1,-1,-1],"split_conditions":[2.7132E2,1.2768E2,6.7E0,8.664E1,1.0023E3,6.1E0,7.3E0,4.332E1,2E-1,9.74E2,1.31E1,9.892E2,4.4E0,9.8E0,9.72E2,-5.985382E-1,-2.477771E-1,5.882891E-2,-1.6989717E-1,1.2915422E-1,1.0615406E0,1.7346618E-1,-5.092407E-1,2.0598872E0,2.9161716E0,-1.2104069E0,7.9582655E-1,2.4595063E0,1.3675903E-1,2.8377457E0,9.2538464E-1],"split_indices":[0,0,3,0,4,6,7,0,6,4,3,8,3,3,4,0,0,0,0,0,0,0,0,0,0,0,0,0,0,0,0],"split_type":[0,0,0,0,0,0,0,0,0,0,0,0,0,0,0,0,0,0,0,0,0,0,0,0,0,0,0,0,0,0,0],"sum_hessian":[5.836E3,5.514E3,3.22E2,4.35E3,1.164E3,6.8E1,2.54E2,2.704E3,1.646E3,9.01E2,2.63E2,6.4E1,4E0,5.2E1,2.02E2,1.71E2,2.533E3,9.27E2,7.19E2,6.5E2,2.51E2,1.65E2,9.8E1,3.8E1,2.6E1,1E0,3E0,4.4E1,8E0,1.3E1,1.89E2],"tree_param":{"num_deleted":"0","num_feature":"9","num_nodes":"31","size_leaf_vector":"1"}},{"base_weights":[6.277283E-2,-1.6143461E0,2.8698215E1,-3.885462E0,4.1770153E0,2.4219032E1,4.425505E1,-6.6834807E0,-2.525897E0,1.7213628E0,8.669201E0,3.052389E1,1.3411756E1,3.277168E1,5.1858208E1,-4.415004E-1,-2.3401658E-1,1.086466E0,-1.335613E-1,1.5058498E-1,-1.9361886E-1,5.4460806E-1,-3.2250297E-1,1.7257334E0,3.318826E-1,-3.3434156E-1,1.7040122E0,2.1073034E0,-3.4385655E0,-2.846245E-1,2.6719644E0],"categories":[],"categories_nodes":[],"categories_segments":[],"categories_sizes":[],"default_left":[0,0,0,0,0,0,0,0,0,0,0,0,0,0,0,0,0,0,0,0,0,0,0,0,0,0,0,0,0,0,0],"id":43,"left_children":[1,3,5,7,9,11,13,15,17,19,21,23,25,27,29,-1,-1,-1,-1,-1,-1,-1,-1,-1,-1,-1,-1,-1,-1,-1,-1],"loss_changes":[2.8036853E5,7.255422E4,2.1435438E4,1.5054914E4,1.7127633E4,1.6829625E4,4.4995E3,5.526926E3,9.462701E3,7.2727773E3,1.8521883E4,1.4927531E4,3.9691594E4,3.240745E4,4.0348906E3,0E0,0E0,0E0,0E0,0E0,0E0,0E0,0E0,0E0,0E0,0E0,0E0,0E0,0E0,0E0,0E0],"parents":[2147483647,0,0,1,1,2,2,3,3,4,4,5,5,6,6,7,7,8,8,9,9,10,10,11,11,12,12,13,13,14,14],"right_children":[2,4,6,8,10,12,14,16,18,20,22,24,26,28,30,-1,-1,-1,-1,-1,-1,-1,-1,-1,-1,-1,-1,-1,-1,-1,-1],"split_conditions":[2.7132E2,1.1514E2,4.3092E2,6.612E1,1.5846E2,9.9E0,1.46E1,9.577E2,1.94E1,1.35E1,1.39E1,2.91E1,2.77E1,6E-1,4.1E0,-4.415004E-1,-2.3401658E-1,1.086466E0,-1.335613E-1,1.5058498E-1,-1.9361886E-1,5.4460806E-1,-3.2250297E-1,1.7257334E0,3.318826E-1,-3.3434156E-1,1.7040122E0,2.1073034E0,-3.4385655E0,-2.846245E-1,2.6719644E0],"split_indices":[0,0,0,0,0,7,5,4,5,7,3,5,1,2,7,0,0,0,0,0,0,0,0,0,0,0,0,0,0,0,0],"split_type":[0,0,0,0,0,0,0,0,0,0,0,0,0,0,0,0,0,0,0,0,0,0,0,0,0,0,0,0,0,0,0],"sum_hessian":[5.836E3,5.514E3,3.22E2,3.961E3,1.553E3,2.52E2,7E1,1.294E3,2.667E3,1.005E3,5.48E2,1.58E2,9.4E1,3E1,4E1,6.23E2,6.71E2,1.5E1,2.652E3,8.17E2,1.88E2,4.78E2,7E1,1.35E2,2.3E1,4.8E1,4.6E1,2.8E1,2E0,1E0,3.9E1],"tree_param":{"num_deleted":"0","num_feature":"9","num_nodes":"31","size_leaf_vector":"1"}},{"base_weights":[6.048047E-2,-1.533546E0,2.7277185E1,-3.1744215E0,5.7443986E0,4.303749E1,2.3216578E1,-4.849387E0,-4.6596462E-1,6.5746193E0,-1.5774028E1,4.9990273E1,-2.1712738E1,5.254234E1,2.0542698E1,-5.9436363E-1,-2.2457047E-1,2.1812832E-1,-6.9961235E-2,1.9152488E0,2.9867265E-1,-1.3280348E0,3.588405E-2,3.0146186E0,2.0023212E0,-1.9522515E-1,-3.2140539E0,3.5048263E0,1.6767663E0,1.7958279E0,6.981151E-1],"categories":[],"categories_nodes":[],"categories_segments":[],"categories_sizes":[],"default_left":[0,0,0,0,0,0,0,0,0,0,0,0,0,0,0,0,0,0,0,0,0,0,0,0,0,0,0,0,0,0,0],"id":44,"left_children":[1,3,5,7,9,11,13,15,17,19,21,23,25,27,29,-1,-1,-1,-1,-1,-1,-1,-1,-1,-1,-1,-1,-1,-1,-1,-1],"loss_changes":[2.5327511E5,6.587947E4,1.967164E4,2.0416852E4,1.8236727E4,3.034804E4,1.9229766E4,6.953082E3,7.7614033E3,1.8426758E4,6.7789023E3,3.6296094E3,5.055483E3,4.655996E3,2.3677203E4,0E0,0E0,0E0,0E0,0E0,0E0,0E0,0E0,0E0,0E0,0E0,0E0,0E0,0E0,0E0,0E0],"parents":[2147483647,0,0,1,1,2,2,3,3,4,4,5,5,6,6,7,7,8,8,9,9,10,10,11,11,12,12,13,13,14,14],"right_children":[2,4,6,8,10,12,14,16,18,20,22,24,26,28,30,-1,-1,-1,-1,-1,-1,-1,-1,-1,-1,-1,-1,-1,-1,-1,-1],"split_conditions":[2.7132E2,1.3338E2,1.38E1,8.778E1,9.6E0,1E-1,9.72E2,4.104E1,7.1E0,1.38E1,1.43E1,8.1E0,9.911E2,3.13E1,7.3E0,-5.9436363E-1,-2.2457047E-1,2.1812832E-1,-6.9961235E-2,1.9152488E0,2.9867265E-1,-1.3280348E0,3.588405E-2,3.0146186E0,2.0023212E0,-1.9522515E-1,-3.2140539E0,3.5048263E0,1.6767663E0,1.7958279E0,6.981151E-1],"split_indices":[0,0,1,0,2,2,4,0,7,5,7,7,4,1,3,0,0,0,0,0,0,0,0,0,0,0,0,0,0,0,0],"split_type":[0,0,0,0,0,0,0,0,0,0,0,0,0,0,0,0,0,0,0,0,0,0,0,0,0,0,0,0,0,0,0],"sum_hessian":[5.836E3,5.514E3,3.22E2,4.5E3,1.014E3,6.4E1,2.58E2,2.78E3,1.72E3,9.77E2,3.7E1,5.8E1,6E0,2E1,2.38E2,1.33E2,2.647E3,2.78E2,1.442E3,1.7E1,9.6E2,2.2E1,1.5E1,2.6E1,3.2E1,5E0,1E0,9E0,1.1E1,7E1,1.68E2],"tree_param":{"num_deleted":"0","num_feature":"9","num_nodes":"31","size_leaf_vector":"1"}},{"base_weights":[5.9089422E-2,-2.1495802E0,1.7872398E1,-4.5683455E0,7.569236E-1,1.2206731E1,3.1653168E1,-8.03609E0,-3.8810682E0,3.6637602E0,-1.3757391E0,1.329385E1,-2.9305685E1,4.7862217E1,2.773833E1,-6.865891E-1,-3.5167465E-1,-1.9621706E-1,2.4636452E0,5.2148014E-1,1.2186348E-1,6.742059E-2,-1.8610686E-1,7.3875E-1,-8.7279445E-1,-1.7857304E0,9.129766E-2,2.5492003E0,-1.21574916E-1,-2.1688125E0,1.47249E0],"categories":[],"categories_nodes":[],"categories_segments":[],"categories_sizes":[],"default_left":[0,0,0,0,0,0,0,0,0,0,0,0,0,0,0,0,0,0,0,0,0,0,0,0,0,0,0,0,0,0,0],"id":45,"left_children":[1,3,5,7,9,11,13,15,17,19,21,23,25,27,29,-1,-1,-1,-1,-1,-1,-1,-1,-1,-1,-1,-1,-1,-1,-1,-1],"loss_changes":[2.296877E5,3.6518062E4,4.9895375E4,6.7254727E3,1.4635394E4,2.105864E4,1.0538625E4,2.5759238E3,5.6400586E3,8.264526E3,8.710844E3,2.06165E4,2.459456E3,5.6191875E3,1.9899078E4,0E0,0E0,0E0,0E0,0E0,0E0,0E0,0E0,0E0,0E0,0E0,0E0,0E0,0E0,0E0,0E0],"parents":[2147483647,0,0,1,1,2,2,3,3,4,4,5,5,6,6,7,7,8,8,9,9,10,10,11,11,12,12,13,13,14,14],"right_children":[2,4,6,8,10,12,14,16,18,20,22,24,26,28,30,-1,-1,-1,-1,-1,-1,-1,-1,-1,-1,-1,-1,-1,-1,-1,-1],"split_conditions":[1.7898E2,8.892E1,3.3744E2,5.244E1,8.8E0,1.23E1,1.28E1,3.648E1,1.0162E3,2.21E1,2.65E1,1.0111E3,2.78E1,1E-1,1.22E1,-6.865891E-1,-3.5167465E-1,-1.9621706E-1,2.4636452E0,5.2148014E-1,1.2186348E-1,6.742059E-2,-1.8610686E-1,7.3875E-1,-8.7279445E-1,-1.7857304E0,9.129766E-2,2.5492003E0,-1.21574916E-1,-2.1688125E0,1.47249E0],"split_indices":[0,0,0,0,7,6,1,0,4,1,1,4,5,2,5,0,0,0,0,0,0,0,0,0,0,0,0,0,0,0,0],"split_type":[0,0,0,0,0,0,0,0,0,0,0,0,0,0,0,0,0,0,0,0,0,0,0,0,0,0,0,0,0,0,0],"sum_hessian":[5.836E3,5.193E3,6.43E2,2.834E3,2.359E3,4.57E2,1.86E2,4.67E2,2.367E3,9.98E2,1.361E3,4.46E2,1.1E1,3.4E1,1.52E2,6.8E1,3.99E2,2.366E3,1E0,1.52E2,8.46E2,6.3E2,7.31E2,4.26E2,2E1,9E0,2E0,3.2E1,2E0,3E0,1.49E2],"tree_param":{"num_deleted":"0","num_feature":"9","num_nodes":"31","size_leaf_vector":"1"}},{"base_weights":[5.64198E-2,-1.3886563E0,2.4729912E1,-3.5390706E0,3.1974852E0,2.07112E1,3.87018E1,-6.0611343E0,-2.4455638E0,5.140646E0,-2.2293477E0,2.6558989E1,1.0705838E1,2.696502E1,4.6632008E1,-6.527572E-1,-2.8015852E-1,-9.4318755E-2,-3.3991396E-1,8.036053E-2,8.388471E-1,7.612386E-2,-4.5623013E-1,1.6344826E0,6.064569E-1,-4.2502543E-1,1.5250846E0,1.7925752E0,-3.396301E0,1.3922374E-1,2.4404602E0],"categories":[],"categories_nodes":[],"categories_segments":[],"categories_sizes":[],"default_left":[0,0,0,0,0,0,0,0,0,0,0,0,0,0,0,0,0,0,0,0,0,0,0,0,0,0,0,0,0,0,0],"id":46,"left_children":[1,3,5,7,9,11,13,15,17,19,21,23,25,27,29,-1,-1,-1,-1,-1,-1,-1,-1,-1,-1,-1,-1,-1,-1,-1,-1],"loss_changes":[2.08153E5,5.440083E4,1.7334562E4,1.0341066E4,1.8581574E4,1.4518508E4,5.3509062E3,3.5622695E3,6.366662E3,5.3300617E4,1.2043343E4,1.3669359E4,3.6378848E4,2.8575934E4,3.7781406E3,0E0,0E0,0E0,0E0,0E0,0E0,0E0,0E0,0E0,0E0,0E0,0E0,0E0,0E0,0E0,0E0],"parents":[2147483647,0,0,1,1,2,2,3,3,4,4,5,5,6,6,7,7,8,8,9,9,10,10,11,11,12,12,13,13,14,14],"right_children":[2,4,6,8,10,12,14,16,18,20,22,24,26,28,30,-1,-1,-1,-1,-1,-1,-1,-1,-1,-1,-1,-1,-1,-1,-1,-1],"split_conditions":[2.7132E2,1.0944E2,4.3092E2,6.384E1,1.0023E3,9.9E0,1.46E1,3.648E1,8.3E0,9.74E2,1.31E1,2.56E1,2.77E1,6E-1,4.5E0,-6.527572E-1,-2.8015852E-1,-9.4318755E-2,-3.3991396E-1,8.036053E-2,8.388471E-1,7.612386E-2,-4.5623013E-1,1.6344826E0,6.064569E-1,-4.2502543E-1,1.5250846E0,1.7925752E0,-3.396301E0,1.3922374E-1,2.4404602E0],"split_indices":[0,0,0,0,4,7,5,0,2,4,3,1,1,2,3,0,0,0,0,0,0,0,0,0,0,0,0,0,0,0,0],"split_type":[0,0,0,0,0,0,0,0,0,0,0,0,0,0,0,0,0,0,0,0,0,0,0,0,0,0,0,0,0,0,0],"sum_hessian":[5.836E3,5.514E3,3.22E2,3.754E3,1.76E3,2.52E2,7E1,1.134E3,2.62E3,1.296E3,4.64E2,1.58E2,9.4E1,3E1,4E1,6.8E1,1.066E3,2.323E3,2.97E2,9.95E2,3.01E2,3.01E2,1.63E2,1.1E2,4.8E1,4.8E1,4.6E1,2.8E1,2E0,2E0,3.8E1],"tree_param":{"num_deleted":"0","num_feature":"9","num_nodes":"31","size_leaf_vector":"1"}},{"base_weights":[5.4196727E-2,-1.3193733E0,2.3506779E1,-2.7444139E0,5.001245E0,3.7475845E1,1.9634731E1,-4.6934876E0,-1.0101161E0,5.7772207E0,-1.5101529E1,3.9925278E1,-1.8619537E0,4.7679924E1,1.7431168E1,-4.1085336E-1,-1.9716893E-1,-7.075193E-3,-2.867727E-1,1.7559026E0,2.6108202E-1,7.7480394E-1,-1.0103554E0,2.83378E0,1.75317E0,-1.3018162E0,5.34536E-1,3.6138577E0,1.4679105E0,1.069362E0,-1.04946546E-1],"categories":[],"categories_nodes":[],"categories_segments":[],"categories_sizes":[],"default_left":[0,0,0,0,0,0,0,0,0,0,0,0,0,0,0,0,0,0,0,0,0,0,0,0,0,0,0,0,0,0,0],"id":47,"left_children":[1,3,5,7,9,11,13,15,17,19,21,23,25,27,29,-1,-1,-1,-1,-1,-1,-1,-1,-1,-1,-1,-1,-1,-1,-1,-1],"loss_changes":[1.8806275E5,4.9688086E4,1.673489E4,1.5209875E4,1.5920496E4,6.7228516E3,1.4927719E4,5.5682617E3,9.78018E3,1.5759176E4,6.2494336E3,3.3062344E3,1.7956119E3,5.9900156E3,1.8433375E4,0E0,0E0,0E0,0E0,0E0,0E0,0E0,0E0,0E0,0E0,0E0,0E0,0E0,0E0,0E0,0E0],"parents":[2147483647,0,0,1,1,2,2,3,3,4,4,5,5,6,6,7,7,8,8,9,9,10,10,11,11,12,12,13,13,14,14],"right_children":[2,4,6,8,10,12,14,16,18,20,22,24,26,28,30,-1,-1,-1,-1,-1,-1,-1,-1,-1,-1,-1,-1,-1,-1,-1,-1],"split_conditions":[2.7132E2,1.3338E2,6.7E0,7.752E1,9.6E0,6.1E0,9.72E2,9.493E2,4.2E0,1.38E1,9.462E2,5.8E0,4.4E0,3.13E1,9E-1,-4.1085336E-1,-1.9716893E-1,-7.075193E-3,-2.867727E-1,1.7559026E0,2.6108202E-1,7.7480394E-1,-1.0103554E0,2.83378E0,1.75317E0,-1.3018162E0,5.34536E-1,3.6138577E0,1.4679105E0,1.069362E0,-1.04946546E-1],"split_indices":[0,0,3,0,2,6,4,4,2,5,4,7,3,1,2,0,0,0,0,0,0,0,0,0,0,0,0,0,0,0,0],"split_type":[0,0,0,0,0,0,0,0,0,0,0,0,0,0,0,0,0,0,0,0,0,0,0,0,0,0,0,0,0,0,0],"sum_hessian":[5.836E3,5.514E3,3.22E2,4.5E3,1.014E3,6.8E1,2.54E2,2.118E3,2.382E3,9.77E2,3.7E1,6.4E1,4E0,1.7E1,2.37E2,3.7E2,1.748E3,2.013E3,3.69E2,1.7E1,9.6E2,5E0,3.2E1,1.2E1,5.2E1,1E0,3E0,6E0,1.1E1,1.97E2,4E1],"tree_param":{"num_deleted":"0","num_feature":"9","num_nodes":"31","size_leaf_vector":"1"}},{"base_weights":[5.3326894E-2,-1.8535972E0,1.5433001E1,-3.8631067E0,7.898593E-1,1.0484009E1,2.7471533E1,-4.3476186E0,5.1591277E-2,3.5050073E0,-1.2244706E0,1.1496724E1,-2.8113323E1,4.270336E1,2.3807575E1,-4.498112E-1,-1.9646749E-1,-1.220997E-2,2.404589E0,9.540236E-2,4.4512388E-1,7.340252E-2,-1.8190098E-1,6.432437E-1,-8.434879E-1,-1.7020712E0,5.0905865E-2,2.2819097E0,-1.9071351E-1,-2.1908522E0,1.2726091E0],"categories":[],"categories_nodes":[],"categories_segments":[],"categories_sizes":[],"default_left":[0,0,0,0,0,0,0,0,0,0,0,0,0,0,0,0,0,0,0,0,0,0,0,0,0,0,0,0,0,0,0],"id":48,"left_children":[1,3,5,7,9,11,13,15,17,19,21,23,25,27,29,-1,-1,-1,-1,-1,-1,-1,-1,-1,-1,-1,-1,-1,-1,-1,-1],"loss_changes":[1.7121539E5,2.7593844E4,3.808061E4,5.5974375E3,1.2277185E4,1.8225574E4,9.4195625E3,5.0705586E3,4.6441514E3,8.223298E3,8.381947E3,1.756491E4,2.1069873E3,4.952332E3,1.8131266E4,0E0,0E0,0E0,0E0,0E0,0E0,0E0,0E0,0E0,0E0,0E0,0E0,0E0,0E0,0E0,0E0],"parents":[2147483647,0,0,1,1,2,2,3,3,4,4,5,5,6,6,7,7,8,8,9,9,10,10,11,11,12,12,13,13,14,14],"right_children":[2,4,6,8,10,12,14,16,18,20,22,24,26,28,30,-1,-1,-1,-1,-1,-1,-1,-1,-1,-1,-1,-1,-1,-1,-1,-1],"split_conditions":[1.7898E2,9.12E1,3.3744E2,1.0102E3,8.8E0,1.23E1,1.28E1,4.56E1,1.0162E3,9.72E2,2.65E1,1.0111E3,2.78E1,1E-1,1.22E1,-4.498112E-1,-1.9646749E-1,-1.220997E-2,2.404589E0,9.540236E-2,4.4512388E-1,7.340252E-2,-1.8190098E-1,6.432437E-1,-8.434879E-1,-1.7020712E0,5.0905865E-2,2.2819097E0,-1.9071351E-1,-2.1908522E0,1.2726091E0],"split_indices":[0,0,0,4,7,6,1,0,4,8,1,4,5,2,5,0,0,0,0,0,0,0,0,0,0,0,0,0,0,0,0],"split_type":[0,0,0,0,0,0,0,0,0,0,0,0,0,0,0,0,0,0,0,0,0,0,0,0,0,0,0,0,0,0,0],"sum_hessian":[5.836E3,5.193E3,6.43E2,2.95E3,2.243E3,4.57E2,1.86E2,2.625E3,3.25E2,9.55E2,1.288E3,4.46E2,1.1E1,3.4E1,1.52E2,2.15E2,2.41E3,3.24E2,1E0,7.38E2,2.17E2,6.09E2,6.79E2,4.26E2,2E1,9E0,2E0,3.2E1,2E0,3E0,1.49E2],"tree_param":{"num_deleted":"0","num_feature":"9","num_nodes":"31","size_leaf_vector":"1"}},{"base_weights":[5.091525E-2,-1.2856808E0,1.9860653E1,-3.317575E0,2.1366677E0,4.2991447E1,1.7230923E1,-6.268558E0,-2.6362846E0,4.0826693E0,-2.269385E0,3.4576492E0,3.569718E1,1.5406884E1,4.6564655E1,-1.6306558E-1,-3.7613383E-1,-1.3354273E-1,2.3444743E0,6.550967E-2,8.785742E-1,1.6295873E-1,-2.827383E-1,1.8477026E0,-5.0224304E-2,1.0242242E0,3.5483226E-1,2.6522195E0,-1.7517639E0],"categories":[],"categories_nodes":[],"categories_segments":[],"categories_sizes":[],"default_left":[0,0,0,0,0,0,0,0,0,0,0,0,0,0,0,0,0,0,0,0,0,0,0,0,0,0,0,0,0],"id":49,"left_children":[1,3,5,7,9,11,13,15,17,19,21,-1,23,25,27,-1,-1,-1,-1,-1,-1,-1,-1,-1,-1,-1,-1,-1,-1],"loss_changes":[1.5457539E5,3.803769E4,2.170464E4,6.8834297E3,1.7483457E4,4.592117E3,1.7100031E4,2.4005059E3,4.9019863E3,5.285692E4,1.17161045E4,0E0,1.4671289E3,1.3146383E4,1.1904598E4,0E0,0E0,0E0,0E0,0E0,0E0,0E0,0E0,0E0,0E0,0E0,0E0,0E0,0E0],"parents":[2147483647,0,0,1,1,2,2,3,3,4,4,5,5,6,6,7,7,8,8,9,9,10,10,12,12,13,13,14,14],"right_children":[2,4,6,8,10,12,14,16,18,20,22,-1,24,26,28,-1,-1,-1,-1,-1,-1,-1,-1,-1,-1,-1,-1,-1,-1],"split_conditions":[2.4852E2,1.0146E2,1.22E1,9.502E2,9.944E2,5.7E0,4.788E2,5E-1,1.0162E3,9.74E2,2.6E1,3.4576492E0,1.33E1,9.9E0,2E0,-1.6306558E-1,-3.7613383E-1,-1.3354273E-1,2.3444743E0,6.550967E-2,8.785742E-1,1.6295873E-1,-2.827383E-1,1.8477026E0,-5.0224304E-2,1.0242242E0,3.5483226E-1,2.6522195E0,-1.7517639E0],"split_indices":[0,0,1,4,4,7,0,6,4,4,5,0,3,7,2,0,0,0,0,0,0,0,0,0,0,0,0,0,0],"split_type":[0,0,0,0,0,0,0,0,0,0,0,0,0,0,0,0,0,0,0,0,0,0,0,0,0,0,0,0,0],"sum_hessian":[5.836E3,5.468E3,3.68E2,3.431E3,2.037E3,3.6E1,3.32E2,6.42E2,2.789E3,1.413E3,6.24E2,6E0,3E1,3.14E2,1.8E1,1.9E2,4.52E2,2.788E3,1E0,1.173E3,2.4E2,2.37E2,3.87E2,2.9E1,1E0,1.94E2,1.2E2,1.7E1,1E0],"tree_param":{"num_deleted":"0","num_feature":"9","num_nodes":"29","size_leaf_vector":"1"}},{"base_weights":[5.0089613E-2,-1.1364886E0,2.030993E1,-2.232499E0,5.079144E0,3.072961E1,1.5833619E1,-3.8047838E0,-4.2428473E-1,7.3775086E0,-2.9366813E0,3.279215E1,-5.6737847E0,2.6946015E0,1.3840609E1,-1.9973391E-1,3.7199244E-1,6.381336E-2,-1.3553576E-1,1.3641126E-1,8.9447254E-1,-1.0689415E0,-2.8585026E-2,2.1881852E0,1.3739858E0,-8.952469E-1,6.2628406E-1,1.56813E0,4.677995E-1],"categories":[],"categories_nodes":[],"categories_segments":[],"categories_sizes":[],"default_left":[0,0,0,0,0,0,0,0,0,0,0,0,0,0,0,0,0,0,0,0,0,0,0,0,0,0,0,0,0],"id":50,"left_children":[1,3,5,7,9,11,13,15,17,19,21,23,25,-1,27,-1,-1,-1,-1,-1,-1,-1,-1,-1,-1,-1,-1,-1,-1],"loss_changes":[1.4034389E5,3.7581703E4,1.4578734E4,1.332934E4,1.5257725E4,7.3940547E3,1.6548074E4,5.385039E3,8.487499E3,3.1376523E4,8.0566133E3,4.101367E3,1.5598741E3,0E0,1.6836895E4,0E0,0E0,0E0,0E0,0E0,0E0,0E0,0E0,0E0,0E0,0E0,0E0,0E0,0E0],"parents":[2147483647,0,0,1,1,2,2,3,3,4,4,5,5,6,6,7,7,8,8,9,9,10,10,11,11,12,12,14,14],"right_children":[2,4,6,8,10,12,14,16,18,20,22,24,26,-1,28,-1,-1,-1,-1,-1,-1,-1,-1,-1,-1,-1,-1,-1,-1],"split_conditions":[2.7132E2,1.4136E2,7.3E0,8.322E1,1.0015E3,6.1E0,9.712E2,1.0132E3,2E-1,9.754E2,1.0048E3,1.54E1,2.67E1,2.6946015E0,1.38E1,-1.9973391E-1,3.7199244E-1,6.381336E-2,-1.3553576E-1,1.3641126E-1,8.9447254E-1,-1.0689415E0,-2.8585026E-2,2.1881852E0,1.3739858E0,-8.952469E-1,6.2628406E-1,1.56813E0,4.677995E-1],"split_indices":[0,0,3,0,4,6,4,8,6,4,8,5,1,0,1,0,0,0,0,0,0,0,0,0,0,0,0,0,0],"split_type":[0,0,0,0,0,0,0,0,0,0,0,0,0,0,0,0,0,0,0,0,0,0,0,0,0,0,0,0,0],"sum_hessian":[5.836E3,5.514E3,3.22E2,4.688E3,8.26E2,9.5E1,2.27E2,2.507E3,2.181E3,6.42E2,1.84E2,9E1,5E0,1E1,2.17E2,2.466E3,4.1E1,1.251E3,9.3E2,4.46E2,1.96E2,2E1,1.64E2,2.7E1,6.3E1,3E0,2E0,4.3E1,1.74E2],"tree_param":{"num_deleted":"0","num_feature":"9","num_nodes":"29","size_leaf_vector":"1"}},{"base_weights":[4.8966706E-2,-1.0796567E0,1.9319275E1,-2.1208506E0,4.8251047E0,2.9227434E1,1.5062685E1,-4.0114827E0,-7.5075275E-1,7.010236E0,-2.7957847E0,3.1191683E1,-5.4349236E0,3.18633E1,1.075727E1,-3.5766616E-1,-1.6920573E-1,8.041534E-1,-4.6590947E-2,1.2960584E-1,8.49976E-1,-1.0180396E0,-2.7164698E-2,2.082684E0,1.3063595E0,-8.6167526E-1,6.0540795E-1,2.0017488E0,-3.0898455E-1,-2.83845E0,6.486501E-1],"categories":[],"categories_nodes":[],"categories_segments":[],"categories_sizes":[],"default_left":[0,0,0,0,0,0,0,0,0,0,0,0,0,0,0,0,0,0,0,0,0,0,0,0,0,0,0,0,0,0,0],"id":51,"left_children":[1,3,5,7,9,11,13,15,17,19,21,23,25,27,29,-1,-1,-1,-1,-1,-1,-1,-1,-1,-1,-1,-1,-1,-1,-1,-1],"loss_changes":[1.2696932E5,3.3916457E4,1.3182266E4,1.2143145E4,1.3791336E4,6.7057266E3,1.6149305E4,3.8588418E3,8.305641E3,2.8333998E4,7.308467E3,3.7333125E3,1.4505671E3,1.4547648E4,2.8116947E4,0E0,0E0,0E0,0E0,0E0,0E0,0E0,0E0,0E0,0E0,0E0,0E0,0E0,0E0,0E0,0E0],"parents":[2147483647,0,0,1,1,2,2,3,3,4,4,5,5,6,6,7,7,8,8,9,9,10,10,11,11,12,12,13,13,14,14],"right_children":[2,4,6,8,10,12,14,16,18,20,22,24,26,28,30,-1,-1,-1,-1,-1,-1,-1,-1,-1,-1,-1,-1,-1,-1,-1,-1],"split_conditions":[2.7132E2,1.4136E2,7.3E0,7.524E1,1.0015E3,6.1E0,7.3E0,9.49E2,1.94E1,9.754E2,1.0048E3,1.54E1,2.67E1,9.8E0,7.6E0,-3.5766616E-1,-1.6920573E-1,8.041534E-1,-4.6590947E-2,1.2960584E-1,8.49976E-1,-1.0180396E0,